{"type":"LSTM","options":{"inputSize":25,"inputRange":25,"hiddenLayers":[20,20],"outputSize":25,"decayRate":0.999,"smoothEps":1e-8,"regc":0.000001,"clipval":5,"maxPredictionLength":100,"dataFormatter":{"indexTable":{"a":0,"b":1,"r":2,"i":3," ":4,"c":5,"l":6,"u":7,"d":8,"o":9,"g":10,"n":11,"m":12,"e":13,"-":14,"t":15,"x":16,"p":17,"s":18,"y":19,"q":20,"w":21,"k":22,"h":23,"unrecognized":24},"characterTable":{"0":"a","1":"b","2":"r","3":"i","4":" ","5":"c","6":"l","7":"u","8":"d","9":"o","10":"g","11":"n","12":"m","13":"e","14":"-","15":"t","16":"x","17":"p","18":"s","19":"y","20":"q","21":"w","22":"k","23":"h","24":null},"values":["abrir calculadora","gnome-calculator","abrir terminal","google-terminal","abrir explorador","nautilus","abrir codigo","code","bases de datos","mysql-workbench"],"characters":["a","b","r","i"," ","c","l","u","d","o","g","n","m","e","-","t","x","p","s","y","q","w","k","h","unrecognized"],"specialIndexes":[24]}},"trainOpts":{"iterations":20000,"errorThresh":0.005,"log":false,"logPeriod":10,"learningRate":0.01,"callbackPeriod":10,"timeout":"Infinity"},"input":{"rows":26,"columns":25,"weights":[-0.5428393483161926,-0.9073956608772278,-0.9473999738693237,-1.1475472450256348,-1.4187778234481812,-1.5148690938949585,-0.5492299795150757,1.1484498977661133,0.4827602207660675,0.5022016763687134,0.318810373544693,0.23778945207595825,0.3466721475124359,-1.3125768899917603,1.024323582649231,0.7085762619972229,2.935837984085083,-1.6006959676742554,-2.972590923309326,-0.6602370142936707,-2.434380292892456,-4.650940895080566,-1.692136526107788,0.5499629974365234,-2.8551595211029053,-2.099043369293213,0.42056411504745483,2.0012454986572266,1.1484614610671997,2.652160167694092,2.1019020080566406,-0.6964979767799377,-0.39469802379608154,-0.6349329948425293,2.1995668411254883,2.522892951965332,-0.3050258755683899,-5.599124908447266,-2.8231465816497803,4.153677463531494,-2.5604987144470215,1.2760653495788574,-3.769132137298584,3.060509443283081,-1.431958794593811,2.7748122215270996,-0.7931744456291199,4.433370590209961,-4.217854976654053,3.2457435131073,-0.704401433467865,1.5846586227416992,1.7515591382980347,-4.933950901031494,-2.155817747116089,0.0038330350071191788,-0.11328395456075668,-1.6932553052902222,0.14822787046432495,-1.080444097518921,1.8386563062667847,1.726444959640503,-1.215129017829895,-0.5474703311920166,1.2062584161758423,1.1713835000991821,-0.2589051425457001,-1.7314107418060303,-1.793520212173462,2.9682445526123047,1.191048264503479,-1.3948018550872803,-0.8890024423599243,2.148428440093994,-0.0053986976854503155,-2.775172710418701,-2.5775742530822754,2.5362472534179688,-0.7518786191940308,0.9120765924453735,-1.7166565656661987,0.9851932525634766,1.0384886264801025,-3.1802384853363037,-1.4120091199874878,-2.2943499088287354,0.04519375413656235,-1.4028362035751343,-2.93365216255188,0.23421594500541687,-2.0642123222351074,4.475361347198486,-2.6227810382843018,1.1101034879684448,1.0654716491699219,2.7842485904693604,-4.484888553619385,-0.6420646905899048,-2.4920873641967773,-0.8017175793647766,3.5121567249298096,0.01796147972345352,1.0950030088424683,2.7707650661468506,1.6190978288650513,-0.18659426271915436,1.2458300590515137,3.9359192848205566,-0.9447729587554932,-4.126812934875488,-3.5367612838745117,-1.8153496980667114,-0.33411529660224915,3.352922201156616,-1.7572519779205322,2.484520435333252,-1.1123623847961426,1.6219054460525513,-0.5323770642280579,1.4523769617080688,-4.369564056396484,4.132639408111572,2.0219104290008545,3.798959493637085,2.926739454269409,3.4913649559020996,0.9112603664398193,-0.25926971435546875,-0.5993044376373291,-4.705849647521973,-0.13157767057418823,0.445738285779953,-2.250459909439087,-4.9269914627075195,-4.320163726806641,0.2880709171295166,-2.5908453464508057,-0.5835661292076111,-0.4120302200317383,-4.321054935455322,-4.1171088218688965,-3.529834747314453,2.2875993251800537,-0.27331098914146423,7.679738998413086,4.73324728012085,0.4968339204788208,-1.9423058032989502,1.5367913246154785,2.501044988632202,5.619317054748535,3.155069589614868,-2.691991090774536,-3.4672698974609375,-3.7737419605255127,-3.4646518230438232,-4.572288513183594,-0.9572155475616455,2.0244598388671875,-2.0582704544067383,-0.9922024011611938,4.5496721267700195,-1.9947478771209717,0.07782480865716934,-1.9661133289337158,-4.922787189483643,-0.9034035801887512,-2.0800626277923584,1.9076589345932007,9.70958137512207,7.96945333480835,2.2215142250061035,-1.647087574005127,-4.494619846343994,3.205340623855591,1.9026224613189697,0.20159181952476501,0.15343210101127625,-1.5283857583999634,-3.359562397003174,-0.7569476366043091,-2.796255350112915,0.3237374424934387,0.7682965993881226,2.8722712993621826,-0.5433991551399231,-0.36267149448394775,4.134731292724609,-0.7279500961303711,-2.1722846031188965,3.078368663787842,-0.5745301842689514,-0.33041590452194214,-2.0601634979248047,2.299177408218384,-0.8652117252349854,-3.1534488201141357,0.48946288228034973,-2.4942941665649414,-1.2512866258621216,3.7526016235351562,6.003690719604492,4.03471040725708,0.04552590101957321,3.9160196781158447,0.26569613814353943,-0.34189122915267944,-6.140213966369629,-0.8495596051216125,6.905838966369629,-0.5079574584960938,-1.5234630107879639,1.6650139093399048,5.37564754486084,-4.7331156730651855,-0.5345357060432434,-4.188356399536133,-2.6266067028045654,2.778951644897461,4.8274102210998535,-1.2667269706726074,9.4269437789917,-2.1500067710876465,3.5741851329803467,4.4662675857543945,-5.516214370727539,1.9961388111114502,-0.15198180079460144,-4.839987277984619,-3.224545478820801,3.342169761657715,1.7273529767990112,-3.5846385955810547,0.4691157639026642,3.325752019882202,3.981100559234619,0.3772922158241272,-7.15225887298584,-3.1216623783111572,4.306400299072266,-3.623368740081787,0.691655695438385,-4.398444652557373,2.554710626602173,2.2703375816345215,-1.721490740776062,1.980505347251892,2.111220598220825,-1.7033138275146484,2.2940266132354736,-0.959309995174408,-3.469403028488159,0.7443127632141113,1.9665518999099731,0.10665395110845566,-0.8605291843414307,2.5942132472991943,0.5961142778396606,0.7093178629875183,-0.3577691316604614,-1.0448569059371948,-1.9891674518585205,-0.0038068965077400208,1.823368787765503,3.9123682975769043,-0.5620917677879333,1.3524466753005981,5.638368606567383,1.8419086933135986,-2.1724274158477783,0.2729072868824005,-4.647749900817871,2.2466306686401367,1.602617859840393,1.0199686288833618,-3.6966404914855957,-1.3783435821533203,-0.12822799384593964,-2.287672519683838,0.4458715319633484,1.50112783908844,2.5460073947906494,-0.8009043335914612,2.2320809364318848,4.543371200561523,1.991517186164856,-0.9433526396751404,0.36226311326026917,-2.71858549118042,4.8366193771362305,0.9874061942100525,-3.996629238128662,0.8379364013671875,-0.8657935857772827,-8.717342376708984,-5.064394950866699,-8.453206062316895,2.4354305267333984,1.6285043954849243,-3.181168794631958,-2.5396595001220703,0.24772630631923676,-1.896623134613037,2.0647201538085938,0.135951966047287,1.8047820329666138,-0.23413480818271637,1.7543259859085083,-3.4564738273620605,-3.7088215351104736,-3.6616170406341553,0.7982518672943115,0.5965771079063416,3.6776885986328125,6.666238307952881,-4.852970600128174,-3.33449387550354,4.854039192199707,0.6215973496437073,-1.261567234992981,3.9438343048095703,2.6828489303588867,1.8311573266983032,-2.6507091522216797,-0.4352604150772095,2.629650831222534,-2.105764389038086,0.8095793724060059,4.463596820831299,6.514366149902344,-2.1433756351470947,-2.8288841247558594,1.5998365879058838,-2.2534780502319336,1.016057014465332,-6.960297107696533,-0.4816570580005646,-0.0049773771315813065,3.4349544048309326,-0.5427207946777344,-1.4799913167953491,-6.159016132354736,1.5315508842468262,3.009171724319458,-0.8819457292556763,0.4423529803752899,3.792433738708496,-3.7187280654907227,-2.0714569091796875,1.9757381677627563,-2.627166271209717,1.0471845865249634,-0.39381369948387146,1.2851102352142334,3.1164803504943848,-2.6176600456237793,2.21267032623291,-0.21402180194854736,3.859665870666504,3.1371707916259766,0.22775624692440033,-2.5541296005249023,0.5671518445014954,3.908912420272827,4.2430100440979,-0.6541116833686829,-2.4188194274902344,0.5104792714118958,1.0483219623565674,1.1060978174209595,-1.7666138410568237,0.8450488448143005,-0.19427181780338287,4.767330169677734,3.335249900817871,-2.1484220027923584,-4.701683521270752,2.123399496078491,4.585960865020752,1.3822836875915527,2.859027624130249,-1.210410714149475,-0.8722649216651917,-1.464621663093567,-3.0232620239257812,-7.983745574951172,-0.6724392175674438,3.1848835945129395,5.88507604598999,-0.8963162899017334,-5.144049167633057,-1.2859864234924316,3.947251319885254,8.913832664489746,-3.9816012382507324,2.759671688079834,-2.050711154937744,-1.550048828125,3.1567623615264893,2.9250779151916504,-3.2950243949890137,6.183248996734619,0.4380309581756592,-0.9664829969406128,-0.31365618109703064,1.058866024017334,0.4247767925262451,-7.554353713989258,4.10054874420166,2.843960762023926,3.305769205093384,3.7481167316436768,-0.4367486536502838,-0.9151970148086548,2.2647817134857178,-4.798935890197754,-0.9451436400413513,-7.30340051651001,0.8416167497634888,-0.26707762479782104,-2.1070852279663086,3.174825668334961,2.87168025970459,0.4227680265903473,0.75876784324646,-2.051147699356079,-6.517530918121338,-2.0928561687469482,-3.6863760948181152,-5.343648433685303,-8.43549633026123,9.283456802368164,4.9990925788879395,1.3689543008804321,1.3814435005187988,4.941632270812988,-8.86030387878418,6.65741491317749,-4.549247741699219,1.9927127361297607,7.817105293273926,7.158882141113281,5.360629558563232,-1.5183899402618408,-6.522926330566406,-1.828824520111084,-6.657072067260742,-5.675877571105957,8.513422966003418,-3.0760412216186523,7.293260097503662,-12.619767189025879,-8.615242958068848,7.885692596435547,2.1573169231414795,-3.8795864582061768,3.5227773189544678,4.02156400680542,2.6484992504119873,-1.0986782312393188,-2.632822275161743,2.0343666076660156,7.8826584815979,3.9534828662872314,-0.20101021230220795,-2.7445809841156006,-3.103426694869995,9.25218391418457,1.1268537044525146,-5.371932029724121,-6.209296226501465,-5.0730814933776855,-8.42087173461914,5.697211742401123,0.05911549925804138,0.9078646898269653,-0.6832243204116821,-0.6053622961044312,-7.267826080322266,-1.6862472295761108,-3.144451141357422,-0.45899561047554016,1.1430400609970093,0.9215555191040039,-1.8717014789581299,3.4245312213897705,-0.8589382171630859,2.391197681427002,-4.151607513427734,-0.7038540244102478,-0.8786900043487549,-2.2736074924468994,-1.0683670043945312,-4.2845635414123535,-0.941145122051239,1.5222408771514893,-1.9687248468399048,-6.092448711395264,2.2310256958007812,-6.488907337188721,-5.660499095916748,-9.790787696838379,3.927500009536743,-4.890729904174805,-0.5990153551101685,-0.5885079503059387,-10.44233512878418,6.677561283111572,7.340518474578857,12.949450492858887,-6.401184558868408,2.9239909648895264,7.943615913391113,-1.4160809516906738,1.4253898859024048,-4.1486334800720215,-1.205102562904358,-1.3821083307266235,-7.513965606689453,1.1468716859817505,-9.185479164123535,-4.0768632888793945,-4.989042282104492,-4.965091228485107,-14.021247863769531,9.998497009277344,12.429487228393555,-0.08352240920066833,-4.231193542480469,1.2830619812011719,3.081226348876953,-6.9345808029174805,-2.0113823413848877,1.6287286281585693,3.2890100479125977,-5.610472202301025,4.485726833343506,-1.4083155393600464,-5.100783348083496,0.9399327039718628,7.376434803009033,-6.719505786895752,0.4057396948337555,-2.3962745666503906,6.935512542724609,3.417555570602417,9.235697746276855,-0.6658643484115601,0.6107140779495239,-4.1291961669921875,3.0890533924102783,2.080176830291748,1.3871091604232788,-11.681278228759766,-11.328930854797363,-0.024764103814959526,3.427114725112915,0.09924968332052231,-0.7640621066093445,-2.524360418319702,12.861132621765137,1.2623522281646729,-8.292183876037598,-11.913841247558594,-8.028526306152344,8.84372615814209,4.933366298675537,-6.849647521972656,-2.4120254516601562,-0.7753702402114868,3.03364896774292,-5.613142013549805,-1.6930383443832397,-1.76764976978302,2.2658071517944336,4.735159397125244,-1.343725562095642,16.323631286621094,6.035864353179932,6.143338680267334,-4.917718410491943,7.57518196105957,-6.571536064147949,-3.381687879562378,0.6101506948471069,0.22742630541324615,2.5979726314544678,-2.809753179550171,4.005631446838379,-3.895725965499878,1.3839256763458252,5.543509483337402,6.730259895324707,4.3673505783081055,-14.08633804321289,-4.575068473815918,-0.4766118824481964,4.169609546661377,7.035780429840088,-3.2260029315948486,-11.116398811340332,2.1966657638549805,1.6524786949157715,-2.4009556770324707,3.7652974128723145,2.3018696308135986,11.461945533752441,-7.396761894226074,4.994796276092529,-0.6825352907180786,-0.05597613751888275,-0.5184828639030457,0.3289516866207123,2.846196413040161,8.62469482421875,11.648783683776855,3.655116081237793,-3.5832552909851074,-1.8790110349655151,-3.308095932006836,2.5250155925750732,-3.591040849685669,-0.701181948184967,8.058788299560547,9.832624435424805,0.055895786732435226,-0.016138993203639984,-0.006529445294290781,-0.04483360797166824,0.04586808755993843,-0.04521368071436882,-0.004803372547030449,-0.04530876502394676,-0.05290081351995468,0.010469041764736176,0.00392157630994916,-0.05158611387014389,-0.06138397753238678,-0.046568937599658966,0.03916219621896744,0.04215759038925171,0.05361093580722809,-0.029786303639411926,-0.011307165957987309,0.06499013304710388,0.05160543695092201,-0.05735103785991669,0.04742254316806793,-0.010539725422859192,0.050262995064258575]},"hiddenLayers":[{"inputMatrix":{"rows":20,"columns":25,"weights":[2.240111827850342,-0.4755467474460602,-0.5617039799690247,-1.3887838125228882,-1.1298561096191406,0.14176490902900696,-0.9891100525856018,-2.4962847232818604,-0.12084011733531952,0.6039952039718628,2.0237972736358643,2.000626802444458,0.09947313368320465,-1.494296669960022,-2.5303561687469482,2.433128833770752,0.7975938320159912,0.7559954524040222,-1.1024036407470703,-2.611100196838379,-2.575629711151123,-0.38317638635635376,-0.5974008440971375,-1.2821567058563232,-2.1716678142547607,2.204897165298462,2.149482011795044,1.1398577690124512,-1.1156078577041626,-1.7385185956954956,0.7446049451828003,-0.39509889483451843,-3.46079683303833,0.12762609124183655,1.9574675559997559,1.1775107383728027,-0.520668625831604,-1.324529767036438,0.26114606857299805,-0.588538646697998,-0.1517491638660431,-0.5879569053649902,0.7114917635917664,-0.764155924320221,2.22192645072937,0.8055729269981384,0.28406640887260437,0.9911792278289795,-1.818650245666504,1.0103055238723755,-2.7685673236846924,0.4800177812576294,-0.9878365993499756,-1.9095757007598877,-1.7960928678512573,-0.22189012169837952,-1.7008047103881836,-0.7628563046455383,2.465397596359253,3.050748586654663,0.23266559839248657,-1.1608532667160034,0.33586031198501587,0.3623361587524414,0.5244176387786865,2.879636287689209,-1.0252302885055542,-1.0167746543884277,-2.687296152114868,1.190256118774414,-3.381119728088379,1.4071513414382935,-0.46144115924835205,1.205276608467102,-0.6216005682945251,3.556084394454956,0.8669756054878235,0.9719139337539673,-1.0196889638900757,0.685469388961792,-1.616062045097351,-2.18991756439209,-0.7172681093215942,-0.11994276940822601,2.9245588779449463,0.11898769438266754,0.9372991323471069,-0.9020370244979858,-0.9240649938583374,-1.958505392074585,-2.1991562843322754,-1.469984531402588,-1.1896754503250122,1.5293524265289307,4.33319616317749,3.4258882999420166,-0.3357773721218109,-2.5444231033325195,-3.8864688873291016,0.4064590036869049,-2.196988344192505,2.880836009979248,0.21231578290462494,-0.9201210737228394,-0.4584236443042755,-0.15214569866657257,0.5953508019447327,-0.5102069973945618,0.5309219360351562,-1.189562201499939,-1.8677676916122437,2.0060558319091797,-0.04954460263252258,1.7638018131256104,1.045994758605957,-1.6331545114517212,-3.180671215057373,1.706547737121582,2.229895830154419,2.7285821437835693,0.5567728877067566,1.3049583435058594,-0.45564934611320496,2.8970553874969482,2.7238223552703857,-2.754817485809326,0.022540554404258728,-2.0829105377197266,-0.684889554977417,-0.2501714825630188,1.8214856386184692,0.6093103289604187,-1.5601859092712402,1.1869231462478638,3.358100414276123,2.2353715896606445,-1.0535506010055542,-0.35962796211242676,-1.4940247535705566,2.4091382026672363,1.8134018182754517,0.53428715467453,-2.72491455078125,-0.9640174508094788,-0.7989571690559387,0.3253355622291565,1.810545563697815,-0.29803386330604553,1.678346037864685,0.8077346086502075,-1.7067676782608032,-0.12152682989835739,-0.5247055888175964,-1.6005442142486572,0.13445714116096497,0.7838354706764221,-1.95741868019104,0.6995875835418701,0.5864841938018799,-0.010527235455811024,0.672609269618988,1.8911203145980835,-2.017639636993408,-2.6959798336029053,2.753387928009033,-2.9683926105499268,0.9519968628883362,-2.982407808303833,-0.09157411754131317,-0.37039846181869507,0.08566813915967941,1.0098052024841309,1.5212879180908203,-2.668142795562744,-2.5420613288879395,-1.3093702793121338,0.9654790759086609,1.2547950744628906,1.4194718599319458,0.5361630320549011,5.002688407897949,0.739096999168396,-1.582089900970459,-0.16826428472995758,-2.7006876468658447,0.0996897965669632,2.337966203689575,-2.223637104034424,0.8840395212173462,1.8360753059387207,-0.4616437554359436,1.5944077968597412,1.4780353307724,0.8069654703140259,-2.8723161220550537,-0.5362486243247986,0.6919847130775452,8.035218238830566,0.468484491109848,0.09804300218820572,-0.680757999420166,-0.8815123438835144,1.6549630165100098,1.8383595943450928,-0.8185203671455383,2.235267162322998,0.431586354970932,-0.2593223452568054,-0.8915154337882996,-0.9170857667922974,-1.461790680885315,0.20848320424556732,-1.4537209272384644,-0.42234596610069275,-0.18713922798633575,-2.3681628704071045,0.5395050644874573,0.08414776623249054,1.669073462486267,0.32260915637016296,2.7800257205963135,2.5760412216186523,0.45017585158348083,-2.274143695831299,2.7753336429595947,0.8349486589431763,0.8829876184463501,-1.7837308645248413,-3.9840176105499268,1.1345781087875366,-1.467534065246582,-3.3718605041503906,-1.1083201169967651,2.9205479621887207,2.0044875144958496,1.6341743469238281,1.8205010890960693,0.7864243388175964,0.1624857634305954,-0.44045692682266235,2.6445400714874268,-0.6982421875,-1.277600646018982,-2.301067590713501,0.7603487372398376,0.6964095234870911,0.32618072628974915,-2.1507301330566406,1.8880757093429565,-1.1581770181655884,-3.891796827316284,-0.49042853713035583,0.7606899738311768,0.11316777765750885,-2.075106382369995,1.9372408390045166,2.425924301147461,-0.6822477579116821,0.017761733382940292,-2.9824016094207764,-1.2276890277862549,-0.23323702812194824,-0.6332834959030151,-1.5550934076309204,1.8315783739089966,-2.464351177215576,0.5769214034080505,0.5224708914756775,2.49705171585083,0.333601713180542,4.435935974121094,-1.6482354402542114,0.1425667256116867,-1.817926287651062,0.16972576081752777,0.039881810545921326,1.32734215259552,-0.6816046237945557,-2.0908806324005127,-1.7737436294555664,2.6357436180114746,0.1336992084980011,-1.5535879135131836,-1.1383930444717407,-3.1562893390655518,2.059807777404785,0.9054397344589233,-2.053516149520874,-3.6645021438598633,-0.6005206108093262,-0.4211156666278839,1.77036452293396,-1.8150721788406372,-0.1333402842283249,1.2004666328430176,0.33258217573165894,0.6210445761680603,0.9142444729804993,1.1772586107254028,0.014217207208275795,1.6075754165649414,0.2873820960521698,0.38765856623649597,-0.8783816695213318,0.37965232133865356,1.6412986516952515,-2.3961944580078125,-0.4732590615749359,-1.062314510345459,1.532629370689392,1.902990460395813,2.492945671081543,0.6315239071846008,-2.559553861618042,-2.449582815170288,-0.1906196027994156,-0.13156430423259735,-1.1412941217422485,0.26442086696624756,0.8329842686653137,-0.4766872525215149,2.0194804668426514,1.5827683210372925,-3.1109724044799805,-2.0412344932556152,-0.8719127178192139,0.2654000520706177,3.1408119201660156,2.2471446990966797,3.03896427154541,1.2044503688812256,1.469594955444336,-0.13230133056640625,0.12185023725032806,0.024870608001947403,-2.356649398803711,-1.1020749807357788,-1.2972791194915771,1.989430546760559,1.7756145000457764,-0.6349689960479736,0.8198691606521606,-0.7041652202606201,3.039888858795166,-0.7179886698722839,1.6814087629318237,1.7671045064926147,1.6785353422164917,0.27148768305778503,1.6278681755065918,1.6694190502166748,-1.7446770668029785,0.4310837388038635,5.266576766967773,0.4600413143634796,0.6989589333534241,-1.7459479570388794,0.16634199023246765,-1.136332631111145,-1.2893757820129395,-1.9099023342132568,1.6625689268112183,-2.2428643703460693,0.6450223326683044,-0.31187814474105835,-1.0915597677230835,0.8899088501930237,1.1443078517913818,0.6175804734230042,-3.650312662124634,1.7033179998397827,0.9326488375663757,2.3070290088653564,0.7006606459617615,-0.8496312499046326,-1.1886111497879028,1.0352251529693604,2.529141426086426,-0.0480244942009449,2.487301826477051,3.2540361881256104,1.3662773370742798,-0.7622130513191223,-2.9310429096221924,-0.7298195362091064,-2.8348841667175293,3.521589517593384,0.019722318276762962,1.531005859375,0.5870685577392578,-0.09288528561592102,-0.01653079129755497,-1.0771147012710571,1.2317708730697632,0.21937896311283112,-0.8965007066726685,2.701293468475342,2.618459939956665,-1.461097240447998,-0.7104778289794922,-2.1542351245880127,-1.4565882682800293,2.146939277648926,0.9537221193313599,0.8611342310905457,1.7859210968017578,1.797448754310608,-0.11700441688299179,-1.6360411643981934,0.45650818943977356,-0.5128434896469116,2.792478561401367,0.05873344466090202,-1.0121593475341797,1.3039060831069946,-2.3006458282470703,3.2499876022338867,-1.1884925365447998,0.18080729246139526,-3.45910382270813,-0.7408915162086487,-2.2022593021392822,1.554361343383789,-1.111131191253662,-1.7806380987167358,-0.8369506597518921,-3.179278612136841,-1.8846473693847656,0.5672528147697449,0.3711685836315155,-0.9235981702804565,1.4651098251342773,2.799703359603882,2.546823740005493,-0.16274738311767578,0.04015852510929108,-1.9842833280563354,0.19710777699947357,-0.5386217832565308,2.287527561187744,-2.266376256942749,1.7309826612472534,0.2248176783323288,-1.158860683441162,-1.8829710483551025,0.28560054302215576,-1.562800645828247,-1.0241644382476807,0.18235032260417938,-1.5683470964431763,3.2254223823547363,2.013483762741089,-2.5297091007232666,-1.0062971115112305,-1.897542953491211,0.24656639993190765,-1.49470853805542,-1.1669098138809204,2.480257034301758,1.7765854597091675,1.6063315868377686,0.6149212718009949,0.14695124328136444,-0.999507486820221,-1.1993879079818726,-1.277621865272522,1.5415340662002563,-2.1595659255981445,-2.6446690559387207,1.1632000207901,0.4261469841003418,0.4627971649169922,0.12822607159614563,-1.5194675922393799,-0.8873793482780457,-1.4893076419830322,-1.914151906967163,2.8345563411712646,-1.5184165239334106,0.16720342636108398,1.6290435791015625,1.9850330352783203,1.1060218811035156,-0.7433418035507202,0.33895137906074524,1.934406042098999,2.664839744567871,-1.4664413928985596,-3.6396236419677734,0.22844451665878296,1.1481304168701172,1.037671446800232,-3.1955032348632812,-1.7760804891586304,-3.513252019882202,-0.31949788331985474,-1.214732050895691,-0.21233037114143372,-0.9661316871643066,-3.26867413520813]},"inputHidden":{"rows":20,"columns":20,"weights":[-0.37194570899009705,-0.28383269906044006,0.3648044168949127,-2.2999753952026367,-0.04627447947859764,4.051867961883545,-2.1887385845184326,1.3418809175491333,1.691425085067749,0.27018022537231445,-0.3052624762058258,-0.23194675147533417,1.4045060873031616,-1.103027582168579,1.00867760181427,-1.5872105360031128,-1.2944039106369019,-2.5258142948150635,-3.392141580581665,-1.9982484579086304,0.14804336428642273,1.875719666481018,-2.39678692817688,-1.6241291761398315,-0.6573230028152466,0.013023748062551022,1.0807427167892456,1.0245429277420044,1.6984248161315918,0.812852680683136,0.5724564790725708,0.16319088637828827,-2.446650981903076,-1.2386071681976318,0.8607950210571289,-1.5865522623062134,-2.3803293704986572,-1.6123578548431396,0.06973490118980408,-0.3112674951553345,-0.5990819931030273,0.8573756814002991,0.14904595911502838,-2.6015567779541016,0.27291953563690186,0.184198260307312,-0.3389146625995636,0.6515307426452637,-0.869030237197876,-0.10244143009185791,1.3490099906921387,0.47904685139656067,-0.05028602480888367,-0.3573814630508423,4.195196151733398,-0.6419581770896912,-0.5161076784133911,2.783430576324463,0.39384448528289795,0.9157774448394775,1.4903221130371094,2.4327759742736816,-0.9763087034225464,-1.0911020040512085,-1.8949227333068848,-2.0174739360809326,-0.3647282123565674,-2.8731226921081543,0.19159939885139465,-0.5987000465393066,-1.9022271633148193,1.077439785003662,0.17727592587471008,0.6047272682189941,-0.6357010006904602,0.9680693745613098,-0.16445016860961914,-0.2507372200489044,-1.862291693687439,0.4542710483074188,-4.42897891998291,1.6479295492172241,-2.0906970500946045,-3.4248757362365723,1.9504539966583252,-0.7499648332595825,-0.5938220620155334,-2.402707815170288,0.07099061459302902,-0.08727112412452698,2.246798515319824,-0.4790198802947998,3.037212610244751,-2.561187505722046,4.475494861602783,-0.7502150535583496,-0.939576268196106,-0.29315638542175293,-4.278436660766602,-1.8531872034072876,-0.9084453582763672,-0.8398811221122742,2.528661012649536,-1.648798942565918,1.4836686849594116,0.5838505029678345,-1.2173465490341187,-0.055545542389154434,-0.9796972274780273,-2.4961485862731934,0.25217297673225403,1.623289704322815,1.5329757928848267,0.10130318999290466,-0.8514097929000854,-1.4679447412490845,-4.617826461791992,0.028839686885476112,0.7409879565238953,-0.6814903616905212,2.828678607940674,0.05837290361523628,-0.046261806041002274,0.12154610455036163,3.6179165840148926,3.098262071609497,-1.3938820362091064,2.242736339569092,2.1493167877197266,-2.0686373710632324,2.2891311645507812,-1.4340428113937378,-1.2711178064346313,-0.251109778881073,-0.5254385471343994,-1.1367413997650146,-0.4491768777370453,-0.4458830654621124,1.16290283203125,1.8993550539016724,1.2195228338241577,-1.939627766609192,-0.03974619880318642,0.24394376575946808,0.12794087827205658,-0.9326575994491577,-1.8554240465164185,-1.689976453781128,-1.2322946786880493,1.631101131439209,-0.6698923110961914,1.6848946809768677,1.5489225387573242,0.22789986431598663,1.3040432929992676,1.324005365371704,-1.9479029178619385,-0.17318566143512726,0.13175179064273834,0.14430420100688934,-3.1308372020721436,-3.0172619819641113,0.44817182421684265,-3.122591495513916,1.569914698600769,0.18536600470542908,-3.46785569190979,6.510664463043213,-0.6649552583694458,-2.2896103858947754,5.17840576171875,-3.61445951461792,1.6340134143829346,-0.7150362133979797,0.46762731671333313,-1.292295217514038,-0.8600635528564453,-0.6229450106620789,-0.81508469581604,1.8823603391647339,-0.514275074005127,0.6759050488471985,-0.18582533299922943,-1.7046611309051514,3.2973062992095947,0.6992193460464478,-0.9677106738090515,-1.4447298049926758,-2.747652292251587,-1.7144944667816162,1.4673244953155518,0.6446375846862793,0.7834717035293579,-1.2743226289749146,-1.8308957815170288,-0.7628809213638306,1.1501755714416504,-1.4797999858856201,-1.1752020120620728,-1.6393564939498901,-0.9161993265151978,-0.32383230328559875,1.9666385650634766,-1.6709915399551392,-0.10247548669576645,0.7752578854560852,-0.4661027789115906,1.5410149097442627,0.11189259588718414,-0.20947138965129852,0.5944421887397766,-0.3351025879383087,2.023301601409912,-0.197780042886734,1.5039963722229004,-0.5118463039398193,2.5999858379364014,0.380000501871109,0.9042083621025085,1.3101413249969482,-0.7536904811859131,1.3468695878982544,0.1362442821264267,-2.2266299724578857,-0.45959538221359253,2.189811944961548,0.24493499100208282,0.17839005589485168,-1.534445881843567,-0.6065306067466736,0.6737339496612549,0.33822667598724365,0.44669008255004883,-2.308567762374878,1.3757376670837402,-1.220405101776123,-0.07803963869810104,2.81117844581604,-0.19061602652072906,-0.7353581190109253,-1.5867958068847656,1.2416659593582153,-1.3673807382583618,-0.8399134874343872,0.32580795884132385,-1.5197783708572388,-0.9238388538360596,1.1033531427383423,0.3207542300224304,-1.9142084121704102,-0.8631297945976257,0.4111481010913849,1.5502785444259644,0.7906656265258789,-0.23520737886428833,-2.1532318592071533,-1.36215078830719,-2.376371145248413,-1.2998569011688232,-0.9419242739677429,0.4079311788082123,0.23564723134040833,1.544062852859497,0.9073483347892761,-3.799889326095581,0.09627585858106613,2.8365745544433594,-0.5807461738586426,2.1158995628356934,-3.1997337341308594,0.257453054189682,-0.9816613793373108,1.140760898590088,3.050276041030884,-0.7145545482635498,3.5236709117889404,-2.4067280292510986,0.6541707515716553,3.2761363983154297,3.4513771533966064,0.8515576124191284,-2.253718376159668,-1.7729649543762207,-1.42121160030365,2.3893916606903076,-2.4060428142547607,-1.706121802330017,-0.024753184989094734,0.10800434648990631,-0.6302916407585144,1.1196666955947876,-0.815739631652832,2.198385000228882,-0.020322512835264206,0.8456978797912598,-0.9988151788711548,0.4523374140262604,-1.1900837421417236,-0.7311467528343201,-3.315474271774292,-0.9223721027374268,0.15337398648262024,-1.4753375053405762,-1.9589842557907104,-1.6803178787231445,0.4392598271369934,3.317453384399414,-0.16877713799476624,3.1289336681365967,-6.06619930267334,-1.0505772829055786,2.012331485748291,-1.6129875183105469,-0.9774231314659119,0.15171049535274506,-1.5014801025390625,-0.9500352144241333,-2.1904642581939697,-1.7985076904296875,0.48410764336586,-0.18669995665550232,0.3146342635154724,2.280519962310791,-0.27560415863990784,1.061423420906067,2.950094223022461,-1.529449462890625,-0.689422070980072,-2.4374537467956543,0.06828437745571136,-0.20089618861675262,-0.22728076577186584,-0.008322886191308498,-0.27284005284309387,0.46139827370643616,-0.6270433664321899,-0.2474125325679779,0.3137688636779785,0.5604017376899719,1.54302978515625,1.35443115234375,-0.14203402400016785,-0.16395485401153564,-1.2350484132766724,1.0160713195800781,1.1453068256378174,-1.8602732419967651,1.3822596073150635,-1.99787437915802,-1.43251371383667,1.1938939094543457,-3.9411966800689697,3.349886417388916,3.8612935543060303,0.014922084286808968,2.585073471069336,2.9208316802978516,-1.1834992170333862,4.129539489746094,1.4653364419937134,0.7256835699081421,0.8842852711677551,1.6121636629104614,-1.4132262468338013,2.0175721645355225,0.5494470596313477,-0.2524465322494507,0.8852936029434204,-2.391890048980713,-1.2360804080963135,0.008297787047922611,0.2870383858680725,0.6461842060089111,0.22704729437828064,0.44683700799942017,-0.2204108089208603,-0.6538538932800293,-1.4249991178512573,-0.2643563747406006,-0.6041314005851746,-1.035190224647522,-2.579378366470337,0.7249200940132141,0.9499624967575073,0.06570471823215485,-0.6833206415176392,2.2146236896514893,-1.6593146324157715,2.2804012298583984,-0.7426814436912537,1.312469482421875,-2.1976964473724365,0.876759946346283,0.333030641078949,1.2826130390167236,-0.02131243795156479,-1.0960770845413208,-1.6816647052764893,0.4942249655723572,0.0416027307510376]},"inputBias":{"rows":20,"columns":1,"weights":[-1.9330945014953613,-1.1943377256393433,-0.4899291694164276,-1.1776201725006104,-1.7749024629592896,-0.848862886428833,-1.7243695259094238,0.29104313254356384,-0.7859655022621155,-1.631502389907837,-0.6850461959838867,-0.9747970104217529,-0.4352820813655853,-1.203216314315796,-1.47865629196167,-1.3562633991241455,-0.32865557074546814,-1.9982101917266846,-1.35682213306427,-1.1322100162506104]},"forgetMatrix":{"rows":20,"columns":25,"weights":[0.3438195288181305,-0.011892139911651611,0.8617498278617859,-0.1932550072669983,2.1125385761260986,3.2894976139068604,-0.581013560295105,0.2928012013435364,-2.575977325439453,-0.13825251162052155,-0.5198632478713989,1.6395883560180664,-0.2692405581474304,-0.6965645551681519,-0.13498273491859436,0.6592224836349487,0.17871513962745667,-0.9268649816513062,-0.7679493427276611,-0.5477737188339233,-0.008211999200284481,0.8532342314720154,1.3672312498092651,-1.4047694206237793,-0.8721015453338623,1.8595331907272339,0.07095232605934143,-2.0948541164398193,-1.172430396080017,-0.6868225336074829,-1.676273226737976,-0.7536540627479553,0.9438139796257019,1.638939380645752,1.5975428819656372,0.403903990983963,0.18921691179275513,0.6347124576568604,0.13804137706756592,-1.470153570175171,-0.5019001960754395,-1.3818285465240479,-0.363251656293869,-0.7728046178817749,2.2234749794006348,-0.37667709589004517,0.7567841410636902,-1.4055293798446655,0.7910287976264954,-0.5901070833206177,-1.14198899269104,-0.12810131907463074,0.870775043964386,1.611777424812317,1.6426470279693604,2.219937801361084,1.411994457244873,-0.18358251452445984,-0.5540017485618591,-0.29660385847091675,-0.6747483611106873,0.6955621838569641,-1.4747025966644287,-1.1225863695144653,-0.05394071340560913,-1.5799986124038696,-0.16652584075927734,-1.8607118129730225,0.21772460639476776,-2.1930243968963623,-0.5911046266555786,-0.0789421796798706,3.4772214889526367,-1.5167486667633057,-0.2635405659675598,-0.6296001672744751,-2.368722438812256,0.7638636827468872,-0.7102062702178955,-1.2702792882919312,0.5955799221992493,1.453773021697998,1.5275471210479736,1.1319001913070679,-0.9361275434494019,-0.7192931175231934,1.8527129888534546,-1.575165867805481,-1.4184764623641968,0.5299151539802551,-0.7407721281051636,2.313822031021118,-0.47958865761756897,1.014931082725525,-0.9334845542907715,2.2030041217803955,-2.269346237182617,0.5725780129432678,-1.1451681852340698,-2.4782752990722656,-1.7908215522766113,-2.007267951965332,-1.2891545295715332,1.5177143812179565,1.645209550857544,0.7493892908096313,1.1304783821105957,0.38708510994911194,0.3185657262802124,-0.37626415491104126,-0.22065794467926025,-1.3296884298324585,-0.5381240844726562,0.8376414179801941,1.113195538520813,1.5787237882614136,0.5802786946296692,0.3973199129104614,3.1355912685394287,0.33636465668678284,4.3449482917785645,-2.897305727005005,-0.11279680579900742,-0.6617456078529358,2.8296420574188232,0.9724293351173401,1.1779239177703857,2.190505266189575,-0.15122516453266144,2.1102945804595947,1.4347623586654663,0.07390203326940536,-1.9778327941894531,-1.2503063678741455,1.5624512434005737,1.618103265762329,0.7008941769599915,-0.6191555857658386,-1.9909027814865112,0.1926027238368988,0.5614217519760132,3.5878751277923584,-1.8177926540374756,1.0022590160369873,-0.8674212098121643,-0.6224871277809143,0.748496949672699,1.3555492162704468,-2.7687740325927734,-0.2107546478509903,-0.36948060989379883,-0.9233665466308594,-1.316407322883606,-1.290305733680725,-0.3897475004196167,1.6085004806518555,-2.4621565341949463,1.3631634712219238,-0.8409484624862671,0.4239521622657776,0.5648481249809265,0.8691533207893372,-2.263256788253784,-2.5238895416259766,1.5739654302597046,1.4841172695159912,2.0726170539855957,-1.3595753908157349,-0.6847848296165466,1.0257248878479004,2.3661651611328125,-1.254598617553711,0.051269400864839554,-1.889100193977356,-1.4385703802108765,-1.4408694505691528,1.4211567640304565,2.1739253997802734,0.35430771112442017,2.0638206005096436,3.2538836002349854,2.032008409500122,-1.3092340230941772,-1.3416082859039307,-0.35461583733558655,0.8885143399238586,0.7309834957122803,-0.9148484468460083,-1.5729763507843018,0.3571988344192505,-0.597946286201477,0.20694518089294434,-3.722064256668091,-0.22336682677268982,0.3519658148288727,-0.39480388164520264,-0.7304814457893372,2.315092086791992,0.39586392045021057,-1.2808550596237183,-0.3270532190799713,2.293689012527466,-1.6472303867340088,0.03945930674672127,0.03651357814669609,0.35983705520629883,-0.16871380805969238,-3.0734522342681885,0.2858563959598541,1.744259238243103,1.282578468322754,-0.958442747592926,-0.4250590205192566,-0.6164454221725464,1.0336140394210815,0.7315020561218262,-0.03766760602593422,-1.368227481842041,-1.5596990585327148,-0.9866930842399597,-0.5485169887542725,0.6908161044120789,1.4135475158691406,0.525649905204773,0.8052119612693787,-1.3334834575653076,0.04354296252131462,1.6021738052368164,-0.7320346832275391,1.6225395202636719,1.444600224494934,2.5126211643218994,0.6390484571456909,-0.800462543964386,-1.5692520141601562,0.6904451251029968,1.848496437072754,-1.5520343780517578,-0.8335564732551575,1.1330188512802124,-2.3785042762756348,1.400501012802124,-1.7184187173843384,-0.6769365668296814,-1.239156723022461,0.11784202605485916,-1.5619282722473145,0.41404369473457336,-0.6679667830467224,-1.6436258554458618,-1.2742325067520142,-2.087857961654663,0.7609457969665527,1.7151013612747192,1.222488522529602,-0.24135319888591766,0.40004023909568787,1.3842898607254028,-0.5921250581741333,-1.2980848550796509,-1.3145992755889893,0.08707384765148163,0.4607299268245697,1.337334156036377,1.6700769662857056,1.839110255241394,-0.05962004140019417,1.154818058013916,2.64188814163208,-1.1087733507156372,-0.03450454771518707,-1.679413080215454,1.8927665948867798,-1.445907711982727,1.0394136905670166,-1.3986656665802002,1.5723567008972168,1.1447577476501465,0.8883137106895447,1.953088402748108,1.9739302396774292,0.6086393594741821,-1.3174971342086792,-1.1882121562957764,-0.8298059105873108,1.4370160102844238,0.11425670236349106,-2.165189504623413,1.3750221729278564,0.8790773749351501,1.2070766687393188,-0.4001208543777466,-1.0358725786209106,1.281903624534607,0.23613303899765015,-0.24632713198661804,2.623203754425049,1.9723830223083496,0.5838830471038818,1.0119819641113281,0.6178932189941406,-1.0375789403915405,1.1608377695083618,-1.281654715538025,-0.2231348603963852,-0.6811033487319946,-0.21853220462799072,2.0765435695648193,-0.9254037141799927,-0.8682956099510193,-1.0267685651779175,0.1984480619430542,1.1346216201782227,0.0717274621129036,-0.23354734480381012,-1.0845099687576294,-0.566023588180542,0.9930931925773621,1.3049715757369995,0.3816412687301636,1.167218804359436,-2.815281629562378,-0.9698547720909119,-2.1277472972869873,-0.6980941891670227,-1.3633028268814087,-0.37617358565330505,-0.6098057627677917,1.586253046989441,0.09101532399654388,-0.008748362772166729,1.7040256261825562,-1.1888046264648438,0.7581971883773804,0.01259437296539545,0.7391427755355835,-2.546644449234009,0.2283179610967636,2.4328131675720215,0.618339478969574,-0.45536547899246216,-2.4268691539764404,1.657454490661621,0.7136523127555847,-1.207739233970642,-1.0494227409362793,-0.2831372618675232,0.4013165831565857,2.5131912231445312,4.048936367034912,-1.2355997562408447,0.5482186079025269,-0.4160367250442505,1.135945200920105,1.2891602516174316,-0.12666594982147217,1.8744456768035889,-0.5343142747879028,-0.37098947167396545,0.23855635523796082,-1.1141859292984009,-1.3599834442138672,0.1736162006855011,2.2937474250793457,1.2997159957885742,2.2395079135894775,0.5500453114509583,1.5516393184661865,0.10964861512184143,-2.0260651111602783,-1.6279289722442627,0.8538985252380371,-0.682817816734314,3.3754312992095947,1.3116618394851685,1.0456916093826294,0.9123045206069946,-3.129016160964966,-1.289764642715454,-2.5406224727630615,-0.6480548977851868,-0.8693326115608215,-0.6253941655158997,1.2688007354736328,1.509426474571228,2.0831098556518555,0.9182507991790771,1.088172197341919,-0.2997610867023468,-0.617255687713623,-1.21669602394104,-0.7063812613487244,-0.11411835998296738,-0.07007379084825516,2.1617584228515625,-2.078361749649048,1.2114927768707275,-0.38750243186950684,-0.15206727385520935,-0.6909244656562805,-1.0290831327438354,1.4648927450180054,0.1572466343641281,-0.02292906865477562,0.7144143581390381,1.9581589698791504,1.2188905477523804,-1.0189152956008911,0.08459369838237762,-0.03454834595322609,-0.08630416542291641,-0.32019472122192383,-0.5189372897148132,-0.3522200584411621,2.260995864868164,1.4380567073822021,0.9253199100494385,-1.3075957298278809,-0.6780940890312195,-0.6937986612319946,-1.6247578859329224,2.0165529251098633,1.6773078441619873,1.4183279275894165,1.0922985076904297,0.7261853814125061,-0.9058526754379272,-0.40491095185279846,-1.2341656684875488,-1.410179615020752,-0.8100708723068237,1.133468747138977,1.071212649345398,1.5539432764053345,-1.3078175783157349,0.6699619889259338,-2.545506715774536,1.0867241621017456,-0.01000814326107502,0.42817091941833496,0.44711270928382874,-1.7402056455612183,0.2858099341392517,0.752743661403656,2.5010554790496826,1.1096068620681763,-3.5520474910736084,-0.6699100136756897,0.5468037128448486,-0.7492440342903137,-1.322002649307251,0.5508029460906982,2.5702412128448486,0.3156873881816864,0.2731481194496155,1.6927570104599,2.230520725250244,-0.7868574261665344,-1.8686988353729248,-1.1815398931503296,0.06461763381958008,0.11719515919685364,0.0246605072170496,-0.8727691173553467,0.7502094507217407,0.8807198405265808,1.3942707777023315,-0.3341333270072937,0.20496775209903717,-1.463531255722046,0.3613004684448242,-0.6141975522041321,1.5783648490905762,0.09730267524719238,-0.11291635036468506,1.5940117835998535,1.355985164642334,-4.362931728363037,0.37146925926208496,0.5395938158035278,0.045142196118831635,-2.0215132236480713,-1.2091673612594604,-0.08946315944194794,1.1731081008911133,-0.014576305635273457,1.289458990097046,1.0187278985977173,0.7202309966087341,-1.3977822065353394,0.8439486026763916,1.0564953088760376,1.0006071329116821,0.06650035828351974,0.1391019970178604,-0.961378812789917,3.981471300125122,0.8863505125045776,-0.08117105066776276,1.2834219932556152]},"forgetHidden":{"rows":20,"columns":20,"weights":[-1.032383680343628,0.5959305763244629,0.9723902940750122,-0.5613387227058411,-0.3138614296913147,0.3789798617362976,-0.8499777317047119,-1.0461732149124146,-0.455299437046051,-0.15997432172298431,-0.6238359808921814,0.36883625388145447,-1.8797906637191772,-0.2565556764602661,1.4129395484924316,-0.00008781121141510084,0.4176678955554962,0.9729878306388855,0.1386357694864273,-0.6568726897239685,-0.39506128430366516,0.4964430630207062,0.017736466601490974,-1.288048505783081,-1.8371882438659668,-0.9201571345329285,-0.019990727305412292,0.8963431119918823,0.013037501834332943,1.5002248287200928,-0.8205902576446533,0.9428288340568542,-2.5645527839660645,-0.5805251002311707,-1.7322536706924438,0.6335263848304749,0.5578478574752808,0.0711294487118721,-0.23205478489398956,0.8625181317329407,0.19619303941726685,-0.3151214122772217,1.8610032796859741,-0.8150045871734619,1.0478214025497437,0.2502601444721222,-1.3801151514053345,0.6954134106636047,-0.8325400352478027,-0.9813471436500549,-0.2711543142795563,0.4155815541744232,1.3436232805252075,1.7988407611846924,-0.40036270022392273,1.3900853395462036,0.39864808320999146,0.6192898750305176,-0.3863634467124939,1.9918805360794067,-0.49568530917167664,1.6316033601760864,0.40085116028785706,0.758063793182373,0.007279199082404375,-0.0430179089307785,0.9837270379066467,0.9572139978408813,-0.17673566937446594,0.2560141384601593,-0.5257149338722229,1.3464128971099854,-2.74216628074646,-1.787103533744812,-0.614109992980957,-0.26826992630958557,2.4207186698913574,-2.0425450801849365,0.9158583879470825,1.5264009237289429,-0.35741594433784485,-0.04292290285229683,2.5335514545440674,-0.15848244726657867,-0.35833844542503357,1.0759546756744385,0.07932727783918381,-0.16622985899448395,-1.0589059591293335,-1.4796855449676514,1.5167642831802368,-0.1131490096449852,1.2414474487304688,0.8317133188247681,0.9706355333328247,1.3036317825317383,1.200944423675537,0.8478739261627197,0.652094304561615,-3.027599811553955,-0.017655258998274803,-0.1235603466629982,1.0318859815597534,0.1261666864156723,-0.46273353695869446,-0.35989564657211304,-2.5437207221984863,0.561208963394165,0.7108643651008606,1.6627079248428345,1.0106000900268555,-2.810133934020996,-1.0195534229278564,1.3947829008102417,1.3380345106124878,3.1561508178710938,-0.7615108489990234,-1.6241894960403442,1.0488688945770264,0.8730090856552124,0.6008421182632446,0.08315250277519226,0.3039381206035614,-0.9157994389533997,1.1906647682189941,-0.16615310311317444,1.087708592414856,-0.7641382813453674,-3.2318735122680664,-0.9723819494247437,-1.714168667793274,0.15616245567798615,-2.1723315715789795,0.04637303948402405,-0.1511266827583313,1.3637874126434326,-2.135159730911255,1.5548938512802124,0.6976035833358765,0.16189879179000854,-0.10599954426288605,-0.006550940219312906,-0.8499572277069092,0.10873667895793915,-0.1877245008945465,-0.08497683703899384,0.13024581968784332,0.07877331972122192,-1.6535449028015137,-1.6289275884628296,-1.0064889192581177,-0.605372965335846,-1.9422158002853394,0.5945640802383423,-0.43002748489379883,-0.15965701639652252,-0.36242401599884033,0.9958000779151917,0.537305474281311,-0.567630410194397,-0.3420950174331665,0.6430550813674927,-0.33477863669395447,-1.4522302150726318,-0.27261272072792053,0.5642924904823303,-3.4945404529571533,-0.39861419796943665,0.5661231875419617,0.43976351618766785,0.25179117918014526,-1.0506635904312134,-0.5443440675735474,1.8008309602737427,0.600620687007904,1.6142557859420776,-0.746189534664154,-0.5471538305282593,-0.5555766224861145,-0.12157690525054932,-1.54117751121521,-0.6137195825576782,0.3916240334510803,-2.1754651069641113,0.7389922738075256,0.24619124829769135,-1.2143296003341675,-0.13324376940727234,-0.8490239381790161,-0.8553598523139954,0.1969190537929535,-0.665762722492218,-1.797128438949585,-0.7258369326591492,1.226319432258606,0.414184033870697,-0.4792087972164154,1.3104586601257324,-0.7045127153396606,-2.0561583042144775,-0.7183212637901306,1.4543453454971313,0.018120162189006805,-0.11668956279754639,0.9390971660614014,1.2451837062835693,-0.7196727395057678,-0.5956579446792603,0.8192623257637024,-1.1045702695846558,1.9083105325698853,0.05911663919687271,-0.8633726835250854,-0.11165801435709,2.1971936225891113,-0.02366640605032444,-0.09727462381124496,0.6993081569671631,-0.36035940051078796,0.05538741126656532,-1.0220937728881836,-0.006939179729670286,1.037540316581726,-1.2640612125396729,-0.2633823752403259,1.6557960510253906,1.4664504528045654,1.487101674079895,0.6646294593811035,0.45152944326400757,0.21351179480552673,1.1564193964004517,-1.0048710107803345,-0.3818748891353607,-1.2573620080947876,-1.8170956373214722,-0.24746078252792358,0.7176042199134827,-0.46365809440612793,-1.2127788066864014,-0.7690887451171875,-2.059809684753418,1.601412057876587,1.0651582479476929,-1.4749672412872314,0.8839593529701233,2.590391159057617,-0.7205585241317749,1.5133352279663086,0.025131162256002426,-0.20168882608413696,1.1750184297561646,-0.5696234703063965,0.36623603105545044,-0.5411357879638672,0.5699232816696167,1.3170397281646729,-0.46580538153648376,-0.7963473200798035,-0.4640675187110901,-0.6322721838951111,2.1005492210388184,-1.5432311296463013,-1.3133282661437988,-0.792313814163208,0.0879843607544899,0.054127287119627,0.8941113948822021,0.6742092370986938,0.24186313152313232,0.4974479675292969,0.7349091172218323,-0.15692833065986633,-0.27196720242500305,0.8110902905464172,-0.15574616193771362,-1.1405879259109497,-0.6702377796173096,-0.7021981477737427,0.3897709250450134,-0.058302994817495346,0.1948496252298355,1.1051796674728394,-0.012948993593454361,-0.6625183820724487,0.015326122753322124,0.050596147775650024,0.7893672585487366,-0.7501935362815857,-0.002148823346942663,0.5230695605278015,0.9384899139404297,-0.7253388166427612,0.2855603098869324,0.46771788597106934,0.40048277378082275,0.7701771259307861,0.009223182685673237,0.21839970350265503,-0.04635101929306984,1.7532751560211182,-1.1082825660705566,-1.415153980255127,-1.474553108215332,-1.3227044343948364,-3.4580886363983154,-1.4380556344985962,0.2973242700099945,1.2135050296783447,0.34431731700897217,-0.7277193665504456,2.0899617671966553,0.35305055975914,0.3920460343360901,-0.3333050310611725,-1.4287077188491821,-1.8652294874191284,-1.9213242530822754,-1.8408342599868774,-0.30535295605659485,0.4284552037715912,0.38121360540390015,-1.0420557260513306,0.14061710238456726,-1.0851924419403076,-1.5280296802520752,1.1417468786239624,-0.5709691643714905,-0.4162519872188568,-0.023531364277005196,-0.3660202622413635,0.18078352510929108,0.6162312626838684,-0.6727511882781982,-0.2019839733839035,-1.2820171117782593,0.018306827172636986,1.0873562097549438,-0.2276025414466858,-1.1724369525909424,0.27262184023857117,0.9221268892288208,0.9658159017562866,0.21720296144485474,0.22207346558570862,1.1586087942123413,0.0824071615934372,0.5419779419898987,-1.1066553592681885,0.2530348002910614,0.2892833948135376,-0.5455394387245178,-0.6448974013328552,1.0561450719833374,-0.5030134916305542,0.8095431923866272,0.4741213619709015,1.0576212406158447,-0.0172304455190897,1.5984852313995361,-0.7527188062667847,0.1648314893245697,-1.2514959573745728,0.7774174213409424,0.17878271639347076,-1.4926966428756714,-0.6523945927619934,0.45613235235214233,-0.18223035335540771,-0.09079337865114212,0.5611741542816162,0.18528729677200317,0.4214169681072235,0.5752665400505066,0.4188877046108246,1.0529558658599854,0.789189338684082,-0.45096147060394287,-0.9188082218170166,0.969021201133728,0.3963097333908081,0.02106439508497715,0.48764604330062866,-0.8556798696517944,-0.5219137072563171,0.8841120600700378,-2.2550570964813232,1.4376481771469116,0.07388061285018921,-0.6395987868309021,0.18665441870689392,1.29888916015625,0.08116807788610458,0.55012446641922,-0.48797807097435,-1.3064920902252197,0.28301581740379333,-0.031162869185209274,0.7104039788246155,0.16890397667884827]},"forgetBias":{"rows":20,"columns":1,"weights":[0,0,0,0,0,0,0,0,0,0,0,0,0,0,0,0,0,0,0,0]},"outputMatrix":{"rows":20,"columns":25,"weights":[0.16899029910564423,-1.7579892873764038,-1.774247407913208,0.7249793410301208,2.3530445098876953,1.0029802322387695,1.5013571977615356,-0.39610686898231506,0.355325847864151,0.0693686306476593,-2.269458055496216,-0.9020559191703796,1.6730835437774658,1.131768822669983,0.41943874955177307,1.1708251237869263,-0.9549815654754639,2.1948282718658447,0.9765698909759521,-2.4894320964813232,-1.3535016775131226,1.240419626235962,2.220627784729004,3.559995174407959,0.06662432849407196,2.9574246406555176,-1.3922545909881592,0.630713164806366,-0.21833470463752747,0.8007336854934692,0.17510904371738434,-1.03167724609375,1.103380799293518,1.5516332387924194,0.17708922922611237,-3.8980765342712402,-0.7615175247192383,1.4804761409759521,0.9925944209098816,-2.3909783363342285,-0.7448366284370422,-1.3477113246917725,2.0546066761016846,2.056600570678711,2.377084970474243,0.905439555644989,0.19766412675380707,0.12068147957324982,-3.11189341545105,-1.0206841230392456,-1.2101843357086182,0.5027585029602051,-0.5943772196769714,-2.538299798965454,-3.3985540866851807,-1.6122926473617554,0.19654226303100586,-0.4275553524494171,2.932060480117798,1.6654343605041504,2.713475227355957,-0.3298855721950531,-0.28188446164131165,-1.5364388227462769,1.8805794715881348,0.8596538305282593,-1.099897027015686,-0.7256048321723938,-2.1614677906036377,1.5605964660644531,-3.2698287963867188,0.03532951697707176,-0.38052088022232056,-0.2688404321670532,-0.5007430911064148,-0.5382773876190186,0.13598869740962982,-0.14080865681171417,4.162093639373779,3.178128957748413,1.8880221843719482,-0.8954443335533142,-0.005660691764205694,0.2029205560684204,0.2677731215953827,-2.2840561866760254,-0.27865466475486755,-0.1929508000612259,3.7796099185943604,1.3439761400222778,-0.002782182302325964,-0.24229632318019867,3.6579225063323975,2.36082124710083,-1.5510278940200806,1.2232208251953125,0.7688828110694885,-0.0722745954990387,1.134299874305725,3.2551255226135254,-0.6396539211273193,2.9499313831329346,-0.7220882773399353,-2.1541125774383545,0.6282021999359131,0.3103882670402527,-1.889241099357605,-2.569819450378418,0.7179180383682251,3.5200178623199463,1.350846767425537,2.292752981185913,-0.3574989140033722,1.337060570716858,1.332330584526062,2.9831786155700684,0.3694213926792145,-1.6381404399871826,-0.4780848026275635,1.6363288164138794,-0.5463311076164246,-0.6954336166381836,0.7223960161209106,-0.6127033233642578,1.9438003301620483,0.12543359398841858,0.6719073057174683,-0.05965010076761246,4.09525203704834,1.4739060401916504,0.2350611537694931,-0.5816609859466553,-0.508863091468811,1.176921010017395,1.9633558988571167,0.2600230872631073,-1.8706246614456177,-0.21669207513332367,1.0021685361862183,0.5955517292022705,-3.415003538131714,-1.2228659391403198,-0.9827637076377869,2.2704455852508545,-0.26587939262390137,-0.2906641960144043,1.9525301456451416,0.6246558427810669,-1.4058445692062378,3.89886212348938,-1.2261769771575928,0.15920402109622955,0.3441402018070221,0.952258288860321,1.1108076572418213,0.431965172290802,0.07346615940332413,0.44842731952667236,-0.8699578642845154,-0.18722832202911377,-0.5345152020454407,0.19482867419719696,-3.0408987998962402,0.6511319875717163,-0.045304566621780396,-3.3492751121520996,0.24676042795181274,-0.8113512992858887,2.6259067058563232,-1.1936016082763672,2.572652816772461,0.6011331081390381,3.004539728164673,-3.0887043476104736,0.6188787817955017,-0.38973161578178406,-0.8218984007835388,0.5749131441116333,0.8493507504463196,0.9151310920715332,0.023764703422784805,1.1224286556243896,1.2161439657211304,-2.387465238571167,-2.8341822624206543,-3.2663211822509766,-0.47021496295928955,0.5872893333435059,2.1258656978607178,-1.411590814590454,3.4060475826263428,1.8251124620437622,1.3150461912155151,1.2572344541549683,-1.1761668920516968,0.6704624891281128,-1.3605517148971558,-0.1436728835105896,-0.49535104632377625,0.3329644799232483,-2.649407148361206,-3.1038978099823,-0.42005112767219543,1.047874927520752,1.4793261289596558,-0.041325416415929794,-2.656545400619507,2.573349952697754,0.452617883682251,0.4815080463886261,-1.0477696657180786,-3.150207042694092,0.23063766956329346,-0.11174071580171585,2.194227933883667,-0.8996409177780151,1.1721194982528687,1.5609407424926758,0.11364317685365677,-2.7841134071350098,1.6873788833618164,-0.5484058260917664,-1.748056173324585,-2.0510165691375732,0.8933752775192261,1.895677089691162,1.6433680057525635,1.967667579650879,-2.046138286590576,0.6064701080322266,0.17468397319316864,1.5990912914276123,0.5064374804496765,-2.5353381633758545,-4.7213969230651855,-0.7097679376602173,-0.6150371432304382,-1.5191999673843384,0.3475668430328369,-3.3521358966827393,-1.9082510471343994,-0.72206050157547,-0.08616235107183456,0.9615209102630615,1.0202716588974,0.44876810908317566,0.7223957777023315,-1.8011224269866943,1.7330769300460815,-0.7345988154411316,0.7662294507026672,-1.1067334413528442,0.3968399167060852,1.9077239036560059,0.8441159129142761,-0.5175858736038208,-0.8617531061172485,0.18419811129570007,-2.922523021697998,-3.3910117149353027,-2.744617462158203,-0.014631788246333599,-0.8165252208709717,0.8057668805122375,-1.2715857028961182,-1.9832427501678467,-0.49319830536842346,1.3491225242614746,5.226179599761963,0.17393720149993896,3.2183878421783447,0.11214325577020645,1.1388132572174072,-0.7283205389976501,1.8175783157348633,0.897310197353363,1.1146234273910522,-1.808627963066101,1.7534881830215454,0.27435019612312317,-0.12556616961956024,-0.01848718523979187,-0.413074791431427,-1.226596713066101,-1.128678560256958,-2.4898810386657715,0.09203345328569412,1.3897087574005127,3.2723548412323,-0.5883911848068237,-0.5501166582107544,-2.542924404144287,1.7716138362884521,1.1508376598358154,0.7890854477882385,1.2043148279190063,4.874741077423096,-0.8902524709701538,0.8499322533607483,1.2453372478485107,2.2265076637268066,-0.13252167403697968,-0.611426830291748,1.2087182998657227,0.7872153520584106,-1.6420069932937622,-1.7298423051834106,1.3753336668014526,2.92681622505188,0.8419593572616577,-1.6332168579101562,-0.8415626883506775,1.5295220613479614,2.8893790245056152,0.7932518124580383,1.5421042442321777,-2.3054676055908203,3.5128676891326904,0.9264967441558838,0.08125054836273193,0.4225097894668579,0.3648453652858734,0.7089882493019104,-1.7177011966705322,-0.012276118621230125,0.014404453337192535,-0.9502530097961426,-1.3089665174484253,1.21137535572052,0.47679415345191956,0.15534517168998718,3.9956231117248535,0.37092483043670654,0.669402539730072,-1.1355186700820923,0.6735071539878845,-0.5228721499443054,2.4500372409820557,1.643148422241211,0.8945192098617554,-0.043779559433460236,0.729589581489563,2.709688186645508,-0.5948521494865417,-2.1532132625579834,-1.8396050930023193,-0.8205037117004395,2.3425958156585693,2.5165183544158936,-0.7786387205123901,2.3111259937286377,-0.33732280135154724,-2.86460542678833,-1.3028175830841064,-0.003554954892024398,-2.319586992263794,-5.1114420890808105,0.2725750207901001,2.424670934677124,2.3098742961883545,-0.6092805862426758,0.852260172367096,1.6034975051879883,-1.3768408298492432,-0.4597645103931427,0.6950335502624512,-1.1321858167648315,0.22881540656089783,-1.5169944763183594,-1.5198453664779663,-0.8710998296737671,0.8465787172317505,-3.9406700134277344,-1.2202826738357544,-1.7369157075881958,2.0759072303771973,1.0210405588150024,-1.6495113372802734,1.0672056674957275,-0.15879862010478973,2.0373165607452393,-1.2750015258789062,-0.1268729716539383,-0.9390599131584167,-1.268758773803711,0.09089762717485428,0.749264657497406,-1.1747949123382568,-0.12709708511829376,-0.6602688431739807,-2.975390672683716,-1.8346785306930542,-0.5202082991600037,3.0082929134368896,-0.3062146008014679,0.06495419889688492,4.088758945465088,1.4283814430236816,-1.061074137687683,2.338469982147217,1.8055256605148315,3.13352108001709,0.3566852807998657,1.643128514289856,2.046809673309326,1.0575850009918213,-0.2746866047382355,-1.9011651277542114,-0.321025550365448,3.21669340133667,-0.49234116077423096,0.022886967286467552,-1.5994338989257812,0.1667843461036682,-0.6300456523895264,1.4136366844177246,1.7398130893707275,-1.2187368869781494,1.1560364961624146,0.48339974880218506,-1.6912477016448975,3.1389811038970947,1.3505669832229614,-0.17775945365428925,2.6952931880950928,1.1130857467651367,0.2609964907169342,-0.4498991072177887,-1.9336491823196411,-1.4714491367340088,-3.68500018119812,-0.40961453318595886,0.10537590831518173,1.397465705871582,-0.47164860367774963,0.0686250701546669,-0.7697818279266357,1.0620696544647217,0.06008328124880791,-0.07076095044612885,-0.25563329458236694,-1.8752918243408203,-0.4318729639053345,-0.676925539970398,3.42850661277771,-1.2771130800247192,0.6842063069343567,-2.7765378952026367,1.369583249092102,-0.3017820417881012,2.1701834201812744,-1.4182988405227661,-2.6325106620788574,0.05947081744670868,-1.1462855339050293,-3.153164863586426,1.6955394744873047,2.25716495513916,3.1115856170654297,2.9006409645080566,0.9336201548576355,-2.14624285697937,2.166928291320801,-0.2520180642604828,-0.6564093232154846,0.8554979562759399,-0.5707041621208191,0.0019980587530881166,0.3589092493057251,-0.9182699918746948,-0.8222506642341614,-0.9642536640167236,0.7791352272033691,-0.16636967658996582,-0.24226033687591553,-2.592637062072754,-1.6376848220825195,2.5466232299804688,0.31731829047203064,0.8142990469932556,1.0701558589935303,0.9547502398490906,1.0035157203674316,0.9377322793006897,2.1350138187408447,-0.1441715806722641,0.5459364056587219,-1.519495964050293,-2.1280741691589355,0.5687412023544312,-1.052148699760437,3.6318600177764893,-1.4598792791366577,1.7889131307601929,-4.187104225158691,-1.699674367904663,-2.130176067352295,1.0111033916473389,-1.995067834854126,-0.2687665820121765]},"outputHidden":{"rows":20,"columns":20,"weights":[2.3849306106567383,-1.8300827741622925,-0.12366452813148499,-0.25435343384742737,3.5195934772491455,2.560960292816162,-1.6209146976470947,0.3746965229511261,0.5688579082489014,-0.6277210712432861,-0.8156591057777405,-1.404290795326233,2.2341034412384033,0.5151889324188232,0.7485482096672058,-1.8998230695724487,-1.339731216430664,0.5956758856773376,1.0217646360397339,1.282745122909546,-0.23157909512519836,0.9841543436050415,3.5044240951538086,-0.23235903680324554,2.2344837188720703,3.582409620285034,-1.5084766149520874,3.973778247833252,-0.20924174785614014,-0.09445498883724213,1.5461493730545044,-1.777452826499939,-0.20949311554431915,1.5677721500396729,0.5545189380645752,0.20437543094158173,-0.5071765780448914,2.133746862411499,-1.488848328590393,2.492384672164917,-0.20260775089263916,-0.11690284311771393,-0.4869709610939026,0.39848631620407104,3.5357413291931152,0.4468022882938385,0.4880905747413635,0.7483620643615723,2.001927614212036,-0.8745276927947998,1.6726369857788086,-0.050275642424821854,-0.44520726799964905,-0.9675438404083252,1.557081699371338,-0.7239754796028137,1.7734224796295166,2.337973117828369,-2.0777454376220703,-1.0923548936843872,2.476222515106201,-0.6381089091300964,0.156235471367836,1.252816081047058,-5.047924995422363,1.1452151536941528,1.2430288791656494,-0.33031323552131653,0.0848299190402031,-0.6543523669242859,-0.4150095283985138,0.7743940353393555,2.3811962604522705,-0.3014453947544098,-3.2286667823791504,0.08031797409057617,0.8590144515037537,0.4499629735946655,-2.8518264293670654,1.3147717714309692,-1.1068249940872192,0.8299925327301025,-0.9315741658210754,1.3123133182525635,-0.6159175634384155,-1.5985088348388672,1.3653885126113892,-0.8464872241020203,1.2784583568572998,-2.6757051944732666,-0.25129443407058716,-1.362172245979309,0.685815691947937,-0.5198724269866943,2.026362657546997,-0.3112449049949646,-0.21016690135002136,-0.021094119176268578,-0.4091225266456604,-1.288666844367981,-0.08831660449504852,-0.9266750812530518,2.635122537612915,-3.1360464096069336,1.2086684703826904,-1.1462944746017456,-0.2819406986236572,-0.9950625896453857,-1.1928811073303223,-2.1883370876312256,1.129604458808899,-0.7446517944335938,-0.7871579527854919,0.1363651156425476,0.39225417375564575,1.929186463356018,0.9756753444671631,-1.89119291305542,2.4059555530548096,-0.5398728251457214,0.4994172155857086,1.364929437637329,-2.0696029663085938,-1.0540502071380615,-0.14735868573188782,-0.1539938598871231,-0.8668421506881714,-1.8117283582687378,-1.7961589097976685,-1.0797185897827148,0.6923121809959412,-2.7187366485595703,-1.0678614377975464,-1.4943164587020874,-0.7312453985214233,-0.6332476735115051,2.0872983932495117,-2.1376967430114746,0.966755747795105,0.2818148732185364,-0.04960967227816582,0.72514808177948,0.052421748638153076,-1.1120202541351318,0.6424381732940674,0.668118417263031,-0.46099039912223816,0.6316143274307251,0.013529866002500057,-0.5364798903465271,-0.37837207317352295,1.6275237798690796,0.9692620635032654,0.5230192542076111,-0.8284180760383606,-0.3387080430984497,-0.16226215660572052,-1.3250223398208618,0.34569525718688965,-0.26381731033325195,-0.26185664534568787,-3.4168810844421387,-0.5463119149208069,-1.901876449584961,2.978461980819702,2.726268768310547,-3.1594810485839844,0.8389531373977661,-4.902811527252197,-2.623995542526245,2.8038434982299805,-2.770031452178955,0.42688217759132385,1.185208797454834,-0.8419449329376221,-0.357669860124588,1.1033616065979004,-1.3784427642822266,2.2776005268096924,0.9229094386100769,-2.203951358795166,1.3055074214935303,-0.6671939492225647,-3.129077672958374,-5.704317569732666,-2.3061301708221436,2.7369790077209473,0.5681124329566956,4.187417030334473,-2.7850043773651123,0.46223706007003784,-0.47531747817993164,0.29992347955703735,0.5145233273506165,0.8648868799209595,-2.6659624576568604,-2.2487399578094482,-1.544773817062378,-3.0441932678222656,-0.8570178747177124,-0.537600040435791,1.5893688201904297,0.6595398783683777,2.4929566383361816,-0.2216540277004242,-2.8386435508728027,0.7408843636512756,0.3465101718902588,2.7358596324920654,2.179279088973999,0.4672999680042267,-1.4553401470184326,-4.15472936630249,0.5872441530227661,1.5510766506195068,-0.9386326670646667,1.2522211074829102,0.42990991473197937,-2.783714771270752,2.106619119644165,0.5308724045753479,1.9184988737106323,1.8577831983566284,-0.1774383783340454,-1.1818856000900269,0.4268648028373718,-0.5779772400856018,0.2006567269563675,-1.2023600339889526,1.7808549404144287,1.0751291513442993,0.41656890511512756,2.2093756198883057,-0.29860326647758484,1.338131070137024,-2.03593111038208,0.5217816829681396,-0.22908075153827667,-0.8449037671089172,2.356865167617798,-1.5935739278793335,-1.8314772844314575,0.07926291972398758,-0.14323945343494415,-3.1594276428222656,0.9004185199737549,0.39484769105911255,1.161938190460205,2.6948046684265137,0.8020373582839966,-1.3093668222427368,0.3813839852809906,-0.8184897899627686,2.3617143630981445,2.5136895179748535,-0.7669814229011536,0.9701523780822754,2.085068941116333,-0.2254045456647873,0.9690983295440674,0.5559297204017639,-1.749829649925232,-1.5271409749984741,2.899811029434204,-1.4880448579788208,0.8596934676170349,2.1662280559539795,-2.231489419937134,0.5200475454330444,-1.1753737926483154,-0.08058519661426544,-2.1776411533355713,-0.8301076889038086,-0.5069252252578735,-1.6494678258895874,1.9569512605667114,-0.9011662602424622,0.47330442070961,3.320795774459839,-0.8321977853775024,1.3298131227493286,0.211893230676651,1.2486943006515503,0.9447006583213806,2.744225025177002,-0.8619480729103088,-1.3437672853469849,-0.7546166181564331,-0.16458231210708618,1.0095551013946533,-2.704511880874634,0.459144651889801,2.6937131881713867,2.4967472553253174,-1.607802152633667,-1.4421195983886719,0.5842025279998779,-3.435304880142212,-1.1861037015914917,-1.1754952669143677,2.293454647064209,2.2374446392059326,-1.243257761001587,-0.5275532007217407,1.8371984958648682,-0.8559043407440186,-0.7305967807769775,-3.0839266777038574,-2.914815664291382,3.030134677886963,-2.3998284339904785,-1.9501030445098877,3.0420446395874023,-0.8300283551216125,-1.8967491388320923,-2.8402538299560547,-4.253108978271484,-1.2627607583999634,-2.5605645179748535,0.8723585605621338,0.44940489530563354,1.5859040021896362,-1.0864665508270264,-4.38858699798584,-2.980070114135742,-1.027937650680542,1.338798999786377,-0.17728152871131897,-0.24355392158031464,0.600062906742096,-0.613121747970581,2.2109854221343994,-1.290380597114563,0.19850599765777588,-1.8826878070831299,-0.9770641922950745,0.5795738101005554,-0.5903306007385254,2.6386897563934326,0.3062436580657959,-4.059512615203857,3.086510181427002,-3.503535509109497,1.5047268867492676,0.21503712236881256,-1.7700374126434326,1.55638587474823,2.3045408725738525,2.752615451812744,1.6580193042755127,-2.1053073406219482,-0.3070586025714874,0.8872050642967224,3.659048318862915,0.38149476051330566,-1.9082871675491333,-0.24847592413425446,-0.5496313571929932,4.431276321411133,3.850280523300171,1.705906867980957,-0.9578979015350342,3.5986170768737793,-2.1471588611602783,-1.3011837005615234,1.7990593910217285,0.5919491052627563,-0.2347434014081955,-0.22962333261966705,-1.8339871168136597,2.5933852195739746,0.8911923170089722,-0.8702237010002136,-0.5071879625320435,2.5135486125946045,2.4883930683135986,4.756394386291504,-2.1750452518463135,-2.605085611343384,1.2918792963027954,-2.91300106048584,-2.239070177078247,2.3595645427703857,-1.2745572328567505,-1.9192237854003906,2.7311275005340576,1.1625990867614746,0.6292465329170227,0.4022074043750763,-0.9952604174613953,-0.5941371321678162,-0.7847212553024292,-1.2690465450286865,0.5461109280586243,0.25148847699165344,1.999876618385315,-1.4373421669006348,-2.3454244136810303,-0.6829894781112671,1.195372462272644]},"outputBias":{"rows":20,"columns":1,"weights":[-1.776918888092041,-1.0044846534729004,-0.7516550421714783,-0.8830000162124634,-2.41001296043396,-0.8148674964904785,-2.148183822631836,0.32628124952316284,-0.19488213956356049,-1.9807111024856567,-2.7463996410369873,-1.904228687286377,-0.5053898096084595,-1.6380006074905396,-0.3779091536998749,-1.3144385814666748,-1.2321304082870483,-1.5454564094543457,-1.3272877931594849,-1.3108899593353271]},"cellActivationMatrix":{"rows":20,"columns":25,"weights":[-0.37316957116127014,0.0022157644852995872,-0.7350677847862244,-0.5502510070800781,-0.5194679498672485,-0.56781405210495,1.0860166549682617,1.0639877319335938,1.802909016609192,1.8887993097305298,-0.6334173083305359,-0.5199830532073975,-0.2298763543367386,-0.09619840234518051,0.7379541397094727,0.6878418922424316,-0.06800369173288345,-0.4446873366832733,0.6156445741653442,0.7865167856216431,-1.0096714496612549,-1.3107527494430542,-0.6295204162597656,0.3352580964565277,-1.273439645767212,-0.46827954053878784,-1.2853033542633057,1.1037036180496216,-0.6809916496276855,-0.7549013495445251,-0.7389487624168396,2.222646474838257,1.1101773977279663,-0.813368022441864,-1.1708896160125732,0.259863018989563,0.000496135966386646,-2.0691957473754883,-0.5543189644813538,-0.02245464362204075,-1.5589395761489868,-0.13491205871105194,-0.9638347029685974,-0.5303881168365479,0.707610011100769,0.3429968059062958,0.11077191680669785,-0.4156385064125061,-1.1068174839019775,-0.12108872085809708,0.776884913444519,-0.3418796956539154,-1.1999459266662598,0.8086630702018738,0.5041775107383728,-1.7800729274749756,-1.8835450410842896,1.0084388256072998,0.017624160274863243,0.13550424575805664,-0.37309741973876953,-1.9021323919296265,0.8947721719741821,0.13401269912719727,-1.054072380065918,0.16154220700263977,-1.7981929779052734,0.7683954238891602,0.20740456879138947,1.9902650117874146,-1.1882436275482178,0.277869313955307,-2.3555238246917725,0.5110074281692505,0.7784379720687866,1.0678861141204834,0.8092005848884583,1.7304500341415405,-0.7952432632446289,0.5745404958724976,-0.4475948214530945,-0.40475010871887207,-1.121017575263977,-0.6337772607803345,-0.9249631762504578,0.8264702558517456,1.4851473569869995,-2.031403064727783,-1.8650051355361938,-0.5192356109619141,2.716796636581421,2.938246488571167,-2.3172500133514404,0.3142874538898468,-1.1432406902313232,0.8247362375259399,-1.5790601968765259,0.4414800703525543,0.7779163122177124,-0.3614528477191925,0.5856612324714661,0.5608727931976318,-1.5829015970230103,0.7484391927719116,2.179131269454956,0.0631634071469307,-0.7442492246627808,-0.5546270608901978,-0.6011210083961487,0.43826398253440857,-2.161019802093506,-3.2132275104522705,1.1082202196121216,1.1759536266326904,-1.1265360116958618,1.2217828035354614,-1.312596082687378,2.420259475708008,0.439022958278656,-0.40295839309692383,0.2988719344139099,0.4540998935699463,0.1480535864830017,2.0651586055755615,0.4241873025894165,2.4768550395965576,0.045532166957855225,-1.0658739805221558,0.6596691012382507,0.8629530668258667,-1.9374494552612305,-1.3182947635650635,-0.12584951519966125,0.617408812046051,2.4174795150756836,-0.2792244851589203,-2.270761251449585,0.9054883122444153,1.2189688682556152,-1.8924829959869385,-0.5919768214225769,-2.182678699493408,0.3763975203037262,0.8401418328285217,2.162940263748169,-1.157850980758667,1.0790742635726929,-1.9532158374786377,1.016460657119751,1.4258185625076294,-1.3119386434555054,0.26715782284736633,-0.23147368431091309,-1.6785595417022705,-1.2873183488845825,0.8105658888816833,0.41697022318840027,0.8495827317237854,0.6074900031089783,-0.29200583696365356,-0.047953348606824875,1.5379955768585205,-1.9095194339752197,-2.2346763610839844,1.419185996055603,-0.7595258355140686,-0.33264580368995667,-1.5699069499969482,-1.2068740129470825,-0.040435682982206345,1.1773881912231445,0.6474226117134094,-0.2254001498222351,-2.6706342697143555,-0.784112811088562,0.2827422618865967,-1.004142165184021,0.11405307799577713,0.3208622634410858,1.7415217161178589,0.8770870566368103,-1.8440420627593994,1.3351408243179321,-2.3126296997070312,-1.4089717864990234,-1.9191842079162598,0.21198175847530365,0.15613897144794464,1.9615578651428223,-1.0289305448532104,0.1805904656648636,0.43594124913215637,1.9993590116500854,2.307260274887085,-0.04026177152991295,1.2404890060424805,0.5582870244979858,-0.5950807332992554,-0.8633098006248474,-0.23965874314308167,-0.4896908402442932,-0.30579301714897156,2.050945281982422,0.5187995433807373,0.38327714800834656,0.17907403409481049,0.9836501479148865,-1.0978951454162598,0.7949896454811096,-0.8383183479309082,-0.7916827201843262,0.0286825243383646,-2.94867205619812,-0.14672352373600006,1.4235206842422485,1.6073843240737915,1.9848490953445435,-0.38082918524742126,0.13011203706264496,-1.7005822658538818,0.6345499157905579,-0.47391340136528015,0.6827247738838196,2.2330222129821777,0.528012752532959,-1.1453731060028076,-0.4458704888820648,-0.009805886074900627,1.2760013341903687,-0.15938007831573486,1.7273950576782227,1.4023164510726929,-0.33584704995155334,-1.219065546989441,0.17546986043453217,-0.05695074796676636,0.5618507862091064,0.09767590463161469,-0.3635067939758301,1.2192192077636719,0.65785151720047,1.5314173698425293,0.29947930574417114,0.8542132377624512,-2.803462266921997,-3.1905739307403564,2.17523455619812,3.3202316761016846,-1.1308146715164185,-0.6089249849319458,-0.327155202627182,-1.6774851083755493,1.0657644271850586,1.1986690759658813,0.985022783279419,-0.8366451859474182,0.775073766708374,0.7536623477935791,-0.5009729266166687,-1.1872092485427856,-2.121140718460083,-0.768378734588623,0.2022881954908371,1.382408857345581,-0.6056952476501465,-1.1876815557479858,0.35141414403915405,2.064570665359497,2.036357879638672,0.26349204778671265,0.512823224067688,-1.636757731437683,-0.5623160600662231,1.1849606037139893,-0.18546804785728455,-1.093734622001648,1.3369131088256836,1.0473402738571167,-1.2838283777236938,-0.7653307914733887,0.5418978929519653,-0.33658045530319214,-0.03476041555404663,-0.6220269799232483,-0.21320277452468872,-0.014483647421002388,2.3043980598449707,-3.082068920135498,-0.9188992977142334,1.8316400051116943,-0.3052813708782196,0.3437402844429016,-3.0568645000457764,-0.7112420797348022,0.12538082897663116,-0.3791263699531555,0.8263930082321167,0.8877954483032227,-0.3709236681461334,-1.2157232761383057,1.18117094039917,-2.0380074977874756,-1.0862220525741577,-0.7782973647117615,-0.10242941230535507,-2.513075113296509,-0.31544145941734314,2.4465367794036865,1.0270342826843262,0.11842454969882965,0.37505286931991577,-0.984731137752533,-0.35138028860092163,0.999594509601593,-0.6174637079238892,0.39665669202804565,-1.2929267883300781,0.8800874352455139,-0.375927597284317,1.9591829776763916,1.0350884199142456,-1.5852619409561157,-1.6181390285491943,-0.2962619662284851,0.13537530601024628,1.1677653789520264,1.2151981592178345,-1.4774188995361328,-1.8099170923233032,-0.9657258987426758,1.284781575202942,-1.0215407609939575,-1.2331775426864624,-0.3314284384250641,0.5703641772270203,1.0447558164596558,1.0490670204162598,-0.4655758738517761,-0.9322836995124817,-2.3726320266723633,0.30746328830718994,-0.4822571277618408,-0.5977490544319153,-0.8390840291976929,1.9053797721862793,0.2509472966194153,1.0108245611190796,-0.4366190731525421,-0.29116716980934143,-1.3204004764556885,-0.15817563235759735,-0.9701449871063232,-1.5646123886108398,0.5166917443275452,0.3373481333255768,-0.437269926071167,0.7938907742500305,0.9961843490600586,0.30447694659233093,-0.7374350428581238,-1.0179740190505981,-0.46928998827934265,0.9110586047172546,1.0411397218704224,1.2189826965332031,-0.6948205232620239,0.057038236409425735,0.7622556686401367,1.5175329446792603,0.14590120315551758,1.0577614307403564,-0.886349081993103,-1.060620903968811,0.0685083419084549,0.09620054066181183,0.1363781839609146,-2.880434989929199,-0.3278385400772095,-0.10820472985506058,0.2730661928653717,-1.15831458568573,-2.7010085582733154,0.36659035086631775,0.030236028134822845,-1.2277777194976807,-1.1513521671295166,3.0233466625213623,0.4037288725376129,0.4937877655029297,-0.2727454900741577,-1.597076654434204,-0.5856767296791077,0.21033219993114471,0.3765758275985718,-1.0908180475234985,2.7612359523773193,-0.22377710044384003,-2.9273202419281006,0.33551448583602905,-0.24637480080127716,0.533828616142273,1.3517701625823975,-1.5912269353866577,-1.7280470132827759,-1.4013073444366455,-0.3247205913066864,0.2674345076084137,-0.4396872818470001,0.18481411039829254,-0.5375548005104065,0.07845080643892288,0.9770781397819519,0.4727148711681366,-0.6164930462837219,-0.5679410696029663,-0.1727571189403534,-0.11387652903795242,-0.37450894713401794,-1.5471813678741455,0.4451887607574463,-1.5856789350509644,2.482679843902588,-0.16675764322280884,1.1357122659683228,-1.854548454284668,-1.9814435243606567,-0.5497732162475586,0.17603512108325958,-0.9274534583091736,-0.9820200204849243,-0.7662622332572937,0.29981955885887146,-0.9853734374046326,1.9357136487960815,1.0671393871307373,0.016889888793230057,-1.129150629043579,0.9569939970970154,-0.22064965963363647,-0.40784209966659546,-1.0108773708343506,0.48442327976226807,-0.06508450955152512,-0.17220212519168854,0.01597597822546959,0.008193758316338062,-1.2253597974777222,-1.9160925149917603,1.5485366582870483,0.009302019141614437,0.14085251092910767,-0.7327188849449158,2.0427277088165283,1.2911261320114136,0.7146755456924438,0.02361629717051983,0.7599611878395081,1.4782932996749878,-0.622144877910614,0.09497032314538956,-0.6965867877006531,0.4513618052005768,-0.8687721490859985,0.4847852289676666,-0.8190993070602417,-1.8326114416122437,-0.8911967277526855,1.3270241022109985,1.1216542720794678,0.2198570817708969,1.8585835695266724,-0.8976613283157349,-0.23320262134075165,-0.6515860557556152,1.140865445137024,-0.2700367569923401,-0.8689999580383301,2.1115024089813232,-1.058829426765442,-0.4979781210422516,0.6614972352981567,-0.7844026684761047,3.430177927017212,-0.8296967148780823,-4.567073822021484,-1.1499714851379395,1.2310105562210083,0.4887508451938629,0.11352645605802536,-1.3592067956924438,-0.9189406633377075,-2.0206658840179443,-1.3165464401245117,-1.5601962804794312,1.3985549211502075,0.5764098763465881,-1.3428571224212646,-2.2341296672821045,-1.0685818195343018,-1.2871726751327515]},"cellActivationHidden":{"rows":20,"columns":20,"weights":[-1.408168077468872,0.3457115590572357,-0.5222291350364685,-0.850911021232605,0.45350027084350586,-1.0456985235214233,-0.6328920125961304,-0.9076138138771057,0.31408998370170593,-0.2410690188407898,-0.08025342971086502,-0.44277289509773254,-0.29314473271369934,-1.2826993465423584,0.20312847197055817,1.0222234725952148,-0.6781859397888184,1.9100590944290161,-0.9319872856140137,-0.686556875705719,0.34200581908226013,-1.0872169733047485,0.26822003722190857,-0.21128863096237183,0.5046975612640381,1.4203890562057495,-1.8805279731750488,-0.312375545501709,-1.3737545013427734,-0.5434871315956116,0.037517745047807693,-0.881381094455719,0.7312709093093872,-0.4584060609340668,-1.0074001550674438,0.45474937558174133,0.08040151000022888,-1.706824541091919,2.2108142375946045,1.5004037618637085,-0.38298431038856506,-0.4467315077781677,-0.010461011901497841,-2.3989853858947754,-2.3432366847991943,0.14819839596748352,-2.4055471420288086,0.527271568775177,1.1296894550323486,-1.3280150890350342,0.5640769600868225,-0.52932208776474,1.7977608442306519,0.5085998773574829,-0.4777417480945587,0.38358941674232483,-1.1912747621536255,0.19506314396858215,-0.3669390082359314,1.7428326606750488,1.456386923789978,1.9114999771118164,0.21912360191345215,-1.198462963104248,-1.429428219795227,-1.8807339668273926,0.27006852626800537,0.3082728087902069,0.7524301409721375,0.4504346549510956,-1.3298944234848022,1.6512930393218994,-1.1671335697174072,1.6374132633209229,-0.6724016070365906,-3.249041795730591,-0.562604546546936,1.0370545387268066,-1.5865116119384766,1.1802492141723633,1.033334493637085,0.4403299391269684,-1.4987982511520386,-0.5325588583946228,-0.6761008501052856,-0.28333529829978943,0.9874711632728577,0.05026771500706673,1.1149379014968872,-0.7133711576461792,0.07713980972766876,-0.8468296527862549,-2.450040102005005,-0.5367736220359802,0.770886242389679,0.5967355966567993,0.6757477521896362,1.2447524070739746,0.6193903088569641,1.357237696647644,0.15873926877975464,0.10392890870571136,0.14379288256168365,0.1878831535577774,-0.41197672486305237,0.30410778522491455,0.6323676705360413,0.6425445675849915,-0.31029775738716125,-0.08076867461204529,0.8888033628463745,0.13047060370445251,1.2208547592163086,0.46718519926071167,0.4084463119506836,0.6752848625183105,0.7681117653846741,-0.08909782022237778,-0.22194962203502655,0.6419250965118408,-0.8554443120956421,0.5148332118988037,-0.45941251516342163,1.127171516418457,-0.9983869791030884,-0.7938751578330994,1.831215739250183,-0.25701162219047546,-1.3777090311050415,-0.010837451554834843,-0.022274410352110863,1.9340662956237793,-0.6156980395317078,-0.024853911250829697,-0.5260828733444214,0.9706580638885498,1.5578850507736206,0.551508367061615,0.28688058257102966,0.0695098489522934,1.0076661109924316,-0.6015730500221252,-1.2042722702026367,-0.38018450140953064,-1.3325375318527222,-0.6711304783821106,1.1265157461166382,2.774853467941284,1.7314432859420776,1.5600764751434326,0.041651446372270584,1.334995985031128,-1.6583178043365479,0.7161924242973328,-0.3179924190044403,-1.0507175922393799,1.2273224592208862,1.2544432878494263,-1.514033317565918,1.4174166917800903,0.9243484139442444,0.41842523217201233,-0.5460454225540161,0.839214026927948,-0.05073000490665436,-1.3812283277511597,0.3608468174934387,-0.6083575487136841,-0.5661988258361816,0.14697249233722687,0.8534275889396667,-0.8291864395141602,-1.8477689027786255,0.9670462608337402,-0.7229763865470886,0.7935738563537598,0.07860605418682098,-0.917148768901825,0.11562865972518921,1.9746763706207275,0.11754736304283142,-0.32764366269111633,-0.0985831618309021,-0.2394668459892273,0.3095138669013977,0.8622154593467712,-0.36712661385536194,-0.5168460607528687,-1.1197525262832642,0.3193908929824829,-0.7703161239624023,0.6493246555328369,0.1094471663236618,1.5802624225616455,0.017941243946552277,-1.0211101770401,0.3641892969608307,-0.2208191603422165,-0.9594911336898804,-0.8741419315338135,-0.7651581764221191,0.33002692461013794,0.3241889178752899,-0.9383662939071655,-0.8850635886192322,0.9355850219726562,0.18191958963871002,0.1928996592760086,-0.8890718817710876,-0.991460919380188,0.8802295327186584,-0.1077650636434555,-1.0122121572494507,-1.367971658706665,0.9475429654121399,0.7921071648597717,-0.5376442074775696,-0.05091449245810509,0.7454590201377869,0.9346038699150085,0.06097631901502609,1.0954610109329224,-0.2779439687728882,-1.0321179628372192,-0.8388490676879883,0.30626654624938965,0.8482898473739624,0.6443235278129578,-0.21607135236263275,0.8699889183044434,-0.14237327873706818,0.3050555884838104,0.5125464200973511,-0.05676523223519325,0.3498275876045227,0.7719566822052002,-0.13393448293209076,1.1686749458312988,-0.007751435972750187,-0.540250837802887,1.034296989440918,-0.061796609312295914,-2.691274404525757,2.3729233741760254,-1.3365373611450195,0.14068707823753357,1.191203236579895,0.37567949295043945,-1.158677339553833,1.1897625923156738,0.46143555641174316,1.2730411291122437,-0.22606706619262695,-0.8446086049079895,-0.4377882778644562,0.16339527070522308,-0.10968698561191559,-1.573037028312683,-0.4263468086719513,0.6585578322410583,1.0218470096588135,1.0192286968231201,-0.7973524928092957,-0.2965067923069,-1.4038082361221313,-0.4065781533718109,-0.43889254331588745,0.1957278847694397,-0.22354067862033844,0.4850098490715027,-1.0906763076782227,1.1829215288162231,-1.3246318101882935,0.7896457314491272,-0.20172153413295746,-1.1541075706481934,-0.009424442425370216,-1.421501874923706,-0.28836789727211,-0.8171240091323853,-1.0333267450332642,-1.7983150482177734,1.7619420289993286,-2.066429853439331,1.7802038192749023,2.4935765266418457,-1.8716557025909424,1.8197652101516724,1.483804702758789,-0.8896186351776123,0.7099502086639404,-0.9436872005462646,0.42249611020088196,1.378580927848816,2.4035394191741943,0.14403612911701202,-0.3124224841594696,3.2276663780212402,0.9633610248565674,-0.27463269233703613,1.5121663808822632,0.7104683518409729,-0.5596330761909485,1.7044970989227295,0.6987543106079102,-0.9495607018470764,-0.13093611598014832,-1.5160396099090576,0.531420111656189,0.8468595743179321,0.7669135928153992,0.5870481729507446,-1.3253003358840942,-1.4733614921569824,-0.9612936973571777,-1.979315996170044,-0.8341639637947083,1.0625677108764648,-2.0992703437805176,-0.4404453933238983,0.04636004567146301,0.39493709802627563,-1.7932506799697876,-0.24093423783779144,0.18869639933109283,-0.6115570068359375,0.7428473830223083,0.35467204451560974,-0.6475070714950562,1.0244569778442383,-0.6535785794258118,-0.4036371111869812,-0.8833646774291992,0.5600360631942749,-1.3733162879943848,-0.31343379616737366,0.2674943208694458,-1.295384168624878,0.25373080372810364,-1.9173259735107422,-0.6353937387466431,0.09254208952188492,-0.1022627055644989,0.5115271806716919,1.0787041187286377,0.6251444220542908,-1.1420488357543945,1.9092036485671997,0.18077538907527924,-0.9148410558700562,1.8209465742111206,-1.8170591592788696,1.607641339302063,-0.21404576301574707,0.945735514163971,0.8181707859039307,-1.0490285158157349,-0.1002054214477539,0.7663882970809937,0.5513010025024414,-0.14476928114891052,0.38266095519065857,0.5444923639297485,-0.8665215373039246,0.07792265713214874,-0.2656455338001251,-0.8457157611846924,-0.3939671218395233,0.7138001322746277,0.3331536650657654,0.40393829345703125,0.48813503980636597,0.08017699420452118,-0.3908156156539917,0.298227995634079,-1.1337144374847412,-1.2923027276992798,0.23646710813045502,-0.5911895036697388,-0.6856793761253357,-1.4262640476226807,0.32352882623672485,0.7709522247314453,-0.8007282018661499,0.5804740190505981,0.4591045677661896,-1.1785626411437988,0.37555697560310364,-0.45377683639526367,-0.1968567669391632,0.9220482110977173,-0.759412407875061,-0.31557202339172363,-0.8784465789794922,1.6777257919311523,1.3844003677368164,1.1756057739257812,0.03656158223748207,-1.0360498428344727,-1.2442245483398438]},"cellActivationBias":{"rows":20,"columns":1,"weights":[0.04661436378955841,-0.2546508312225342,-0.6674299240112305,0.838468074798584,-0.3456372916698456,0.04140806943178177,-0.49542349576950073,0.5810272693634033,0.12793047726154327,0.4775535464286804,-0.1303349733352661,0.22020341455936432,-0.18436729907989502,0.42941367626190186,0.442458838224411,-0.43913838267326355,0.419946551322937,-0.3495742082595825,-0.11019350588321686,1.0695327520370483]}},{"inputMatrix":{"rows":20,"columns":20,"weights":[8.203279495239258,3.970271348953247,-0.9004920125007629,-0.08149740099906921,1.829992413520813,0.7972543239593506,3.985639810562134,-8.203872680664062,-0.9072296619415283,1.2098143100738525,-1.3042460680007935,1.4077479839324951,-1.2370781898498535,-4.685002326965332,5.470581531524658,1.8284250497817993,-1.340131402015686,4.44095516204834,1.6746379137039185,-2.7894883155822754,-8.807106971740723,-0.35177382826805115,3.6056549549102783,-0.9764263033866882,-1.204545259475708,0.5138365626335144,2.3982186317443848,0.06789164990186691,-1.3522861003875732,1.5611647367477417,-2.291682720184326,-0.9291020631790161,5.172463893890381,-2.4753599166870117,6.102066516876221,3.00734806060791,-1.7579516172409058,0.6364419460296631,4.299126625061035,-1.4072892665863037,-2.6879231929779053,5.105128765106201,-0.0992547869682312,1.0736727714538574,1.4620901346206665,-0.11309237778186798,0.9854353666305542,-1.0105493068695068,0.5138626098632812,1.4427176713943481,-0.37109068036079407,1.8236944675445557,-3.974809169769287,-2.985595226287842,0.1750694364309311,-1.2450990676879883,-1.821057677268982,0.9448128938674927,-7.587242603302002,2.2477033138275146,-1.1115448474884033,12.369710922241211,0.23090967535972595,-3.518134832382202,2.9681830406188965,-2.377856731414795,3.6972248554229736,-1.7863249778747559,-1.9017220735549927,2.5383875370025635,0.17668724060058594,-1.5241553783416748,5.085206031799316,0.9684271812438965,-1.2086559534072876,-1.8998974561691284,6.054903984069824,-3.968496561050415,3.048100709915161,-0.6887901425361633,-0.43588095903396606,2.3465728759765625,-3.842418909072876,-2.497612953186035,-4.234159469604492,-3.65252947807312,3.0231776237487793,0.5989691019058228,-3.461580276489258,-2.1043930053710938,-0.8174037337303162,-1.2488172054290771,0.2849719226360321,-2.58939266204834,3.4082679748535156,-1.4359744787216187,-2.700299024581909,1.7116663455963135,1.7821745872497559,-0.8634384870529175,-2.3985276222229004,-6.277109622955322,0.2566179931163788,3.3581559658050537,-4.156620979309082,-0.3748306930065155,2.752354383468628,3.2503819465637207,2.1370620727539062,2.422741413116455,2.234635353088379,0.9192520380020142,4.607950210571289,-3.0301434993743896,5.340936660766602,2.8320059776306152,9.174843788146973,3.2557060718536377,1.7040702104568481,5.198355674743652,-0.1547163426876068,-3.4800798892974854,1.7042250633239746,-4.1414408683776855,-2.8472273349761963,2.3936362266540527,1.1454110145568848,-2.0763628482818604,-1.489465355873108,0.18125030398368835,0.07278361171483994,-5.865114212036133,2.129080295562744,-2.6149346828460693,1.095159649848938,6.0205583572387695,-4.957637786865234,0.5274823904037476,7.204099655151367,-3.4103074073791504,-0.7502762079238892,-1.6332533359527588,1.7951605319976807,-6.477550983428955,-0.5533096194267273,0.1758188009262085,4.560445308685303,1.1103594303131104,3.755129814147949,-2.416973114013672,-1.7407360076904297,0.5688332319259644,2.9885220527648926,-1.1655709743499756,-0.7721337080001831,-0.27329403162002563,-5.204346179962158,6.341334819793701,3.534731388092041,1.563848853111267,5.929096698760986,4.402688980102539,2.040691375732422,-3.989372491836548,4.643671035766602,0.8783156275749207,1.9832165241241455,6.019665718078613,-0.7386185526847839,-0.1218065693974495,3.526747226715088,-1.2483747005462646,2.20603084564209,-2.322103977203369,-0.23980732262134552,-1.4667365550994873,-3.8242664337158203,-0.729671061038971,-1.0342587232589722,-3.199852705001831,-1.4879114627838135,-0.7877810597419739,2.782287359237671,1.8740788698196411,0.739351749420166,0.9664273262023926,5.853437423706055,5.743817329406738,-0.3940359652042389,-5.321495056152344,0.5461128950119019,5.8080644607543945,1.9270131587982178,-1.196521520614624,-4.131058692932129,-3.2535088062286377,-1.9393997192382812,-0.9113412499427795,6.116336345672607,3.570434808731079,7.299370765686035,3.793445587158203,-6.5452446937561035,-6.402970314025879,0.7723437547683716,-3.909308671951294,7.97104549407959,-0.9761557579040527,-6.135391712188721,-8.380712509155273,2.0019164085388184,-2.289463520050049,6.598781585693359,-2.896350622177124,0.8347222805023193,4.2832841873168945,-1.1011980772018433,3.213092565536499,4.44242000579834,-0.2877255380153656,-6.050846576690674,-6.789462566375732,-1.2457493543624878,-4.215977191925049,-7.652202606201172,-1.8790504932403564,2.4203922748565674,0.3377877473831177,4.624027729034424,-0.7430049180984497,-0.20700567960739136,-0.828999400138855,-0.35772234201431274,-3.2969322204589844,0.5651475191116333,-0.7555003762245178,-3.4692890644073486,0.6518871188163757,-3.2667291164398193,4.226304054260254,-6.074528217315674,0.7420169115066528,-2.4589085578918457,2.8848469257354736,-2.9929468631744385,-3.3976123332977295,-0.4430082142353058,-2.683627128601074,8.691062927246094,2.1682236194610596,1.8168888092041016,1.9397075176239014,-0.06254083663225174,-2.4920568466186523,1.748429536819458,-5.080855846405029,-0.9988899230957031,-0.8961108922958374,-3.1270670890808105,-1.497775673866272,-2.8388900756835938,-3.1432528495788574,7.002322673797607,4.358639717102051,4.653343200683594,3.8260433673858643,0.6894956827163696,1.7364283800125122,3.0727765560150146,1.3843501806259155,2.271366596221924,-1.50059974193573,-0.3050369918346405,-0.8095632791519165,0.12291543185710907,0.35561954975128174,2.2429122924804688,1.018236756324768,0.18910181522369385,0.758154571056366,-2.171610116958618,-1.2750407457351685,2.2654318809509277,3.1611859798431396,0.6988580226898193,-0.35769665241241455,3.563046932220459,4.442749500274658,-0.31600043177604675,-5.03935432434082,4.2591094970703125,4.287048816680908,-0.008693664334714413,1.1551709175109863,3.810594320297241,1.5577588081359863,1.9362623691558838,0.8514906167984009,1.2251213788986206,0.7255719900131226,6.7412848472595215,6.985853672027588,-4.073794841766357,3.27071475982666,0.4350104033946991,-5.60197639465332,-0.05831366777420044,0.3004639148712158,3.1407532691955566,1.0757617950439453,1.3619086742401123,2.871771812438965,3.115551471710205,-4.55797004699707,3.2811930179595947,-1.7821440696716309,-6.259502410888672,3.0544559955596924,-1.1615347862243652,-5.278383255004883,2.3135344982147217,-2.1286799907684326,-1.4513887166976929,-5.08386754989624,-3.6043858528137207,0.5650986433029175,4.591670989990234,4.012092590332031,1.9940906763076782,0.9840317368507385,1.6892880201339722,1.4406648874282837,-2.5619888305664062,-3.9946086406707764,6.807032585144043,1.0966365337371826,1.908509612083435,-1.4109926223754883,-5.036800384521484,-2.094986915588379,-2.6443471908569336,-4.739291667938232,5.72681188583374,-3.5968730449676514,5.476480007171631,4.770740032196045,2.263479471206665,10.260988235473633,-0.26161888241767883,-2.587933301925659,-0.46740639209747314,2.715327024459839,2.5984480381011963,1.0284088850021362,-1.3712260723114014,5.752598762512207,2.77755069732666,-0.19190210103988647,2.874781608581543,0.9159144163131714,-5.856998443603516,0.8482952117919922,3.5952818393707275,-5.030122756958008,4.810614585876465,1.445655345916748,-3.9343819618225098,-4.1809163093566895,-3.208324670791626,-1.102542519569397,-3.8258450031280518,3.8732025623321533,-2.4458253383636475,3.0453271865844727,2.370213508605957,-1.6188921928405762,5.833509922027588,0.956333577632904,2.546865224838257,1.3944107294082642,-4.650816440582275,-2.1871163845062256,1.8078608512878418,5.045892715454102,-2.786355972290039,2.112743616104126,1.8203941583633423,1.0573859214782715,1.083797812461853,-0.10707259178161621,3.496340036392212,-2.0132639408111572,-4.315333843231201,-4.049406051635742,3.332620859146118,1.851657748222351,-5.953556537628174,2.7473509311676025,0.18100011348724365,-0.4063366949558258]},"inputHidden":{"rows":20,"columns":20,"weights":[-3.1045682430267334,1.2654316425323486,-5.04111385345459,5.1856584548950195,-6.458503723144531,-5.109746932983398,-1.5681850910186768,0.7140646576881409,4.486574172973633,-3.566051721572876,-0.6252039670944214,-0.3247179090976715,-1.3506178855895996,3.993537664413452,3.184077501296997,0.8283588886260986,0.3357442617416382,6.515411853790283,-7.787363529205322,4.715273380279541,-4.5959320068359375,1.863667607307434,7.788903713226318,4.133708953857422,-5.4803948402404785,-2.4508020877838135,-0.34050223231315613,-2.0985524654388428,2.668079376220703,0.3049733638763428,-3.9622488021850586,-2.7151825428009033,-2.5189990997314453,-0.5896690487861633,-0.7664822340011597,2.5456037521362305,2.433572292327881,0.41480588912963867,-2.2290279865264893,-0.8136154413223267,-2.7965314388275146,0.4615819752216339,1.118373990058899,3.7939608097076416,6.697839736938477,-5.174584865570068,0.9860593676567078,-3.082839250564575,3.0720462799072266,-2.2242655754089355,1.1707801818847656,2.8982717990875244,-0.4070049226284027,0.5705997347831726,4.1315178871154785,-0.017859455198049545,-1.205518126487732,-2.230107307434082,6.212322235107422,4.103180885314941,1.233925461769104,-1.6469998359680176,-3.621568202972412,3.279646635055542,-3.423372983932495,1.3828037977218628,-2.2616162300109863,-4.495015621185303,7.5246148109436035,-4.993955135345459,-2.142746686935425,1.4250067472457886,-2.2987587451934814,2.495222806930542,1.8663641214370728,0.1978049874305725,-0.26529669761657715,-2.114827871322632,3.001455545425415,3.423997402191162,0.05371159315109253,0.3895981013774872,-0.08285654336214066,-1.8664822578430176,-5.602169990539551,2.034580707550049,2.1941936016082764,-3.722090482711792,-6.471921443939209,3.6638200283050537,4.256089210510254,-0.029451726004481316,1.9134796857833862,-0.7622003555297852,1.1355863809585571,-2.7592129707336426,1.6668540239334106,1.3382322788238525,-8.8055419921875,3.217679023742676,0.756529688835144,2.148235321044922,-1.8731526136398315,-3.270050287246704,-0.0011377597693353891,-1.1766550540924072,2.6950833797454834,-6.1221442222595215,-4.745666027069092,0.8054531216621399,-7.058482646942139,-0.003116864012554288,-7.691425800323486,-0.3974948227405548,-3.720017433166504,-6.345634937286377,0.44420427083969116,2.8867390155792236,-2.72510027885437,6.237217903137207,4.675489902496338,1.2177927494049072,2.7558186054229736,-10.592975616455078,4.382007598876953,-4.59915018081665,-0.9505282640457153,3.251058578491211,1.1869559288024902,2.7346115112304688,-6.337987899780273,-1.919675350189209,-4.374218463897705,2.0176312923431396,-7.3655781745910645,-2.163886308670044,6.553236484527588,0.11588466912508011,-2.235102653503418,0.15675131976604462,-1.4644700288772583,-2.544109582901001,1.5120903253555298,-2.903747320175171,-1.4822944402694702,-1.1314095258712769,0.22907494008541107,-0.6356208920478821,-1.6675701141357422,3.5572903156280518,-2.789569616317749,-5.92509126663208,1.697724461555481,-0.9028459787368774,-9.337158203125,-1.5557104349136353,2.0982625484466553,-2.291459798812866,-2.145634412765503,2.4848732948303223,4.921242713928223,2.0730674266815186,-1.2489023208618164,-0.8484368920326233,-2.835545539855957,-5.973823547363281,-1.8732444047927856,3.0977158546447754,-1.4862747192382812,-3.007593870162964,0.8807729482650757,-2.9962689876556396,2.6420438289642334,8.29961109161377,2.8792049884796143,-1.4720635414123535,2.406290054321289,8.926267623901367,3.0091705322265625,-0.9477187991142273,-2.0942018032073975,-5.62861442565918,-0.9233162999153137,4.630097389221191,-1.202530026435852,-5.955463409423828,0.07758822292089462,-6.215313911437988,2.041038990020752,-0.8677077889442444,-2.447519063949585,-1.1325165033340454,0.4026310443878174,2.7238500118255615,-7.71914529800415,-0.8409797549247742,-2.3956267833709717,-0.1696646809577942,-4.711348056793213,0.18329216539859772,-2.088728189468384,-1.0136319398880005,3.7531588077545166,-2.2422304153442383,-0.8751120567321777,1.165780782699585,-3.9828648567199707,-4.859704494476318,7.88090181350708,-0.34332460165023804,0.3506670594215393,0.5678244829177856,-3.720651626586914,-0.8155791163444519,7.8707146644592285,-6.455568313598633,0.5332141518592834,5.260406494140625,-1.5438621044158936,-1.3916293382644653,3.4335415363311768,0.6265103816986084,5.493525505065918,-2.2930498123168945,2.8994574546813965,2.1410105228424072,-2.5380184650421143,-1.6423085927963257,0.44780632853507996,-3.651416063308716,-2.1200428009033203,-3.5729706287384033,-7.719900608062744,-2.425271987915039,-5.70990514755249,-7.018433094024658,4.763288497924805,-3.19048810005188,3.9243929386138916,1.5075538158416748,1.2367242574691772,3.4727683067321777,-1.735009789466858,3.6075050830841064,-0.4922202527523041,2.3543527126312256,1.7711386680603027,-1.0771256685256958,-3.215714693069458,-1.5318338871002197,-0.9398754239082336,3.9544501304626465,0.6976880431175232,-0.8830857872962952,-1.0653237104415894,0.9597375392913818,-6.486478328704834,6.0646138191223145,0.17389866709709167,-1.553066372871399,4.3560686111450195,0.32670629024505615,-5.120545864105225,-3.1311874389648438,1.210334300994873,-3.8830313682556152,-1.2917249202728271,1.1398333311080933,6.380148887634277,0.6782581806182861,-3.3262147903442383,3.9428975582122803,-0.0024852724745869637,5.731868743896484,0.3327791094779968,-1.7754325866699219,-2.3646273612976074,1.4008595943450928,6.684527397155762,-1.1626287698745728,-6.727097511291504,-0.6416321396827698,-0.1511056125164032,2.7051827907562256,-2.2380218505859375,0.8048280477523804,0.4911026060581207,3.035759210586548,7.267261028289795,9.2712984085083,0.1337878257036209,-6.038780212402344,4.4244794845581055,-3.8357980251312256,1.7482388019561768,-1.0935152769088745,1.8568811416625977,1.2466379404067993,-5.3968915939331055,-2.3563754558563232,1.1340020895004272,2.4479658603668213,0.28500986099243164,-4.343681812286377,-0.05715791881084442,0.1976274698972702,4.985467910766602,5.627389907836914,-1.134809136390686,-1.8439160585403442,-0.04785681143403053,-0.20220588147640228,3.3391811847686768,2.3328604698181152,-7.383895397186279,4.22015905380249,-3.21570086479187,0.6592157483100891,-3.63568377494812,-1.2661068439483643,1.2825552225112915,4.358807563781738,-5.607181549072266,-1.3078839778900146,-8.671411514282227,5.920107364654541,-0.03441295772790909,3.2454590797424316,0.3703230023384094,2.9209647178649902,-2.715789556503296,-2.1340625286102295,-7.828139781951904,-7.067848205566406,-1.2275829315185547,1.9904940128326416,5.324257850646973,5.194041728973389,-4.090814113616943,1.865166187286377,-0.8701943755149841,-2.4870598316192627,