{"type":"LSTM","options":{"inputSize":21,"inputRange":21,"hiddenLayers":[20,20],"outputSize":21,"decayRate":0.999,"smoothEps":1e-8,"regc":0.000001,"clipval":5,"maxPredictionLength":100,"dataFormatter":{"indexTable":{"a":0,"b":1,"r":2,"i":3," ":4,"c":5,"l":6,"u":7,"d":8,"o":9,"g":10,"n":11,"m":12,"e":13,"-":14,"t":15,"h":16,"x":17,"p":18,"s":19,"unrecognized":20},"characterTable":{"0":"a","1":"b","2":"r","3":"i","4":" ","5":"c","6":"l","7":"u","8":"d","9":"o","10":"g","11":"n","12":"m","13":"e","14":"-","15":"t","16":"h","17":"x","18":"p","19":"s","20":null},"values":["abrir calculadora","gnome-calculator","abrir terminal","gnome-terminal","abrir chrome","google-chrome","abrir explorador","nautilus"],"characters":["a","b","r","i"," ","c","l","u","d","o","g","n","m","e","-","t","h","x","p","s","unrecognized"],"specialIndexes":[20]}},"trainOpts":{"iterations":20000,"errorThresh":0.005,"log":false,"logPeriod":10,"learningRate":0.01,"callbackPeriod":10,"timeout":"Infinity"},"input":{"rows":22,"columns":21,"weights":[0.14522483944892883,4.0626540184021,-0.6395677924156189,1.608465313911438,2.2480030059814453,1.9828190803527832,4.369941711425781,0.5973602533340454,-0.21962177753448486,-2.6351218223571777,1.0753517150878906,0.43995949625968933,1.623136281967163,0.8240072131156921,-2.708773374557495,-0.44810783863067627,0.5918777585029602,-0.999872088432312,0.09348086267709732,2.695253849029541,-1.5195741653442383,-3.440106153488159,0.42727208137512207,1.9669874906539917,-0.21151554584503174,1.3559540510177612,-0.05309067666530609,-3.0002002716064453,0.2689649164676666,1.9158169031143188,4.320863246917725,1.141258955001831,0.07306674122810364,-2.7703444957733154,-0.3682093620300293,2.002878189086914,-1.7346769571304321,-1.300480604171753,-0.7201279997825623,0.4783511459827423,-1.6427520513534546,-1.8016269207000732,-3.3039064407348633,-2.729444742202759,1.7306549549102783,0.6293261647224426,-1.1892569065093994,-5.405246734619141,-4.423428535461426,0.4955895245075226,-2.278951644897461,-1.4186792373657227,4.558157444000244,-1.5232503414154053,1.472468614578247,-1.0351041555404663,-0.28666168451309204,2.4774296283721924,0.5783347487449646,-2.2800588607788086,2.2854504585266113,-1.4701309204101562,-0.32358506321907043,1.3858784437179565,1.1811776161193848,2.7116143703460693,0.7088088989257812,-0.2674781084060669,0.6863658428192139,0.05378962308168411,-2.8535587787628174,2.1654961109161377,-0.521371066570282,0.1938270777463913,0.2612828314304352,1.2345432043075562,0.5536782741546631,-5.0090155601501465,-0.9829029440879822,0.9886071681976318,-0.21712064743041992,1.131508469581604,0.21506640315055847,-4.011018753051758,-0.2642114758491516,2.828462839126587,-2.1439387798309326,0.9076592922210693,1.6862449645996094,2.631697654724121,3.970409870147705,0.12446758151054382,1.7277500629425049,-3.7637341022491455,-0.7223337888717651,-0.7611401677131653,-0.407026469707489,0.14811085164546967,-2.0888421535491943,-0.8185843229293823,-1.91903555393219,-0.6045466065406799,-0.11103753745555878,2.1533589363098145,1.730928659439087,-1.3535025119781494,-1.6664024591445923,0.9144130945205688,-3.243421792984009,5.879690170288086,4.4124274253845215,-0.7359594702720642,-1.6196943521499634,1.9662662744522095,-2.042088508605957,0.7369101643562317,-0.7550609707832336,-6.735179901123047,1.4082807302474976,-6.465024471282959,-6.253026962280273,1.0704445838928223,-0.18906398117542267,-0.8681867718696594,-0.8485787510871887,-2.681440830230713,-7.100410461425781,-1.6915227174758911,-2.575463056564331,-0.9589149951934814,2.0417065620422363,1.5351570844650269,4.843591213226318,0.4326515793800354,-2.6192803382873535,-2.3950116634368896,-0.1656588912010193,-0.6559699177742004,-2.6425158977508545,2.238084077835083,1.720497965812683,0.7873823642730713,-4.933854579925537,1.808584451675415,-0.3451169729232788,3.821985960006714,-0.9917822480201721,-0.8603916764259338,-2.0125174522399902,-1.3058338165283203,-0.561554491519928,0.9035449624061584,3.662344217300415,-6.093592166900635,2.157702922821045,0.6696379780769348,1.3979779481887817,1.1280544996261597,3.3108909130096436,0.5927114486694336,-1.750199317932129,2.6628293991088867,-1.264738917350769,-2.208470582962036,-0.3964947760105133,-1.1408523321151733,-2.092532157897949,2.836026430130005,1.3561789989471436,-3.6083662509918213,-1.3204647302627563,5.241186141967773,-4.128787517547607,2.8896963596343994,4.267517566680908,-6.534506320953369,8.111634254455566,-0.6186803579330444,-2.7582926750183105,-0.1314336508512497,6.287198066711426,-4.48016881942749,-0.2305365353822708,-3.3732309341430664,-1.390715479850769,-2.7899858951568604,4.528470039367676,3.9935386180877686,1.398477554321289,-5.379960536956787,5.0233659744262695,3.1303553581237793,-1.7663596868515015,3.7329671382904053,-8.149958610534668,4.023770332336426,4.785008907318115,0.39312249422073364,-2.49283504486084,-1.5738145112991333,4.067503452301025,0.05004366487264633,-0.24978916347026825,-7.216508388519287,4.203963279724121,-1.4456837177276611,0.42909368872642517,-2.9680259227752686,5.579095363616943,0.5245453119277954,0.7036068439483643,0.6287069916725159,2.0522098541259766,-2.1006057262420654,-6.021518230438232,-2.2398507595062256,-1.084115743637085,-0.35186767578125,-2.978553295135498,0.5385183095932007,0.532147228717804,-1.4383653402328491,2.243096113204956,-1.3251441717147827,-1.7714247703552246,1.6324915885925293,0.9666110277175903,1.0515706539154053,0.20247723162174225,-0.14877378940582275,1.5680749416351318,-1.583795189857483,-1.977750539779663,-1.7879900932312012,-0.20830510556697845,4.012811660766602,-0.7263631820678711,2.759953737258911,-1.648108959197998,-3.7651960849761963,2.9585824012756348,-5.5004658699035645,-1.5729124546051025,-2.1458380222320557,7.170685291290283,-0.056814439594745636,-0.6829874515533447,2.6291770935058594,4.630272388458252,3.946737051010132,-2.8191447257995605,-1.026185154914856,8.026741027832031,1.6706713438034058,-0.32505133748054504,0.9917186498641968,-5.78231954574585,1.0380363464355469,1.37886643409729,-0.260785847902298,-1.9176561832427979,-1.5717793703079224,1.4488104581832886,2.4758965969085693,4.390475273132324,-6.568521499633789,1.7218908071517944,3.7893455028533936,2.8274126052856445,0.16793200373649597,-2.619359254837036,3.3039157390594482,0.36116084456443787,0.9550306797027588,0.10528499633073807,-0.3386492431163788,-0.2422088384628296,0.9678861498832703,-3.1118834018707275,-0.8210534453392029,2.390498161315918,-0.2907983362674713,-0.3465762436389923,0.3014083802700043,-1.7507480382919312,1.034860372543335,2.4271581172943115,-0.6670452952384949,3.635970115661621,1.8715206384658813,-1.950040578842163,-3.3578686714172363,1.6204614639282227,3.0562632083892822,-2.8080170154571533,-1.5308424234390259,5.102447509765625,-0.9899716377258301,3.043602228164673,2.0657622814178467,-0.7369667887687683,2.4151034355163574,2.716841459274292,1.0240211486816406,2.8546926975250244,1.1608372926712036,-4.256298065185547,1.522409200668335,-2.4801337718963623,-7.434183120727539,-0.20621047914028168,-1.6347389221191406,1.414617657661438,2.004026174545288,-7.298629283905029,-6.773293495178223,-9.71447467803955,-2.0326461791992188,-2.135551929473877,-5.697027683258057,-2.3603129386901855,-3.8056111335754395,-2.3418540954589844,3.4393198490142822,2.2865729331970215,-0.36913013458251953,1.6774072647094727,-0.16123159229755402,-2.8395309448242188,2.0629165172576904,-0.461611807346344,-0.1478075236082077,-0.47066304087638855,-0.15458478033542633,-8.464468955993652,1.598050832748413,0.16130314767360687,-4.59734582901001,-4.434406280517578,-2.1940014362335205,-3.387960195541382,0.11499445140361786,-5.125206470489502,-1.7543118000030518,3.0513088703155518,3.438420534133911,0.08127377182245255,-0.8783628344535828,1.4591286182403564,-6.8522138595581055,5.96772575378418,0.5004043579101562,0.3891102969646454,-3.093097448348999,-1.7584528923034668,1.639245629310608,5.09490966796875,-0.5211671590805054,1.242999792098999,-1.4743986129760742,-14.18065357208252,-5.313807964324951,-3.8324389457702637,0.560276448726654,2.848493814468384,-2.058955430984497,0.4017936587333679,-2.0461065769195557,0.26102912425994873,2.9242138862609863,4.819278240203857,0.7973384857177734,2.621415376663208,-2.232457160949707,0.5577932000160217,-4.542550563812256,-0.5951396226882935,2.2777888774871826,3.4086174964904785,2.2554004192352295,4.9899983406066895,2.2570486068725586,5.414126396179199,6.584482192993164,6.198177337646484,-3.030961036682129,7.816394805908203,-0.362122505903244,-3.0582079887390137,-7.07033634185791,0.3913349509239197,0.704881489276886,-7.799453258514404,-9.722416877746582,-2.307224988937378,-3.5043811798095703,4.691522598266602,2.704138994216919,-4.027159214019775,11.46472454071045,7.354290962219238,13.795722961425781,4.5212907791137695,3.736528158187866,-6.920382499694824,-6.355708122253418,-3.0262868404388428,2.2481698989868164,1.1349130868911743,8.552360534667969,-1.376156210899353,5.61435604095459,-3.008007287979126,-7.66809606552124,9.155537605285645,1.5139294862747192,3.268329381942749,-2.6597115993499756,-0.7750244736671448,1.1889582872390747,-0.1865701973438263,7.4990434646606445,-0.5386365652084351,2.909886121749878,5.233143329620361,-2.9889538288116455,0.3267368674278259,-5.650674819946289,-10.266042709350586,14.100780487060547,-1.8736437559127808,2.2414181232452393,2.121912717819214,2.189401149749756,-0.2241714745759964,12.009461402893066,7.154839992523193,0.02832145057618618,-1.4678150415420532,-0.33075764775276184,3.886944055557251,0.030631959438323975,-0.003393004648387432,-0.0008590517099946737,0.05397097021341324,0.0004109990841243416,-0.0032192436046898365,-0.042734306305646896,-0.06158411130309105,0.04302328824996948,-0.03269543871283531,0.03709378466010094,0.028734643012285233,0.055258315056562424,0.035249821841716766,-0.007034625858068466,0.051658354699611664,0.05521584674715996,-0.036268334835767746,0.03417026624083519,0.021476373076438904,0.03105178475379944]},"hiddenLayers":[{"inputMatrix":{"rows":20,"columns":21,"weights":[1.9304537773132324,-1.0183148384094238,-1.1348130702972412,0.7580963373184204,2.2788989543914795,2.4553263187408447,-0.5278986692428589,0.5757867693901062,2.511333465576172,0.34202542901039124,1.9412518739700317,2.7617011070251465,0.39004430174827576,-0.8760538697242737,0.4791358411312103,0.1303001493215561,0.026901379227638245,-5.00209379196167,-1.10071861743927,2.4534285068511963,2.5258638858795166,1.041951298713684,2.45583176612854,-2.659064292907715,1.3426008224487305,-1.8957024812698364,2.1791975498199463,2.9969849586486816,-1.3160347938537598,0.1693197786808014,-1.6936858892440796,-0.5838698744773865,-0.13476873934268951,-0.6206234693527222,-1.5931810140609741,2.508829116821289,-1.7625962495803833,-0.5865233540534973,-1.949688196182251,0.5427216291427612,1.8563038110733032,0.1901586651802063,-0.43082395195961,-0.25478434562683105,1.726068377494812,0.635910153388977,1.2940223217010498,2.2508065700531006,3.2295026779174805,-0.573439359664917,2.5076043605804443,-0.5737578272819519,-2.7100322246551514,0.4755660593509674,1.2139850854873657,1.6462011337280273,-2.580904722213745,-0.21144360303878784,1.3019800186157227,0.41058799624443054,2.6085081100463867,2.157459259033203,-1.0043410062789917,1.421539306640625,2.468428134918213,0.4854682981967926,0.9134330749511719,0.5777760148048401,-0.11342079937458038,1.6338739395141602,3.7586162090301514,0.11119148135185242,-1.4952408075332642,1.723091959953308,0.6290128827095032,2.8054873943328857,1.8144601583480835,-0.5747169852256775,0.9906706809997559,-0.06088269129395485,-1.5715529918670654,-1.019852638244629,4.361027717590332,-1.4128319025039673,2.264845132827759,-1.700696349143982,-1.3776496648788452,0.21503658592700958,0.07122208178043365,-0.17058922350406647,-1.6044807434082031,0.8810081481933594,-1.9469937086105347,-1.3416903018951416,1.5345611572265625,0.39288008213043213,0.7704806327819824,0.15535186231136322,2.3744935989379883,1.1730701923370361,1.1534767150878906,-0.17863468825817108,-2.6654677391052246,-0.6527274250984192,3.1147074699401855,-2.2266175746917725,0.13226163387298584,-0.246475487947464,-1.669082760810852,0.11559540033340454,1.2201341390609741,-2.4824447631835938,0.6274672150611877,0.32617366313934326,0.4455503821372986,4.417434215545654,1.8018860816955566,1.2990756034851074,-3.459446668624878,-0.8578275442123413,1.0654600858688354,-0.05112333595752716,-3.571552038192749,-2.3380937576293945,-1.1528493165969849,2.3171634674072266,-0.04475373774766922,2.007901668548584,4.142847061157227,1.00054132938385,1.0910018682479858,-1.4118486642837524,0.36216747760772705,0.2271229475736618,0.9388242363929749,-0.08149423450231552,1.1312962770462036,-1.5460331439971924,1.6574352979660034,-1.5002623796463013,-3.9471914768218994,-1.5988768339157104,-0.8335762023925781,-0.11550422012805939,2.3259494304656982,-0.061156123876571655,-2.1450653076171875,-1.8902477025985718,-2.809499502182007,-1.040740728378296,-1.8809077739715576,0.7199267148971558,1.4568861722946167,1.3620719909667969,1.1395235061645508,-2.542877674102783,-1.511537790298462,0.11585579812526703,1.930131196975708,-2.625088930130005,1.7577712535858154,0.7688491344451904,-2.3945984840393066,-0.7910611033439636,1.4180104732513428,-0.8049360513687134,-0.6948549151420593,0.8651009202003479,0.5237663984298706,0.502096951007843,1.0309480428695679,-2.2525155544281006,-6.811604022979736,-0.6529831290245056,1.6999199390411377,1.2053264379501343,1.4850083589553833,0.46054160594940186,-1.5749638080596924,-0.04317326098680496,2.5002012252807617,-2.3257408142089844,1.5558497905731201,0.309396892786026,-0.06659583747386932,1.5794801712036133,-1.2798964977264404,-1.2385295629501343,-0.9200024008750916,0.49836546182632446,-0.31460657715797424,-0.400749534368515,-0.3207061290740967,-0.14948798716068268,-2.563776731491089,-0.7096185684204102,1.282908320426941,-3.728238582611084,1.7639076709747314,-0.327621728181839,1.172816514968872,3.231580972671509,-0.9467862844467163,2.2044625282287598,1.7699638605117798,-0.18025857210159302,1.756451964378357,-1.1587035655975342,-1.1102246046066284,3.316026210784912,1.9001379013061523,1.3037853240966797,0.5146072506904602,2.6044671535491943,-0.6249147057533264,1.7411270141601562,1.3869836330413818,-1.195557713508606,3.2869999408721924,0.7336727976799011,0.04396018013358116,-0.28659170866012573,0.03447128087282181,-0.8693941831588745,-1.055990219116211,-1.264393925666809,1.9838320016860962,-3.5763967037200928,0.8204326629638672,2.368204355239868,-1.0430147647857666,1.2604888677597046,0.014239389449357986,-1.5975689888000488,1.7570059299468994,0.1740202158689499,-1.1265184879302979,3.31376576423645,-1.1639618873596191,-1.4384279251098633,-0.769442081451416,-1.308617115020752,-1.5579609870910645,0.7464022040367126,0.5096578001976013,-0.40452155470848083,0.23935440182685852,-0.9881147742271423,1.4461408853530884,0.7042771577835083,0.38144177198410034,0.44578996300697327,1.8164465427398682,-3.6057116985321045,-1.4001106023788452,-3.366260051727295,-2.970308542251587,-3.6093356609344482,0.3852980434894562,-0.02137080579996109,-0.68730229139328,0.683229386806488,-3.198683738708496,0.3884359300136566,2.291080951690674,-2.479412078857422,1.466446042060852,-0.06292931735515594,0.47982221841812134,-0.47823867201805115,0.5154139399528503,-0.6539556980133057,0.8087852001190186,1.8706327676773071,2.527071475982666,1.2160491943359375,-0.3496150076389313,-0.860388994216919,-0.9233790636062622,2.5440750122070312,0.2828626334667206,0.9702854752540588,-2.786447048187256,0.27308619022369385,-1.6530019044876099,4.171044826507568,-1.557734489440918,-2.5847129821777344,0.056381791830062866,2.180830240249634,-2.3268206119537354,0.18635298311710358,2.5887062549591064,1.1887887716293335,-0.06452039629220963,-0.6201252937316895,1.8424899578094482,0.5642955303192139,0.5501135587692261,-1.957938313484192,-1.5402650833129883,0.25444766879081726,1.6428496837615967,1.1301180124282837,0.76787269115448,-2.375019073486328,-2.6213560104370117,2.4055838584899902,-2.1911444664001465,-1.6978148221969604,1.3853108882904053,-0.23283742368221283,0.9523714780807495,-2.224987030029297,-1.0651205778121948,0.055920425802469254,-2.0571072101593018,1.134019136428833,-0.8810713887214661,-0.906627357006073,-0.8082059025764465,-0.03676072135567665,-4.319610595703125,2.1135976314544678,1.5057276487350464,-0.8160752654075623,-2.311173677444458,-0.3703850507736206,0.0020480460952967405,-1.2740288972854614,-0.8403640389442444,1.9004942178726196,0.32460492849349976,1.6020410060882568,-2.3156092166900635,-1.297084093093872,1.1594353914260864,2.512732982635498,-0.6331745982170105,1.9937063455581665,-3.233471393585205,2.436264753341675,4.705236911773682,-1.6542664766311646,1.9208012819290161,-1.4714690446853638,-1.0820132493972778,-1.8127979040145874,1.1600072383880615,-1.1904222965240479,-0.7741892337799072,-1.699783205986023,2.700983762741089,-0.2425844371318817,-0.09544400870800018,-0.6184824705123901,1.4025930166244507,-3.374753952026367,-0.09780366718769073,-0.6157735586166382,1.8028919696807861,2.7216529846191406,-0.39022332429885864,2.227362871170044,2.774693489074707,-1.6017004251480103,-2.1923828125,1.4297418594360352,-0.1534367948770523,-3.553955316543579,0.5313246846199036,-0.7666731476783752,0.2919963002204895,-1.4749971628189087,-3.1847963333129883,0.7012677192687988,1.2692617177963257,1.016621470451355,-0.5808926820755005,0.14933820068836212,-0.2613777816295624,0.14770857989788055,-1.0952703952789307,1.7438939809799194,-1.8374712467193604,-1.8713335990905762,-1.7171292304992676,2.0009372234344482,0.7248587012290955,2.37294602394104,-1.3970807790756226,2.464773416519165,-0.043403733521699905,-1.9051400423049927,3.3052685260772705,3.1973724365234375,-0.2009458988904953,-3.9821863174438477,-1.873412013053894,-3.0532431602478027,-2.02554988861084,-0.5965102910995483,-1.0004348754882812,3.458085060119629,-0.9390445947647095,-2.422417640686035,2.3428447246551514,-1.5015521049499512,1.855547547340393,0.25916925072669983,-0.7239612936973572,-2.8794448375701904,-0.32737985253334045,2.1599133014678955,-1.4757637977600098,-0.7289738655090332,1.5919888019561768,-0.2512052357196808,-1.6960911750793457,-1.0457648038864136]},"inputHidden":{"rows":20,"columns":20,"weights":[-1.2815580368041992,-0.04299859702587128,1.8197249174118042,1.2450814247131348,-0.9555162787437439,-0.9641588926315308,0.549784243106842,2.4936270713806152,-2.7200379371643066,1.042682409286499,-1.1176975965499878,-1.4098234176635742,0.17737004160881042,0.3911496102809906,-0.1611051708459854,-1.8957414627075195,-0.8925171494483948,-0.7138802409172058,3.863224506378174,0.6741889715194702,1.2741252183914185,-1.656700611114502,0.6307218074798584,-1.44574773311615,-3.2271921634674072,0.7711920142173767,1.2701729536056519,0.08103515952825546,0.411332905292511,2.0418918132781982,0.35398948192596436,-0.6567882299423218,0.8964461088180542,0.06874063611030579,1.1642613410949707,0.9339485168457031,0.30580130219459534,0.9027671813964844,0.6692331433296204,1.8559881448745728,-3.833848476409912,2.3165104389190674,-1.0516771078109741,-2.5317270755767822,0.09009351581335068,2.0123445987701416,3.337676763534546,-0.4274974465370178,-0.09646998345851898,1.6306533813476562,-3.106532096862793,-0.31707173585891724,1.6003246307373047,1.6071784496307373,-0.13417716324329376,-2.106971502304077,-1.5403529405593872,-2.0062456130981445,2.740821123123169,-1.0506136417388916,0.8601347804069519,0.626128613948822,1.2305454015731812,-1.3145695924758911,-0.10971365869045258,-2.8151910305023193,-0.1440059095621109,-0.04479086771607399,-1.4050649404525757,-3.6032562255859375,0.5636126399040222,-0.20493224263191223,-0.0867810919880867,-0.7054388523101807,0.5865927338600159,-1.3181984424591064,-1.2382563352584839,1.1826488971710205,-0.1150546669960022,-1.0901470184326172,-0.18230396509170532,1.9039459228515625,3.050262689590454,-1.8311595916748047,1.9049018621444702,1.0831458568572998,0.4009237289428711,-0.1294662058353424,0.5993611812591553,1.1849400997161865,-0.3883259892463684,3.963878631591797,0.07899006456136703,-5.698599815368652,-0.5167208909988403,0.603299081325531,0.8725560903549194,4.29744815826416,-0.9345187544822693,-1.6125510931015015,7.006750583648682,-1.6082489490509033,6.363146781921387,-0.22560754418373108,1.4128121137619019,1.4895596504211426,0.7301838994026184,-1.3948705196380615,-1.8487879037857056,4.670098304748535,-0.4577408730983734,-4.179438591003418,-0.24297188222408295,3.8468735218048096,3.6344451904296875,0.4881085753440857,0.10218841582536697,-2.4248440265655518,1.1015537977218628,1.1417866945266724,0.6243394017219543,-1.0616682767868042,1.2965821027755737,1.3121029138565063,-1.6513981819152832,0.8613788485527039,0.48689085245132446,-2.0268290042877197,-1.630308985710144,0.08287054300308228,0.3273833990097046,-3.903350591659546,2.9004428386688232,0.7622144222259521,-2.2394206523895264,0.07955288887023926,-3.8063852787017822,-0.07416392117738724,3.7932300567626953,-2.667858839035034,0.8149385452270508,2.4481396675109863,-5.239273548126221,4.323972225189209,0.9488449096679688,-5.401318073272705,-3.5949838161468506,-1.2319581508636475,1.4298193454742432,-2.8780624866485596,-4.224745273590088,3.204087972640991,0.3102952241897583,1.0251989364624023,2.031654119491577,-0.8668689131736755,4.056894779205322,3.359785318374634,-1.5315309762954712,2.0568695068359375,0.46663278341293335,-1.3492634296417236,-2.1990272998809814,-3.374370574951172,1.2072196006774902,1.8969101905822754,-1.5021883249282837,-2.5843472480773926,2.3440093994140625,1.2742183208465576,0.19264373183250427,2.235959768295288,-0.7006088495254517,0.8395391702651978,1.123547911643982,1.6912922859191895,0.11037654429674149,1.4393048286437988,-3.5729429721832275,1.2986657619476318,0.8653882145881653,-2.801882266998291,2.597479820251465,-2.2030210494995117,-0.9080435037612915,0.9217436909675598,4.322324752807617,2.991701126098633,4.868834018707275,-0.06082622706890106,-0.01746539957821369,-3.265437364578247,-1.0350953340530396,-0.6174726486206055,0.4940595328807831,0.8175223469734192,-1.0375889539718628,-0.10575858503580093,-0.8274052143096924,-0.5387712121009827,1.8085442781448364,-1.9728621244430542,-0.8605558276176453,-2.492098331451416,-0.7776697874069214,3.2736828327178955,-0.5688036680221558,-2.7359354496002197,1.9550600051879883,-0.01606377586722374,1.1106276512145996,1.5461626052856445,-0.8623102903366089,-1.9931914806365967,-2.1990981101989746,1.199549674987793,-1.0976731777191162,-1.0485963821411133,-2.1204919815063477,2.830653429031372,-1.3710136413574219,-1.0000425577163696,1.0668452978134155,0.1508360207080841,4.633502960205078,3.206481695175171,-0.01515235472470522,1.757789969444275,0.1295737624168396,-0.4275171756744385,3.447783946990967,-0.2388940155506134,4.064780235290527,2.0839364528656006,-0.3974321782588959,-0.0335250198841095,-0.25619539618492126,-0.7531368732452393,0.5641546249389648,1.011762261390686,4.3341898918151855,-0.6488646268844604,-1.4354124069213867,-0.9416096210479736,2.8471364974975586,-1.6116634607315063,-4.277934551239014,-2.3240737915039062,3.248384475708008,-0.40186819434165955,-2.229724645614624,5.265986919403076,0.9796156287193298,-1.0048024654388428,-0.3273213505744934,2.309735059738159,4.057407855987549,0.016712332144379616,-3.9980196952819824,-2.88737416267395,0.9538059234619141,-0.25378188490867615,1.013932466506958,-0.7990018129348755,0.5610072612762451,-0.7365511059761047,0.5820021629333496,0.5320993661880493,0.4861886501312256,1.7149521112442017,-0.08876041322946548,-2.6937601566314697,0.6069487929344177,0.5574772357940674,3.399829387664795,-0.22250983119010925,-0.5360068082809448,-1.5356940031051636,-1.2914263010025024,-1.7821024656295776,0.5479060411453247,0.44560080766677856,1.4680061340332031,-0.6897439360618591,0.09673010557889938,-0.34167397022247314,-1.4801830053329468,0.8957688212394714,1.159832239151001,-0.49095261096954346,1.4784910678863525,-1.3770250082015991,-0.49365463852882385,-0.5075936317443848,0.3086109161376953,-0.20542898774147034,0.46729353070259094,0.5254330039024353,0.39606624841690063,-1.9809726476669312,-0.5082712173461914,0.09973485767841339,-0.27097922563552856,-0.1550653874874115,0.3806055188179016,1.4173554182052612,1.1393083333969116,1.389235496520996,1.2009141445159912,-0.11137481778860092,0.19673427939414978,-0.44297555088996887,0.6289477348327637,0.14957378804683685,0.6742032766342163,-1.5246655941009521,-0.14479492604732513,-0.2338084876537323,0.17413759231567383,-0.6597962975502014,0.24430982768535614,-0.109274722635746,-1.7088061571121216,0.8214817643165588,1.9520301818847656,-3.4824891090393066,2.3041272163391113,0.2614751160144806,-1.8135751485824585,-0.6284974217414856,0.5638132095336914,-1.4808013439178467,2.0179567337036133,5.343226432800293,2.0191280841827393,3.7053728103637695,1.8412010669708252,-0.5133224129676819,-0.10885980725288391,0.6081610321998596,-0.5047714710235596,-3.8483498096466064,3.6682028770446777,0.8234149813652039,1.345393180847168,0.35603806376457214,-0.3650705814361572,8.006112098693848,2.0277392864227295,1.591693639755249,1.7504510879516602,0.23880061507225037,0.5772774815559387,2.5031845569610596,-0.22926165163516998,-0.24520032107830048,3.241664409637451,0.28157687187194824,0.27130481600761414,4.29193115234375,1.4948970079421997,0.864369809627533,-1.4542968273162842,-2.3913233280181885,0.021459009498357773,-1.1812289953231812,2.782715320587158,-1.7478753328323364,-0.5519150495529175,-2.185598611831665,0.9988332390785217,2.362914562225342,0.8536291122436523,0.9386228919029236,1.3609164953231812,-0.861326277256012,0.12314178049564362,0.4726552367210388,-1.7995429039001465,0.43221792578697205,-0.405423104763031,-4.099588394165039,-0.03687143698334694,-2.1135077476501465,-1.6958768367767334,-0.9157816767692566,5.492030620574951,-3.3041441440582275,0.8001199960708618,-3.9182655811309814,2.4446046352386475,0.2610138952732086,-1.6412931680679321,4.522178649902344,0.7696327567100525,-0.28042030334472656,-2.5216338634490967,-2.9711790084838867,0.3230987787246704,-2.4311020374298096]},"inputBias":{"rows":20,"columns":1,"weights":[-1.1267284154891968,0.5133362412452698,0.5164488554000854,1.2513959407806396,0.35217902064323425,-1.169471263885498,2.675694704055786,0.3882983922958374,-1.099121332168579,0.9254238605499268,0.49850335717201233,1.9001877307891846,-0.2079247385263443,0.8122743964195251,-1.846387505531311,-0.5352166891098022,-0.49877339601516724,0.6756179332733154,1.5328254699707031,-1.2777950763702393]},"forgetMatrix":{"rows":20,"columns":21,"weights":[-0.5853321552276611,3.255329132080078,-1.6869398355484009,-0.7373421788215637,1.2807655334472656,4.715536117553711,3.011185646057129,-0.4956051707267761,-1.125502586364746,-1.5896297693252563,0.26327475905418396,1.2115185260772705,-2.663357973098755,1.2215111255645752,-0.6873531341552734,0.665526807308197,-0.4071512818336487,0.943010151386261,-0.4793325662612915,2.2294838428497314,0.4892285466194153,0.3204890489578247,0.23818999528884888,-2.726140022277832,-1.608185052871704,1.2020906209945679,-0.16216029226779938,0.5948889851570129,1.7892634868621826,-0.533842146396637,1.0939851999282837,0.8144770264625549,-0.8014875054359436,0.008725778199732304,-1.0190538167953491,-0.6543350219726562,0.7636045217514038,1.0225576162338257,-0.5038667917251587,-4.031766891479492,1.3559002876281738,2.4667255878448486,-0.4250684380531311,-1.3947616815567017,-1.7279342412948608,0.6382390856742859,-4.481327056884766,-0.10183338820934296,-1.1569600105285645,0.6316935420036316,-1.8308972120285034,2.0338592529296875,-1.2057496309280396,-0.09527620673179626,2.5349996089935303,-0.8047888875007629,2.6546010971069336,0.38198503851890564,0.8327156901359558,-1.3798787593841553,-0.7528669238090515,-0.1960957795381546,2.3869469165802,-0.887775182723999,0.7218106985092163,0.02115774340927601,-2.6296167373657227,-0.6575846672058105,0.15626627206802368,-1.675510287284851,-1.8714679479599,-3.12583327293396,1.2224918603897095,2.4655215740203857,-2.1625797748565674,0.8937232494354248,0.6448209285736084,1.574472427368164,1.65394926071167,1.4198014736175537,0.39211729168891907,-1.778617262840271,2.7449657917022705,0.05877251550555229,-0.8888322710990906,1.6128979921340942,-1.8005733489990234,-0.7016494870185852,-0.6933017373085022,-0.4080493748188019,1.2987697124481201,0.2572730481624603,-0.9411962032318115,0.6069396138191223,0.08000678569078445,2.5694096088409424,0.4520915448665619,-1.1626527309417725,2.056825637817383,0.7517735362052917,0.8850293159484863,1.1335461139678955,-1.7467172145843506,1.0917673110961914,1.3536453247070312,-1.6756579875946045,1.4165269136428833,-1.0903538465499878,0.027593091130256653,1.1948999166488647,1.1260106563568115,-0.7173322439193726,2.7223386764526367,1.4248172044754028,-0.8339014053344727,0.07891131937503815,1.2634711265563965,-2.8391072750091553,0.4671362638473511,0.869931161403656,-2.2756171226501465,-1.7609516382217407,-1.051743984222412,0.6118282079696655,-0.4147016406059265,-0.9205062389373779,2.611423969268799,1.4086717367172241,0.8513402938842773,2.624368906021118,-2.633115768432617,1.4066829681396484,2.548081398010254,-2.302574634552002,-0.46749556064605713,-0.2690533995628357,-0.1388741433620453,-1.408722162246704,2.084791898727417,-2.0706279277801514,-0.47628363966941833,-0.48425528407096863,0.4754332900047302,0.5934929847717285,-0.3093327283859253,0.5858373641967773,0.31119269132614136,2.773502826690674,0.7944963574409485,1.0228537321090698,-2.1134002208709717,-0.9042137265205383,-2.490987777709961,-0.3404099941253662,-0.5511416792869568,-1.0626293420791626,1.214450716972351,0.8771596550941467,-2.155696392059326,0.9600995182991028,-0.11812805384397507,-2.0732460021972656,1.0091757774353027,3.0635061264038086,-2.1509692668914795,0.22676338255405426,-1.0791345834732056,-0.6454645395278931,1.3193498849868774,0.546226441860199,-0.8762016892433167,-0.5718510746955872,-0.9426760673522949,0.6318917870521545,-0.9851547479629517,2.5555248260498047,-1.792622447013855,0.6931049823760986,2.3002278804779053,4.243587493896484,-0.5931846499443054,-2.315617322921753,0.5813241004943848,0.383938193321228,2.455808401107788,-0.5469880700111389,-1.4521241188049316,-0.14272940158843994,2.197636842727661,0.7595326900482178,-1.0223764181137085,-2.0955100059509277,-0.45216989517211914,-0.012631059624254704,0.8699223399162292,-0.323954313993454,0.6614596843719482,0.8172335624694824,-2.5639803409576416,2.408750534057617,0.920330822467804,0.3405618667602539,1.204903483390808,0.6923284530639648,-1.4183754920959473,-1.430021047592163,-3.1800475120544434,-1.5760135650634766,5.007248878479004,1.3673851490020752,0.6472170352935791,0.3654767870903015,2.1280760765075684,1.1691590547561646,-0.7909770011901855,-1.542001485824585,1.7688406705856323,-1.763292908668518,-1.8198691606521606,2.740154981613159,-0.5708675980567932,1.3968175649642944,1.2963299751281738,1.7144488096237183,0.926630973815918,1.4636951684951782,1.7423356771469116,3.900238037109375,0.5673725605010986,-0.8024803400039673,-1.9416213035583496,-2.9295802116394043,-0.3934420645236969,-1.7858142852783203,0.3791978657245636,-0.5541072487831116,0.27524176239967346,0.5304940342903137,-0.20351675152778625,-1.0875327587127686,1.9208202362060547,-2.946929693222046,1.4972678422927856,0.0010646744631230831,0.9268849492073059,5.917278289794922,0.5493932962417603,-2.1247265338897705,1.9466521739959717,-1.9080289602279663,-1.2868156433105469,-0.2797929346561432,-2.9905152320861816,-1.7402215003967285,1.718271017074585,-2.8996918201446533,0.2564213275909424,0.22519387304782867,-3.2057173252105713,1.7808871269226074,1.7349176406860352,0.580400824546814,-0.746542751789093,1.1017441749572754,-1.7913222312927246,1.4418985843658447,-1.3761262893676758,-1.9511429071426392,-1.9178922176361084,0.9492229223251343,-0.3341253995895386,-0.3351544141769409,-0.8361034393310547,0.667614758014679,1.9594736099243164,0.8870118260383606,-0.2771695852279663,0.409322053194046,1.6456272602081299,1.0901851654052734,-1.6209943294525146,2.7981886863708496,2.1969542503356934,-2.8004517555236816,-2.0026869773864746,-0.7902407646179199,0.5512877702713013,-0.8032510876655579,-1.5997666120529175,1.4956523180007935,-0.8750391602516174,1.2192041873931885,-0.4474947154521942,-2.301215887069702,0.4312625527381897,0.8144720196723938,-0.8226533532142639,-0.9568199515342712,-3.7620575428009033,0.7529893517494202,-2.1166908740997314,-0.4443715214729309,-0.9347211718559265,0.6330116987228394,0.30135393142700195,0.10364983975887299,0.05862525850534439,-1.2362719774246216,2.082473039627075,0.30420082807540894,-0.962967574596405,2.512356996536255,0.1348446011543274,-2.5278875827789307,0.3598361313343048,-1.5462987422943115,-0.7920463681221008,-2.3964810371398926,-2.213897466659546,-3.385788679122925,3.165682315826416,1.4037991762161255,0.2060723751783371,0.16030307114124298,-0.050530120730400085,-0.09238730370998383,2.52382493019104,0.7584107518196106,-0.7854539155960083,2.1279659271240234,-0.4782426953315735,-2.8095083236694336,-1.050798773765564,-3.184494972229004,0.36291274428367615,3.023941993713379,1.608878254890442,0.4953915774822235,1.9854732751846313,3.6106159687042236,0.26779472827911377,1.0635416507720947,-0.9544544219970703,-2.4365081787109375,0.019406747072935104,1.4559500217437744,1.2332074642181396,-1.0241167545318604,1.5149022340774536,-1.6019506454467773,-1.292423963546753,0.6112419962882996,1.270910382270813,-0.41364365816116333,0.8217828273773193,0.21522337198257446,-2.2624478340148926,-2.476139545440674,0.4843668043613434,0.38707080483436584,-2.575263500213623,-0.8450036644935608,-0.8517169952392578,0.12981313467025757,0.11315251886844635,4.145515441894531,0.5787830352783203,-2.008185625076294,0.4339112639427185,-0.5805653929710388,0.34795936942100525,-0.23777368664741516,-4.387424945831299,-3.308292865753174,3.1568796634674072,-0.2762782573699951,-0.6351648569107056,-0.881427526473999,3.3959860801696777,3.1416168212890625,0.735543966293335,1.5339360237121582,1.321941614151001,2.9363534450531006,0.8062470555305481,-3.435821533203125,0.03807999566197395,1.727173924446106,1.2349759340286255,-2.3589532375335693,-0.5430669784545898,-0.5597537755966187,-1.5840644836425781,-1.3125540018081665,2.261523962020874,0.22140492498874664,-0.6691255569458008,0.7108502984046936,-1.7118122577667236,-1.3108447790145874,0.4484006464481354,2.7954676151275635,3.318887233734131,1.7647359371185303,0.3268420100212097,-0.43637779355049133,0.2286616712808609,0.7921966910362244,0.11585738509893417,-0.1632637083530426,-4.102234840393066,-0.08994686603546143,1.9622515439987183,-1.475398063659668,0.584744930267334,-1.9798561334609985,-0.6889250874519348,3.902473211288452,2.0933330059051514,-1.9766489267349243]},"forgetHidden":{"rows":20,"columns":20,"weights":[-0.22207103669643402,-0.4923184812068939,-1.1712383031845093,-1.373277187347412,1.0900006294250488,1.379650592803955,0.5949637293815613,-0.5392382740974426,0.559985339641571,1.069977879524231,-1.6480638980865479,-0.4603663682937622,-2.457094430923462,0.3649405539035797,1.9167723655700684,0.2005273997783661,1.7077256441116333,0.3815869092941284,0.5715492963790894,0.047196030616760254,0.43576616048812866,-1.3541162014007568,0.0920882597565651,-0.9385600090026855,-2.176670789718628,1.8235528469085693,0.6199605464935303,-0.3544299900531769,-3.2796337604522705,-2.484853506088257,-0.4528310298919678,-0.9877768754959106,-1.9250452518463135,0.14090695977210999,0.09343679994344711,-0.21751202642917633,-0.5823498964309692,0.713746190071106,0.16497549414634705,-0.47784221172332764,0.125362828373909,-2.503570795059204,1.0769259929656982,3.352311372756958,-0.47763296961784363,-0.357234925031662,-3.0216403007507324,2.033292531967163,-6.643496990203857,2.1075048446655273,-0.752694308757782,-2.3945186138153076,0.20598185062408447,-1.872882604598999,-2.7131948471069336,-1.5232747793197632,-2.1817209720611572,2.465049982070923,-1.2657253742218018,1.5616281032562256,-1.5030698776245117,-3.3735852241516113,-1.4809269905090332,-1.1321802139282227,0.08047997951507568,-2.5061380863189697,-1.9992607831954956,-0.37399595975875854,-0.46742868423461914,-0.11162549257278442,-3.952763557434082,-1.8835276365280151,-1.7754062414169312,-1.9122520685195923,-2.306229829788208,0.21113790571689606,0.8397132754325867,0.08269007503986359,-0.3370209038257599,1.584488868713379,-2.352273464202881,-1.2374696731567383,1.2743710279464722,1.7256168127059937,-1.7607569694519043,0.2125486433506012,2.0729291439056396,-1.0877931118011475,-1.3782105445861816,0.41737526655197144,-0.4667479693889618,-0.8555523157119751,1.1147727966308594,3.178136110305786,-0.893564760684967,0.05931346118450165,-1.1058439016342163,-1.0885920524597168,1.0580254793167114,0.910099446773529,0.2539379894733429,-0.16762308776378632,-0.42019957304000854,1.575134515762329,1.9900283813476562,-1.9098016023635864,-0.8331572413444519,1.283849835395813,1.7836557626724243,-1.714594841003418,1.1206930875778198,2.2241008281707764,-1.1711009740829468,-0.8293288946151733,-0.24923360347747803,0.5789086818695068,0.7632602453231812,1.3235210180282593,1.0905061960220337,0.002234433777630329,0.6238958239555359,0.5034564137458801,0.8765749931335449,-1.594670057296753,0.21714293956756592,-2.1370458602905273,-0.39230358600616455,2.1752519607543945,-0.6125268936157227,-0.43054521083831787,0.04354080557823181,1.7380810976028442,-1.2216333150863647,-0.35979512333869934,-0.194117933511734,-1.500030279159546,1.4669685363769531,2.022040605545044,-1.3766648769378662,-0.5513328909873962,-3.087878465652466,-0.4188206195831299,2.1759045124053955,0.17295780777931213,0.2847737669944763,-0.29800429940223694,0.7251402139663696,2.948453187942505,-0.31517085433006287,0.5912506580352783,0.3497259318828583,-1.1769953966140747,0.3021757900714874,0.03129216283559799,-1.443143367767334,-4.560749530792236,0.5370181798934937,2.659637451171875,2.5264177322387695,-0.03389602154493332,0.03482075035572052,-2.1504788398742676,-0.6195589303970337,-0.70670086145401,0.5381011366844177,0.4026753604412079,-0.03593509644269943,1.2617056369781494,1.116004228591919,0.703237771987915,-0.5492550730705261,1.002968668937683,-2.461008310317993,0.5243024230003357,-0.8605640530586243,2.9275221824645996,-0.24073761701583862,-1.6477277278900146,0.4972434937953949,-0.016804279759526253,-1.567807912826538,0.5443710088729858,2.090968608856201,-0.15084269642829895,-0.5811135768890381,0.7301216125488281,0.31066834926605225,-0.894922137260437,-0.2229260802268982,0.6712590456008911,0.4209359884262085,-1.1030462980270386,1.5636343955993652,0.5623171925544739,0.05002980679273605,-0.7708545327186584,-0.5466093420982361,-0.5317498445510864,1.649382472038269,0.7616921067237854,-0.1350594460964203,-2.679513454437256,-0.26303330063819885,-0.8102446794509888,-0.5911515951156616,1.1629717350006104,1.4419867992401123,-0.40168479084968567,2.070963144302368,-0.5527178049087524,1.2514927387237549,-1.0941306352615356,0.035752829164266586,-1.1429804563522339,-0.6752996444702148,-0.6728407740592957,-0.8908969163894653,-2.670239210128784,0.7288289070129395,1.3972738981246948,-0.9866456389427185,1.5968164205551147,-0.03162722662091255,-0.27339330315589905,-0.2982600927352905,1.0316299200057983,2.8853650093078613,2.620936870574951,-1.0339900255203247,-1.7503080368041992,-1.349400520324707,-0.7218658924102783,-1.6867016553878784,1.8289687633514404,-1.5571703910827637,0.33213910460472107,-0.19490787386894226,0.44369956851005554,0.5830568075180054,-1.4178889989852905,-0.012709608301520348,0.7903733253479004,-0.9030747413635254,0.19516074657440186,0.7761520147323608,-3.280327796936035,-4.452986240386963,2.457399368286133,1.6847569942474365,-2.305058002471924,-0.4892311096191406,-0.1417119950056076,0.6803935766220093,-2.9102795124053955,-0.24032457172870636,-0.8437411785125732,3.917090654373169,-1.6377924680709839,-0.722419261932373,-0.66397625207901,-1.1630042791366577,-2.1301164627075195,0.22611002624034882,-1.1951484680175781,-3.186476230621338,-3.2370567321777344,0.3879801332950592,-0.4721362292766571,-1.0459414720535278,-2.228569746017456,-2.0908656120300293,-1.9010469913482666,1.2644776105880737,0.14489240944385529,1.029862880706787,-2.260423421859741,-0.6681018471717834,0.7906409502029419,-0.2214532494544983,-0.5475717782974243,0.5933557748794556,-1.2695180177688599,0.053162671625614166,1.087491512298584,-1.8741682767868042,-0.31224262714385986,0.26859527826309204,2.015303611755371,0.06868840754032135,-0.24889548122882843,-0.12574954330921173,0.3572135865688324,-0.2742065191268921,2.394178867340088,0.37393108010292053,-0.9000626802444458,-2.0579683780670166,0.03456364944577217,-2.888451099395752,2.275458812713623,1.6740038394927979,1.7816638946533203,-1.8361883163452148,-1.6339876651763916,1.4328054189682007,-1.4881919622421265,-0.2972114682197571,-1.193886637687683,2.456273317337036,0.48533403873443604,1.4451524019241333,3.457777976989746,-1.4461172819137573,-0.04110481217503548,1.1915841102600098,2.5591657161712646,0.20761853456497192,1.730543613433838,-0.7290377616882324,-1.6359978914260864,0.9179092049598694,-2.269886016845703,-0.9047836661338806,-0.466293603181839,-1.5040204524993896,-0.9766814112663269,-0.07730598747730255,-0.5329862833023071,-1.3030290603637695,1.3870463371276855,-2.0296406745910645,-2.506916046142578,1.8285762071609497,-0.5188997387886047,-0.9562889933586121,0.24570289254188538,-2.7713358402252197,-0.8957420587539673,-0.7439432144165039,0.2067136913537979,-2.179091215133667,-0.38538527488708496,-0.26349368691444397,0.06415151059627533,-0.8322690725326538,-0.21573302149772644,-0.714933454990387,0.8316324353218079,1.8211019039154053,0.7964314222335815,-0.646767258644104,0.6191936135292053,0.8207365274429321,0.6292280554771423,2.102660894393921,0.6641672253608704,-0.007843764498829842,-0.25811126828193665,-1.1713985204696655,-1.5055075883865356,-0.7073408961296082,-1.033265471458435,-2.9307844638824463,-1.8954977989196777,-0.9494338035583496,-0.9247796535491943,-3.121987819671631,0.06577149778604507,-0.9010855555534363,0.21753959357738495,-2.9895670413970947,1.336061716079712,1.221475601196289,-1.2958359718322754,-1.969443917274475,0.019541600719094276,-0.38982126116752625,-0.7827777862548828,-1.677733063697815,1.8649349212646484,0.8811011910438538,-1.677457332611084,0.42066389322280884,-0.4035145044326782,-1.439247488975525,-2.967733383178711,-2.1102514266967773,-0.36253029108047485,-2.1400861740112305,0.56064373254776,-0.22500766813755035,-0.24499750137329102,-0.2524065673351288,-0.40741175413131714,-1.1002695560455322,-1.3295828104019165,2.019116163253784,-0.15981461107730865,0.3012564182281494,0.2802715599536896]},"forgetBias":{"rows":20,"columns":1,"weights":[0,0,0,0,0,0,0,0,0,0,0,0,0,0,0,0,0,0,0,0]},"outputMatrix":{"rows":20,"columns":21,"weights":[1.4805407524108887,-3.347622871398926,-1.236763834953308,0.3779852092266083,-0.7222523093223572,-1.075725793838501,-2.1897225379943848,0.13169065117835999,0.3975951373577118,0.060970738530159,1.0157822370529175,-0.19004909694194794,2.0559067726135254,-1.1314506530761719,-0.7180764675140381,1.5402638912200928,2.14117169380188,-2.9307210445404053,-1.2303897142410278,-0.8749421834945679,3.137260675430298,1.0062596797943115,-0.49139201641082764,-4.023387432098389,-1.8764147758483887,-1.2918715476989746,2.878735065460205,2.321727991104126,3.650493860244751,1.7375200986862183,-0.999234676361084,1.621406078338623,-0.7426061630249023,0.8451772928237915,-0.5457770824432373,1.2404242753982544,-1.9795923233032227,-1.725191354751587,-3.8233838081359863,-1.0458275079727173,2.966374397277832,1.0892448425292969,0.8671727776527405,-0.8048554062843323,3.22208571434021,0.10790721327066422,-1.6141263246536255,-0.5408438444137573,-3.1942789554595947,2.002312183380127,2.012655019760132,1.941093921661377,2.4041030406951904,-0.9500935077667236,2.885784387588501,-1.47157621383667,0.8383819460868835,0.6258156299591064,0.1514112502336502,-2.56404709815979,1.3012937307357788,-0.16463425755500793,-1.1722835302352905,-0.58099764585495,0.2278321236371994,-2.453299045562744,-1.7322057485580444,2.615145206451416,1.0753461122512817,0.726603090763092,1.6685514450073242,0.4546480178833008,-0.23896531760692596,4.203952789306641,2.050809383392334,0.3237118422985077,1.0816876888275146,2.357062578201294,-0.8846916556358337,-0.5833477973937988,-1.0017600059509277,-2.915513038635254,2.9001762866973877,1.3606523275375366,-1.0170928239822388,0.2820410132408142,1.0210518836975098,2.8308489322662354,2.1390841007232666,-2.796513795852661,-0.9465537667274475,-1.0381550788879395,0.08338285237550735,1.5574936866760254,2.0588481426239014,-0.9598485827445984,-2.203970193862915,2.592538595199585,0.028711490333080292,2.388740301132202,3.186793327331543,-2.0684261322021484,1.0109344720840454,3.090520143508911,-0.617313027381897,0.8801393508911133,0.03966926783323288,0.6805369853973389,-0.053274817764759064,-0.3373876214027405,-2.165682077407837,-3.770528793334961,-1.819413423538208,-0.8079413175582886,1.6833834648132324,1.3111952543258667,-1.6657484769821167,2.3677523136138916,-2.3316903114318848,2.1850712299346924,1.7099627256393433,0.5763793587684631,0.7817482352256775,-0.40470147132873535,-1.3714609146118164,1.6803983449935913,0.24614408612251282,0.48052942752838135,1.229666829109192,0.5007057785987854,-0.6856808662414551,-1.8026238679885864,3.558668375015259,0.3774504065513611,-0.16492769122123718,-5.442070960998535,3.558220148086548,0.9793298840522766,0.2850772440433502,-1.69502854347229,-4.302213668823242,-0.35829994082450867,1.9285982847213745,-2.150986909866333,0.9364684224128723,1.8646501302719116,-0.811676025390625,4.044229507446289,0.1985405832529068,1.4901317358016968,-1.9853036403656006,-2.627018928527832,-1.359108328819275,-2.4451277256011963,-1.456484079360962,-1.469440221786499,1.2584640979766846,1.205339789390564,-3.1756510734558105,1.9100004434585571,1.0677368640899658,-1.6029515266418457,0.6724739670753479,2.342219591140747,-1.8080164194107056,-0.3985109031200409,1.6688907146453857,1.3801897764205933,1.9532314538955688,-0.3738406300544739,-2.172593593597412,-0.3467080593109131,-0.633550226688385,5.481822490692139,2.5312602519989014,-0.2514288127422333,1.3761589527130127,-0.7291741371154785,1.5729891061782837,0.0641571432352066,0.7006894946098328,-0.6087707281112671,0.2572431266307831,-1.7292412519454956,1.413283348083496,-1.7282530069351196,-0.23498457670211792,2.8313512802124023,-0.34490150213241577,0.3234741985797882,3.1012539863586426,-0.3843534290790558,-0.9896877408027649,-0.43473973870277405,-1.073738694190979,0.4981342852115631,-0.16034436225891113,-0.5633935928344727,1.3674062490463257,-0.23573866486549377,-1.9063581228256226,3.8451108932495117,-1.0791095495224,2.0786197185516357,3.300947904586792,0.6986146569252014,-0.12791483104228973,-2.7865853309631348,0.8062495589256287,3.561173677444458,2.6755852699279785,2.3300015926361084,-0.3801339268684387,2.9238858222961426,-0.13480012118816376,0.2582486867904663,4.926112174987793,-0.6982753276824951,-1.0490238666534424,0.030705228447914124,-1.263277292251587,2.06862473487854,1.746081829071045,0.03103935346007347,-0.9658486247062683,2.5934574604034424,2.6656525135040283,1.4895607233047485,1.0525285005569458,-1.5735909938812256,-0.9977737069129944,-1.0446481704711914,-0.2752962112426758,-0.8860865831375122,1.865951418876648,0.584782063961029,1.156869888305664,0.017602790147066116,-2.359604597091675,0.29935458302497864,1.134537696838379,-1.024851679801941,-1.8109304904937744,-0.5793641209602356,-0.14620403945446014,2.1502490043640137,-1.2899740934371948,-2.5117406845092773,0.7568508982658386,0.4846658408641815,-0.4888540506362915,0.9723404049873352,1.5097646713256836,-0.6662493944168091,0.3492189049720764,1.5216645002365112,1.9106717109680176,-0.20663107931613922,0.9467014670372009,-3.8540213108062744,0.9233105778694153,0.30660659074783325,-2.5743846893310547,-0.15610186755657196,-0.460997074842453,1.7690476179122925,-1.675939679145813,-0.2936244308948517,2.543518543243408,0.8366696238517761,1.9932712316513062,-0.38194581866264343,-2.3746864795684814,-0.9976316690444946,4.114588260650635,-0.11211235076189041,0.4242441654205322,1.8567205667495728,2.587904930114746,4.403349876403809,-0.49967682361602783,0.8299269676208496,0.5361790657043457,-2.416388750076294,0.5637208819389343,-2.4979467391967773,-0.6290335059165955,-0.39392244815826416,-3.84840726852417,0.21228455007076263,0.3008270263671875,1.1519492864608765,0.9627071022987366,-2.224569082260132,-1.4320240020751953,0.5173865556716919,2.9540936946868896,0.6727514266967773,2.6672122478485107,2.833505392074585,0.6962215900421143,3.383352518081665,2.2252042293548584,1.734443187713623,0.2653064429759979,-1.065753698348999,-1.7616956233978271,0.4793061912059784,0.051491327583789825,-3.4698550701141357,-1.5583205223083496,0.8555985689163208,1.2402806282043457,-0.645128607749939,-2.362192153930664,0.4641065001487732,-1.101401686668396,-0.2723237872123718,1.2291187047958374,0.4164291024208069,2.7282750606536865,0.04025376960635185,-2.7013285160064697,4.145017147064209,0.8822934031486511,0.8705509901046753,0.6409851908683777,0.4009513556957245,-0.3212426006793976,-1.2455111742019653,-6.808900833129883,-0.2858870029449463,-2.942361831665039,0.722154438495636,-1.2326922416687012,0.3793489336967468,4.044408321380615,4.177920818328857,-0.34184345602989197,1.3893122673034668,-0.6866388916969299,1.6558483839035034,2.3032877445220947,-3.1652355194091797,-1.1606234312057495,0.21301023662090302,1.5568718910217285,0.35126352310180664,1.7000457048416138,-1.7229491472244263,-0.642828106880188,1.153685212135315,3.395437717437744,1.2558051347732544,0.7552739381790161,-0.7894123196601868,-0.6218954920768738,2.5663766860961914,3.641846179962158,1.3257253170013428,-0.49906495213508606,-0.8062827587127686,-0.5453826785087585,1.1282485723495483,0.9698793888092041,1.3305652141571045,-0.08298099040985107,-0.3485978841781616,-1.9308888912200928,2.54423189163208,1.5752073526382446,-2.4853856563568115,1.0394518375396729,-1.1613085269927979,-1.360396385192871,-1.8212347030639648,1.4527029991149902,0.792512834072113,1.2967466115951538,1.4502617120742798,2.3638744354248047,0.7150344848632812,1.732401967048645,3.2449991703033447,-0.6449310779571533,0.1371636688709259,1.309856653213501,0.0036245412193238735,4.0786356925964355,1.2778174877166748,0.0004841723130084574,-0.21779775619506836,-0.708723247051239,-3.1138055324554443,-1.0869569778442383,-0.8227220773696899,0.22319954633712769,0.9844027757644653,-0.6104289889335632,-4.459381580352783,-0.5476815104484558,1.9057066440582275,1.816672682762146,-0.4702703356742859,-1.1377633810043335,0.7460448741912842,-1.1402944326400757,0.39900311827659607,-1.096725583076477,-1.0405991077423096,-4.357412338256836,-1.5093488693237305,-0.22192689776420593,-2.757711410522461,-0.2518199384212494,-1.1035188436508179,-0.573577344417572,3.1998863220214844,-1.0129729509353638,-0.4649195075035095]},"outputHidden":{"rows":20,"columns":20,"weights":[3.5964863300323486,1.7493171691894531,1.366317629814148,1.7035353183746338,-1.617350459098816,-2.253847599029541,0.6318758726119995,-4.680957317352295,0.13603819906711578,0.46316465735435486,0.46696287393569946,-0.7599583864212036,-1.7325358390808105,1.8028630018234253,0.19061274826526642,-1.2956056594848633,-1.093209147453308,1.749887228012085,2.0600204467773438,-0.23124738037586212,-0.3567362129688263,-2.745142698287964,2.322227716445923,-0.47425514459609985,-3.039876937866211,5.18864631652832,2.1115975379943848,-2.9395322799682617,0.2720966339111328,3.6604573726654053,0.16843751072883606,-3.9397239685058594,-2.0625085830688477,0.31904223561286926,-0.16899603605270386,-0.20190125703811646,-3.25152587890625,-0.8941531181335449,0.2221759855747223,1.7852483987808228,3.5185117721557617,1.2039211988449097,1.8033168315887451,-2.86398983001709,-3.0499370098114014,-0.6073572635650635,-0.08422820270061493,0.3421062231063843,-1.6845921277999878,3.018162488937378,-3.184779644012451,-2.264646053314209,4.804413795471191,-4.369760990142822,-1.9077798128128052,-3.262075185775757,-0.12953901290893555,-0.1845669448375702,0.42702269554138184,-4.717367172241211,-3.949254274368286,-1.0594124794006348,1.9321516752243042,-3.8856475353240967,-0.5397621393203735,-2.1777074337005615,-0.768179178237915,0.2952558100223541,0.043158967047929764,-2.4732730388641357,-3.8753442764282227,-2.484647750854492,0.42762085795402527,2.9619967937469482,0.015088272280991077,-0.31814947724342346,-4.5298309326171875,0.47761061787605286,-1.1836285591125488,4.43272066116333,-0.6675572395324707,0.8887435793876648,-0.6195677518844604,-1.9610373973846436,0.061707064509391785,0.3641221225261688,-1.2266521453857422,0.474353164434433,-0.6366798281669617,1.5795613527297974,-1.2154637575149536,-0.14089038968086243,2.79667329788208,-1.4598338603973389,-1.8082433938980103,1.2493536472320557,-2.2278971672058105,0.5014088749885559,-0.8689906597137451,0.8585773706436157,4.807855129241943,-4.444334983825684,-0.9827057123184204,-1.621407151222229,-2.098227024078369,-4.902233600616455,1.3352551460266113,1.9008679389953613,3.3810014724731445,-0.4926230013370514,-3.0930352210998535,1.4307259321212769,1.277828574180603,-0.40463095903396606,0.39491569995880127,-0.0030769607983529568,2.188863515853882,-3.603093147277832,-2.833644390106201,1.7451152801513672,4.937856674194336,1.3308045864105225,0.9745027422904968,-2.865739583969116,1.7183328866958618,0.06497663259506226,-3.44529390335083,-3.214421033859253,-0.3284692168235779,-2.532822847366333,1.5513534545898438,-0.06379646807909012,1.127362847328186,-2.17598557472229,1.3932876586914062,1.6097112894058228,-3.711622953414917,1.4803200960159302,0.2034303843975067,-3.7537662982940674,-0.24694833159446716,2.420520067214966,-2.8943543434143066,-1.911597728729248,1.9792134761810303,-2.0852174758911133,1.9697673320770264,3.8844544887542725,0.5515471696853638,-2.822608709335327,-1.6200836896896362,0.7849228978157043,0.17499832808971405,0.1981617510318756,-3.1886074542999268,0.22815373539924622,0.743213415145874,2.137907028198242,-1.906385064125061,1.319826602935791,-0.36508041620254517,2.966432571411133,-2.0215349197387695,-0.09481740742921829,2.803151845932007,0.7049866318702698,2.809316396713257,-0.7093260288238525,-7.35884952545166,0.5615679025650024,2.397783041000366,0.6215057969093323,-3.9747228622436523,-0.49900272488594055,-0.6342304348945618,-3.5988378524780273,-0.06493942439556122,2.6006579399108887,1.1980153322219849,-6.24003791809082,1.6312251091003418,-1.191854476928711,3.7278225421905518,2.366506338119507,2.214372396469116,6.150311470031738,3.471912145614624,2.9296514987945557,-3.1069412231445312,1.4472209215164185,2.6441633701324463,-2.566716194152832,-2.242716073989868,-0.9321985840797424,-1.2985522747039795,-2.484065055847168,-2.845991611480713,-0.07833089679479599,1.0847737789154053,-3.5642266273498535,-1.2173315286636353,1.7871031761169434,1.7401113510131836,0.35414737462997437,-0.2504718005657196,2.6317474842071533,0.2443694770336151,-1.7560992240905762,2.560591459274292,-1.1148263216018677,-0.31573301553726196,-2.6549251079559326,0.06938810646533966,2.1583704948425293,1.912583589553833,0.5549827218055725,-1.1524094343185425,-1.3794875144958496,0.31714239716529846,3.584419012069702,0.9331459403038025,2.0939512252807617,6.0677947998046875,-1.6342353820800781,-0.4305553734302521,5.39201021194458,0.4980181157588959,-5.5764851570129395,-4.156315803527832,-0.3227466642856598,-1.1715563535690308,-5.660599231719971,-4.751008987426758,3.2185850143432617,-1.2602825164794922,0.7868431806564331,0.22761350870132446,5.962732791900635,0.7516667246818542,2.9028046131134033,2.5159196853637695,-3.1752233505249023,-1.9986928701400757,0.6026200652122498,0.6221638321876526,-1.9335129261016846,-2.171290874481201,-0.10097202658653259,1.5145251750946045,0.594423770904541,-1.9393428564071655,0.833233118057251,0.8117508292198181,-1.378029465675354,1.9585739374160767,2.6056339740753174,2.5948076248168945,-1.2932249307632446,-3.97413969039917,-0.42554542422294617,0.6877724528312683,-0.8683470487594604,-0.4620808959007263,-2.7830111980438232,0.021580956876277924,-0.3030056357383728,-1.2538106441497803,0.9663466215133667,-0.6787106394767761,-1.4006805419921875,-1.17742919921875,0.7531037330627441,-0.327338844537735,-1.580792784690857,-3.1579365730285645,-0.9391955137252808,1.0516093969345093,3.003143787384033,0.7523626685142517,0.7713876366615295,-6.200281620025635,1.0142309665679932,-1.152816653251648,-3.7371270656585693,-1.664292335510254,-1.198093056678772,-3.3330276012420654,-2.306217670440674,2.1353816986083984,-0.7340787053108215,-1.1203701496124268,-1.3303736448287964,0.06690160185098648,-2.0766499042510986,-0.14419592916965485,-0.569667398929596,-1.1054176092147827,0.6021990776062012,-0.5926253795623779,-1.2443238496780396,1.8070517778396606,-0.3585262596607208,0.739361047744751,-0.48200446367263794,0.44066891074180603,-1.8117828369140625,2.8219213485717773,-1.368489384651184,1.1011784076690674,1.6501812934875488,-0.992728054523468,-1.3939186334609985,-0.668527364730835,0.47022825479507446,1.3828116655349731,-1.1599359512329102,1.4182993173599243,-0.702011227607727,1.487106442451477,-2.4763073921203613,-3.073148488998413,-1.413927674293518,-0.4407893121242523,-2.6560630798339844,0.509007453918457,-1.4926118850708008,0.593463122844696,-1.3214191198349,1.1422810554504395,-1.7964850664138794,-1.5028996467590332,0.9295037984848022,3.4215171337127686,-0.8852068185806274,-3.4482243061065674,0.7498714923858643,2.3285539150238037,0.6547369360923767,-0.7587382793426514,0.5007688999176025,-2.32681941986084,-4.727087497711182,-0.23317579925060272,-2.778110980987549,-5.768747329711914,0.6131366491317749,0.7420998215675354,-2.9262192249298096,5.745710849761963,-0.4037761986255646,0.8464645147323608,0.986410915851593,3.3881068229675293,0.48360124230384827,-0.22758033871650696,-0.023099685087800026,-0.7330803275108337,-2.6240108013153076,-3.024036169052124,4.6028852462768555,0.4407398998737335,0.33336520195007324,0.28964531421661377,0.08591009676456451,-0.8516335487365723,-2.3712234497070312,-1.8862758874893188,-1.8260645866394043,-3.085343837738037,-0.9565759301185608,-1.7525871992111206,-1.8461370468139648,1.948810338973999,-0.9487557411193848,-1.5456583499908447,-3.5053234100341797,-1.3768821954727173,1.8466166257858276,0.929034411907196,-3.542335271835327,-1.4829851388931274,-0.7263056635856628,-0.95912766456604,-1.1292788982391357,-2.1392407417297363,-0.004789186641573906,-1.8553990125656128,0.7806676030158997,-1.1528443098068237,-2.8275954723358154,1.0360063314437866,-0.4168359935283661,2.2211995124816895,-0.684913694858551,-1.6250576972961426,-1.0995043516159058,-0.5201327800750732,-2.3617043495178223,0.8801292777061462,-0.26107653975486755]},"outputBias":{"rows":20,"columns":1,"weights":[-2.45219349861145,0.8310263156890869,0.21733827888965607,-0.6685982942581177,-0.5180981755256653,-0.6742522716522217,0.9483335018157959,-0.32718220353126526,0.4300752878189087,0.18872244656085968,1.0889683961868286,1.203660011291504,-0.21338921785354614,1.198190450668335,-0.9804285764694214,-0.10136885195970535,-1.5393539667129517,0.3931785225868225,0.4368039071559906,-0.5804533362388611]},"cellActivationMatrix":{"rows":20,"columns":21,"weights":[1.9578555822372437,2.387667655944824,0.23945073783397675,1.9486786127090454,-0.8829363584518433,1.5597656965255737,2.409463882446289,-0.6577171683311462,-0.652401328086853,-0.5195344686508179,-0.3811407685279846,0.5516009330749512,0.27713698148727417,-3.7976367473602295,1.9653533697128296,0.5292484760284424,0.9933218955993652,-0.1776001751422882,-0.7757650017738342,0.9974168539047241,0.5771752595901489,-0.4314703941345215,-0.042571086436510086,-0.38745906949043274,-2.2100892066955566,0.1319829374551773,0.41266244649887085,0.7911302447319031,-1.62790846824646,-0.6805074214935303,-0.00929191242903471,-1.7406424283981323,-1.052193284034729,-0.7261574864387512,1.8566932678222656,2.559154987335205,0.9843640923500061,-0.5565356016159058,0.7844012975692749,-0.4172423779964447,-1.4781159162521362,-1.6565138101577759,0.03427056223154068,-0.9008961319923401,-0.23327791690826416,1.4981356859207153,0.5268002152442932,0.13399623334407806,-0.18568365275859833,-2.168163776397705,3.421553134918213,-0.24792622029781342,-3.0201053619384766,-0.9622382521629333,-1.4106650352478027,-0.7295668721199036,-1.6728416681289673,-1.4836288690567017,-0.7129839062690735,-0.7408135533332825,2.852280855178833,-1.6573795080184937,-1.193635106086731,1.367519736289978,-1.5216257572174072,0.21805544197559357,-0.8207885026931763,1.1344102621078491,-1.534725546836853,0.48902249336242676,0.2719540297985077,-3.073111057281494,2.092470169067383,-2.1986889839172363,2.052683115005493,1.8218915462493896,-0.5587530732154846,0.768226146697998,2.448784828186035,0.35586121678352356,3.200122356414795,-2.9228405952453613,-1.7767759561538696,2.8505048751831055,-1.295932650566101,-0.5161969661712646,-0.7713057994842529,-0.9622998237609863,1.0657554864883423,0.2775452136993408,-1.4022365808486938,0.4252283573150635,1.1121371984481812,1.3666582107543945,0.045286912471055984,0.6184499263763428,-2.507627248764038,0.11525435000658035,0.7100920677185059,-1.4336203336715698,-2.19490909576416,1.543891191482544,-2.984081983566284,-0.09468331187963486,-0.44936877489089966,-1.1346687078475952,-0.8496583104133606,-1.2225648164749146,-1.2234336137771606,0.12357678264379501,1.2764158248901367,-1.3171485662460327,0.9180123805999756,1.2612239122390747,0.12833528220653534,-0.4047483503818512,2.208378791809082,0.18947483599185944,-0.6787662506103516,0.36461761593818665,-2.181952953338623,-3.722508192062378,0.1097080260515213,1.169889211654663,0.20877020061016083,-0.7571995258331299,1.7407535314559937,-1.6664321422576904,0.05443749204277992,0.9617692828178406,-0.7927847504615784,-2.9403481483459473,-1.0130044221878052,1.3910508155822754,-0.31502917408943176,-1.466275930404663,0.7433475852012634,0.13636763393878937,1.4442541599273682,-4.8390583992004395,-0.5222029089927673,1.729686975479126,0.3385830521583557,-1.3294107913970947,-0.4232705235481262,0.3980703055858612,1.3553296327590942,-1.4210567474365234,-0.5841243267059326,-0.517707347869873,-3.2279818058013916,-0.8170888423919678,-1.5453059673309326,-1.2563972473144531,1.2803678512573242,-1.0834652185440063,-0.10858269035816193,-0.0044454410672187805,-0.7652375102043152,-0.3956846296787262,1.0830662250518799,0.3258386254310608,1.710543155670166,0.4507175087928772,-0.09889107197523117,-1.4136205911636353,-0.2123856544494629,0.46982303261756897,-1.846493124961853,1.842939019203186,-2.5121583938598633,0.7890039086341858,1.1872655153274536,1.6733282804489136,-0.22128799557685852,2.0110599994659424,-0.31318390369415283,-0.8331092596054077,0.2343723028898239,0.6072895526885986,-1.6895203590393066,0.23841984570026398,0.1822187453508377,0.20383626222610474,-0.1180213987827301,1.1011685132980347,-0.5031789541244507,0.8150476813316345,0.5836068987846375,0.091189444065094,0.15583838522434235,0.0932464525103569,-1.4666775465011597,-0.591695249080658,0.38598138093948364,1.0507550239562988,-1.3023673295974731,-1.2525851726531982,2.5617716312408447,-2.2804036140441895,0.5211085081100464,-0.2942970395088196,0.38994964957237244,-0.6448682546615601,-0.4373311698436737,0.6750152707099915,3.031719923019409,1.146233081817627,-2.138925790786743,0.0893809124827385,-2.068647623062134,0.1823970377445221,-1.3015400171279907,-0.48514798283576965,-0.4197361469268799,-1.171212911605835,-1.0438079833984375,3.468539237976074,0.10013621300458908,0.5088446140289307,-1.9485324621200562,1.1147935390472412,-0.9682958126068115,-1.2513620853424072,1.1102772951126099,-0.19933941960334778,-4.361111640930176,1.2434831857681274,-0.2046353667974472,-0.15555277466773987,0.3780997395515442,-1.86079740524292,0.44371092319488525,-1.8834137916564941,-0.9592528343200684,0.6137030720710754,0.8811449408531189,0.9851230978965759,3.5094494819641113,0.26026687026023865,-2.025674343109131,1.3424454927444458,1.6595364809036255,-1.812477707862854,0.34405267238616943,0.12616610527038574,-0.11130739748477936,-1.5755090713500977,-0.707038164138794,-1.3859561681747437,1.7239705324172974,-0.6457698345184326,-2.3217384815216064,0.352338582277298,-0.18144717812538147,-0.11831555515527725,0.2973388731479645,-0.9264802932739258,-1.0881342887878418,-0.1147826611995697,0.35144302248954773,1.986791968345642,-1.082628607749939,-0.9338297843933105,-0.6076627373695374,2.0683605670928955,1.5100994110107422,1.1819087266921997,-0.8908703327178955,2.206162691116333,0.022200437262654305,-0.6727259159088135,0.4473499655723572,-0.052380431443452835,1.424490213394165,-2.229532480239868,0.6412082314491272,0.656098484992981,-0.054259564727544785,0.9966114163398743,0.13318850100040436,-1.0856341123580933,-0.6649715304374695,-1.31923508644104,0.8871948719024658,0.2585258483886719,0.28886476159095764,-0.05531727150082588,-0.4398221969604492,-0.7826684713363647,2.6120071411132812,-0.10202057659626007,-0.5119122266769409,0.9617538452148438,1.8434175252914429,0.9893910884857178,-1.6903808116912842,0.6397287845611572,2.4619598388671875,-1.4174137115478516,0.26134249567985535,-0.018225515261292458,-3.2368526458740234,-1.3280348777770996,1.2081668376922607,-0.6895993947982788,0.43810126185417175,1.624260425567627,0.8072735071182251,2.102442741394043,1.7601213455200195,-1.2019274234771729,0.14578072726726532,0.5267221927642822,0.43582358956336975,0.6981293559074402,0.5121992826461792,-2.220764636993408,-0.3566504418849945,0.24443098902702332,2.1440389156341553,-0.07779274135828018,1.566595196723938,-1.4528056383132935,0.3662843704223633,0.4197525084018707,1.3039627075195312,1.0704492330551147,-1.463477611541748,1.4780449867248535,0.6214239001274109,-0.14458386600017548,0.02088342048227787,-2.1889047622680664,1.604386329650879,1.8487240076065063,-0.1666383296251297,-0.06154146417975426,-1.8748630285263062,-2.5391297340393066,0.7037039995193481,0.49459418654441833,0.3389987051486969,1.4808335304260254,-0.021414747461676598,-3.4551455974578857,1.2574595212936401,-1.0103942155838013,-2.0223965644836426,1.6803065538406372,-1.0684814453125,1.4272668361663818,0.6158602237701416,-0.03044041246175766,-0.5824950933456421,0.6915661692619324,-0.19978991150856018,-0.26933467388153076,-1.8087681531906128,-0.07195329666137695,-0.6893196702003479,-1.4126254320144653,0.25956079363822937,1.3241106271743774,-1.7566914558410645,0.9374282956123352,2.0271403789520264,-0.8654277920722961,-1.2760592699050903,-0.8676304817199707,1.9542696475982666,0.7966885566711426,-1.5858309268951416,0.5100994110107422,2.0911142826080322,3.261688709259033,-1.7132396697998047,-1.8159828186035156,-0.4971524477005005,-3.192922353744507,-0.0487266480922699,-1.4673019647598267,1.1196162700653076,-1.152668833732605,-2.3190083503723145,-0.5751075148582458,1.2054675817489624,0.7969554662704468,-0.1263689547777176,-0.9421788454055786,-0.9031968712806702,0.18412898480892181,-0.42958205938339233,-0.9104326367378235,-2.0029826164245605,-0.15977033972740173,1.1661218404769897,-2.5837652683258057,0.4519987404346466,1.1983088254928589,0.47323623299598694,-1.6619861125946045,0.059359874576330185,1.5529370307922363,-0.944021463394165,0.4702346622943878,0.9458370208740234,-2.4792351722717285,0.8428431153297424,-0.8176364898681641,-0.3526756465435028,0.8653653860092163,0.9778815507888794,-0.9067211747169495,1.095130443572998,2.9819467067718506,1.2564786672592163,-1.3709510564804077,0.33388686180114746,1.3322252035140991]},"cellActivationHidden":{"rows":20,"columns":20,"weights":[-0.7852199673652649,1.3801020383834839,0.6283588409423828,-0.3899536728858948,-0.4306797385215759,0.24083729088306427,-1.5722914934158325,-0.700825035572052,0.5437952280044556,-0.14421330392360687,-0.45904549956321716,-1.4669967889785767,0.22085414826869965,-0.041142720729112625,0.7556354999542236,-0.40531501173973083,-0.9253326654434204,1.028032660484314,0.13107843697071075,-0.39670759439468384,-0.09972093254327774,0.5913986563682556,-4.352778911590576,-2.511781930923462,0.6839821934700012,-0.2556923031806946,-1.4572770595550537,0.6417328119277954,0.08216984570026398,0.690386950969696,-0.3829025626182556,0.1359035223722458,-0.48134803771972656,-2.0713114738464355,3.0418055057525635,0.636262834072113,1.3465849161148071,1.7371309995651245,-1.7789167165756226,0.21162976324558258,-0.5262890458106995,-0.17795588076114655,-0.4577632248401642,1.3138401508331299,1.2763601541519165,-0.33157265186309814,0.03497488796710968,0.02999309077858925,0.8327286839485168,-0.12219517678022385,2.3009140491485596,1.0090773105621338,0.7107175588607788,-0.09285786747932434,1.3054836988449097,1.4667893648147583,1.7230472564697266,-0.5016888976097107,-0.24231277406215668,-0.19439932703971863,-0.35505411028862,-0.2772893011569977,-0.03144434094429016,0.04596759378910065,0.22338303923606873,0.14104147255420685,0.471880704164505,1.2939389944076538,-0.47335416078567505,-0.9920970797538757,-1.990045189857483,-0.6855499148368835,-0.24812853336334229,-0.30090996623039246,-1.478312373161316,-0.5826376676559448,-0.2453547716140747,0.3246438801288605,-0.7265794277191162,-0.6307242512702942,-1.4353848695755005,-0.19036921858787537,-1.1292827129364014,0.9558160305023193,1.210193395614624,0.5657275319099426,-0.9359773397445679,1.219072699546814,2.41638445854187,0.4049524962902069,1.1280229091644287,-0.48089179396629333,-0.7512120008468628,-0.7340919375419617,0.22762514650821686,1.3044053316116333,0.9785182476043701,-0.09720828384160995,-0.2727642357349396,1.2918591499328613,0.6673060655593872,2.5683746337890625,-0.6011011004447937,-0.12056185305118561,1.6879993677139282,1.259595513343811,-0.23736540973186493,-1.1705551147460938,-0.8277124166488647,0.36457985639572144,1.2353330850601196,1.0805147886276245,-1.9224529266357422,1.3567533493041992,-1.1415351629257202,1.1057379245758057,-1.6388026475906372,0.5978211760520935,-0.6427772641181946,1.2785040140151978,0.5614280104637146,5.294175624847412,0.6719352006912231,2.3037238121032715,1.117834210395813,0.48441100120544434,-3.0929107666015625,-1.9094491004943848,-1.9929113388061523,-1.5362797975540161,1.5611069202423096,-0.12493935972452164,2.6166720390319824,2.9354491233825684,1.2099719047546387,1.0437424182891846,-1.1447324752807617,2.3087449073791504,-1.6515061855316162,-2.5063092708587646,-0.2133580446243286,-1.251220464706421,-0.20589250326156616,-2.003589630126953,-1.1069138050079346,-0.7226424217224121,0.7101803421974182,-0.814659595489502,-0.3843073546886444,1.392397165298462,-1.3599401712417603,-0.639315664768219,0.001128035713918507,2.1014792919158936,-0.5789957046508789,-0.5914025902748108,0.6057490110397339,-0.21549375355243683,1.3964426517486572,-0.9359619617462158,0.18938562273979187,0.6268324851989746,1.2103219032287598,1.1997967958450317,1.880723476409912,0.3946819603443146,0.35329630970954895,-0.21386677026748657,-0.9429981112480164,1.1045644283294678,0.5588204264640808,0.7028220295906067,-0.5630927085876465,1.3733861446380615,-1.0095715522766113,-0.6013500094413757,-0.1527509093284607,0.5852558016777039,1.5139203071594238,1.9679280519485474,-0.44493457674980164,0.11063632369041443,-0.6789916753768921,1.0401227474212646,-0.09876284003257751,1.6565704345703125,-1.645901083946228,0.7091712355613708,-0.8574076294898987,0.3219310939311981,1.6541212797164917,1.926268219947815,0.2764921188354492,0.6254684925079346,-1.4694743156433105,1.1092451810836792,1.6922968626022339,0.9584083557128906,-2.10630464553833,4.225428581237793,-2.9452924728393555,0.21917842328548431,1.0807385444641113,1.0642402172088623,1.5473371744155884,-0.8184306621551514,0.556218683719635,-1.181186556816101,-1.0420987606048584,-0.7617578506469727,-1.0011221170425415,-0.4022861123085022,-2.6067380905151367,0.530418336391449,-0.6652104258537292,-0.771134614944458,-0.6619462966918945,0.12995217740535736,1.2684438228607178,-1.9315712451934814,1.080694556236267,0.23026800155639648,-1.691141963005066,-0.059751857072114944,0.46046924591064453,-1.0716333389282227,-1.2758675813674927,-1.6411519050598145,-0.21645455062389374,-0.8537338376045227,1.4232304096221924,1.3124958276748657,-1.2128159999847412,0.9389029145240784,0.36490896344184875,1.4467405080795288,2.02140736579895,0.3432547450065613,-0.33346322178840637,0.0110616534948349,0.753023624420166,-1.3630112409591675,-2.491960287094116,-3.146869659423828,1.0559996366500854,1.2335134744644165,1.351007103919983,3.533510446548462,2.279360771179199,-0.9826335906982422,-0.4944385886192322,1.0117766857147217,-2.0242972373962402,-1.7328529357910156,-0.19754846394062042,-1.258052110671997,1.6111959218978882,0.043595090508461,-2.5966310501098633,2.1777918338775635,0.037957578897476196,1.216413974761963,0.13791091740131378,1.068880319595337,-0.35163843631744385,-1.560512661933899,-1.1044648885726929,-0.61964350938797,-1.3294094800949097,-2.6030545234680176,-1.7684996128082275,0.13115310668945312,-0.9158635139465332,-1.2851566076278687,0.7435382008552551,0.513176441192627,0.8033026456832886,0.9736663699150085,-0.319487601518631,-0.10529431700706482,0.7451372146606445,0.5443463325500488,0.9976620674133301,-1.1852630376815796,-0.3979444205760956,0.1171431615948677,0.8539573550224304,-1.3916023969650269,-2.1121292114257812,0.9487494826316833,-0.8985080122947693,-1.7590583562850952,-0.5951789021492004,-0.9885704517364502,1.525040626525879,-1.4491288661956787,-2.9892795085906982,-0.6230649352073669,0.23898044228553772,1.1815513372421265,-0.14382857084274292,-0.8843481540679932,1.1053781509399414,0.8478811383247375,0.9431625604629517,0.7667807936668396,-0.317105233669281,-1.4755655527114868,-0.47828999161720276,0.5596466064453125,0.562624990940094,-0.613375186920166,-1.9092354774475098,0.9356986284255981,-0.5951881408691406,-0.5668247938156128,-0.4491575062274933,-0.2435530573129654,-1.0486290454864502,1.6741491556167603,-2.883739948272705,-0.09234854578971863,0.11394193768501282,-1.1382278203964233,0.9026906490325928,0.36139845848083496,-2.5990021228790283,-0.30755186080932617,0.2573884427547455,0.9288864135742188,-1.9780293703079224,0.7785630226135254,-2.033522605895996,-3.437290906906128,-4.442283630371094,-1.950710415840149,-2.161160469055176,-0.48136791586875916,2.9986538887023926,-0.6026663780212402,0.22535713016986847,1.7752846479415894,-0.10086701810359955,-0.2400735318660736,0.11865155398845673,-0.16519688069820404,0.9191673398017883,0.7164979577064514,0.19173286855220795,1.0024381875991821,0.9842180013656616,0.8876132369041443,1.0828468799591064,-1.498436689376831,-1.2961283922195435,0.8428024649620056,-0.34155023097991943,-0.3156352639198303,0.9696680903434753,0.7622540593147278,0.5791073441505432,-0.5752254724502563,0.8465895652770996,-0.44259828329086304,0.19590498507022858,1.641171932220459,-0.9234050512313843,0.44850030541419983,-0.16488365828990936,1.6337089538574219,-1.2302143573760986,-1.0586427450180054,1.3344136476516724,-0.6470493674278259,-1.9509869813919067,-0.7578436732292175,-0.8612181544303894,-1.3005385398864746,1.604866623878479,0.5412120819091797,-0.3480393588542938,-1.1801269054412842,0.08681105077266693,-0.08226290345191956,-0.8943229913711548,-0.3463877737522125,0.030223563313484192,-1.9504364728927612,-1.2361363172531128,-1.411413550376892,-2.644608736038208,0.29039162397384644,-0.519098162651062,3.2171454429626465,-1.0521891117095947,2.500358819961548,-0.8456606268882751,1.096205711364746,-0.2246803194284439,0.08098970353603363]},"cellActivationBias":{"rows":20,"columns":1,"weights":[-0.5253130197525024,-0.22279475629329681,-1.2259160280227661,0.5293225049972534,-0.7191147804260254,-0.9306172728538513,0.22553807497024536,-0.3672114908695221,-0.06765466183423996,-0.7411520481109619,-0.26846620440483093,-1.0492898225784302,0.40206050872802734,0.18175742030143738,-0.07486177235841751,-0.09850436449050903,-0.47375553846359253,0.06338445097208023,-0.6839008927345276,0.674684464931488]}},{"inputMatrix":{"rows":20,"columns":20,"weights":[2.3968043327331543,4.332507133483887,-0.044053394347429276,-1.55393385887146,0.3012823462486267,0.3769546449184418,0.8033132553100586,0.9364544153213501,1.508931040763855,1.8167535066604614,3.715923547744751,1.8054977655410767,2.537707567214966,-1.9384028911590576,3.2149035930633545,5.399084568023682,-2.522989273071289,2.927269220352173,0.321638822555542,0.7547001838684082,2.349575996398926,2.1816375255584717,-2.1173923015594482,0.35323503613471985,-2.529672384262085,-1.7713875770568848,-3.191891670227051,-3.040562391281128,2.390415906906128,4.314740180969238,0.11313016712665558,-3.9915030002593994,3.1029207706451416,2.7654523849487305,-1.1253868341445923,-0.18372489511966705,-1.483371376991272,7.035523891448975,0.18384894728660583,3.6451892852783203,-2.1975257396698,-1.5505861043930054,4.70996618270874,7.372866630554199,0.29838651418685913,-0.37621790170669556,-0.839245080947876,-1.4251344203948975,-4.187843322753906,1.646378755569458,0.41861584782600403,-3.4730629920959473,1.0837204456329346,0.29438596963882446,-2.3210034370422363,-4.92702579498291,-5.884056091308594,1.7716342210769653,9.998851776123047,-3.56842041015625,1.2421619892120361,-2.5250704288482666,-0.19136662781238556,-6.444123268127441,0.02194887399673462,-0.9240279197692871,-0.8473729491233826,0.9903619289398193,1.6099445819854736,5.033679485321045,-4.718813419342041,2.4659321308135986,-0.051748864352703094,-0.5003321766853333,0.3337796926498413,4.835649490356445,1.3789483308792114,1.6937731504440308,-1.8138935565948486,5.3958210945129395,2.216585636138916,-2.203242063522339,0.3229590356349945,-1.0813735723495483,-2.0753557682037354,-2.225202798843384,-0.1655496507883072,1.7553459405899048,-0.6542327404022217,-1.61354398727417,-1.755037546157837,0.5777255892753601,-1.5568190813064575,-0.4552608132362366,1.6372560262680054,0.23647785186767578,-0.053379952907562256,-2.336895704269409,0.5488121509552002,-6.355635643005371,-3.8709561824798584,-0.48756274580955505,4.906237602233887,2.143399715423584,0.7897340059280396,0.646075427532196,0.3586914837360382,-2.1376092433929443,0.3783557713031769,-1.0456773042678833,2.6011528968811035,-3.3354053497314453,-0.6099188327789307,2.5426456928253174,1.3264753818511963,-1.754928708076477,-1.968784213066101,-1.71932053565979,4.311465740203857,-2.898035764694214,2.365278959274292,2.2774484157562256,-0.679603099822998,1.7753454446792603,-0.5624727010726929,-2.125361919403076,-7.212118148803711,-11.238326072692871,-0.34941717982292175,-1.7638753652572632,5.288316249847412,2.4081382751464844,2.2701568603515625,-1.8539928197860718,-1.7125341892242432,-2.678004264831543,0.35013264417648315,3.5835249423980713,1.4489476680755615,-2.7178938388824463,-1.144699215888977,3.8002774715423584,-0.48657041788101196,4.903636455535889,-1.4563044309616089,3.6513633728027344,2.8819591999053955,-1.2288590669631958,1.298337697982788,0.9551121592521667,-0.013765799812972546,-1.245650053024292,3.8030078411102295,1.9492379426956177,-0.24708521366119385,3.645800828933716,-1.187084436416626,-1.4537094831466675,0.08421946316957474,1.875859022140503,-1.6472026109695435,-0.19363369047641754,-0.9510704874992371,-2.881098985671997,-2.6882259845733643,0.3406311571598053,-0.9178962111473083,1.1222336292266846,2.9731497764587402,1.9931609630584717,6.042770862579346,-0.0097876638174057,4.149500846862793,-1.1616421937942505,1.664931058883667,0.4950374364852905,0.908608078956604,-2.2994375228881836,-0.117435984313488,-0.9861360788345337,1.0507581233978271,-0.9740085005760193,-5.77345085144043,2.4336094856262207,3.712407350540161,8.111865997314453,-4.710325717926025,3.1714258193969727,2.197159767150879,-1.566718578338623,0.8366594314575195,4.614950180053711,3.395984172821045,5.634625434875488,0.992657482624054,1.5018723011016846,1.4037221670150757,0.7719520330429077,-0.5730559229850769,1.2870641946792603,-0.1085500419139862,-0.8468334078788757,4.343207359313965,-0.040097061544656754,3.247042179107666,1.6970409154891968,3.3114538192749023,-0.8219114542007446,0.3359701931476593,1.980642318725586,1.1450259685516357,3.1554601192474365,1.2306991815567017,1.700749158859253,2.607513189315796,-1.6206789016723633,-2.579075336456299,-2.1850833892822266,-0.5619347095489502,1.3397589921951294,-0.32879209518432617,-4.640911102294922,2.4494898319244385,-3.550076961517334,0.5271298289299011,-2.4105467796325684,2.4533183574676514,-3.0194828510284424,-1.5027257204055786,-2.1563262939453125,-2.4019696712493896,-4.645337104797363,-3.819000005722046,1.943819522857666,-5.326175212860107,0.09553328156471252,0.9889848828315735,-0.07275745272636414,-1.8322908878326416,1.0651535987854004,-4.20982551574707,1.819617509841919,2.861638069152832,1.4625179767608643,3.548508405685425,-0.5617060661315918,2.2313852310180664,-4.781149864196777,2.6188297271728516,-1.2564207315444946,3.464534044265747,-0.3580823242664337,1.934633493423462,0.39073559641838074,0.11095665395259857,-5.011258125305176,-0.25901171565055847,1.6716985702514648,4.920819282531738,-1.290963053703308,1.491694450378418,2.5537781715393066,-0.01551365852355957,-0.2382427155971527,-1.6298426389694214,-6.645717144012451,-4.15900993347168,-0.18545784056186676,1.6240860223770142,0.48259493708610535,-1.019256353378296,0.09219998121261597,1.4915562868118286,-2.597987413406372,-1.8242477178573608,-2.641510009765625,1.2950729131698608,1.47488272190094,1.0435138940811157,-5.945174694061279,2.3366308212280273,-5.764675140380859,-2.16125226020813,-2.0623695850372314,-0.4697456955909729,1.7516391277313232,-0.7406924962997437,0.36307358741760254,-1.3492650985717773,0.7472596764564514,-2.3354315757751465,-2.5491414070129395,0.5647103190422058,-1.3762410879135132,2.3033695220947266,1.0240223407745361,-2.192312717437744,-3.2219340801239014,-1.0358059406280518,3.910714626312256,2.2422597408294678,-2.063020706176758,0.5739996433258057,-0.4684418737888336,-1.1854889392852783,2.038381814956665,0.6291694045066833,-2.072385549545288,-0.5170193314552307,0.40479347109794617,-1.6286779642105103,-1.2870820760726929,-0.17205949127674103,-4.329672813415527,-5.372833728790283,-3.1857056617736816,-0.10289020091295242,1.164687156677246,0.08729717135429382,-3.5804646015167236,-1.8004618883132935,-1.2079240083694458,-3.1652870178222656,-2.209383964538574,-2.888495683670044,0.09422863274812698,3.9391896724700928,2.458645820617676,3.5528080463409424,3.307218313217163,1.808198094367981,0.7826990485191345,10.378124237060547,0.9060260057449341,-3.1047310829162598,1.951145887374878,2.6484456062316895,1.1677433252334595,-3.6919167041778564,0.391911119222641,-1.2254223823547363,3.6784768104553223,-2.3169212341308594,1.4841341972351074,-5.608577251434326,0.4557347893714905,0.9281312227249146,1.0890085697174072,2.5387794971466064,-1.6060471534729004,-2.1952929496765137,2.5409488677978516,1.1215912103652954,-1.0033705234527588,-0.5393324494361877,1.1671483516693115,1.7362161874771118,5.5544328689575195,-0.09696386754512787,1.3388283252716064,5.415491104125977,-4.036864757537842,1.4331307411193848,-1.8829001188278198,-2.166886568069458,-2.365670680999756,4.800965785980225,-2.3274993896484375,-1.1732521057128906,-5.848512172698975,0.13610367476940155,2.1356658935546875,-1.7910006046295166,5.491754055023193,2.0191166400909424,2.4340102672576904,-2.317744255065918,0.5258610248565674,2.9424350261688232,0.06143154576420784,-0.2748706340789795,-2.2994558811187744,-0.2786267101764679,-0.6347663402557373,-2.4273838996887207,-1.8960648775100708,-0.9369261860847473,3.3968756198883057,0.7128783464431763,-0.3213447034358978,-0.5509614944458008,3.62984561920166,0.8534886837005615,0.5986799597740173,2.171720266342163,0.3532905876636505,3.0950260162353516,-0.8345308303833008,-3.9724514484405518,0.21029895544052124]},"inputHidden":{"rows":20,"columns":20,"weights":[-1.997563362121582,-0.761994481086731,1.1162301301956177,0.8367570042610168,2.0596301555633545,2.543790578842163,2.1076107025146484,-0.9091513156890869,0.9717759490013123,3.602492570877075,1.513340711593628,2.265793800354004,-0.3568265736103058,1.1435045003890991,1.1101237535476685,2.2672390937805176,5.219330787658691,-9.86113452911377,0.32966727018356323,-1.2502635717391968,-1.729241967201233,3.021749258041382,-0.13402949273586273,1.1917697191238403,2.965346336364746,2.432915687561035,-2.746263265609741,-2.8144168853759766,-1.0135234594345093,-2.87266206741333,-1.6015201807022095,8.115894317626953,-0.19047121703624725,0.2201155722141266,1.4429248571395874,3.3909075260162354,-2.2817890644073486,-6.573718070983887,-1.523333191871643,1.2942224740982056,-1.323960542678833,0.3151722252368927,2.266853094100952,7.667913913726807,-2.9745304584503174,0.12342571467161179,2.2592058181762695,-0.7374081015586853,2.6786630153656006,4.323016166687012,1.908501148223877,0.9834743738174438,-1.4600437879562378,-1.2938393354415894,-3.0904314517974854,0.8892735838890076,0.7089128494262695,1.943817138671875,0.48061513900756836,-3.668024778366089,-5.4697794914245605,1.0731229782104492,5.739821910858154,-2.7975895404815674,1.9930710792541504,-3.057284355163574,2.5585312843322754,-2.0113089084625244,0.3765042722225189,-1.841296911239624,0.8074356913566589,-0.1747080385684967,4.262366771697998,2.3150508403778076,2.519118309020996,0.12047708034515381,-2.2323100566864014,2.48549222946167,-8.112958908081055,6.946566104888916,0.27009713649749756,-2.367351531982422,-3.3142776489257812,-3.4214184284210205,1.8966585397720337,4.227543830871582,1.8932695388793945,2.7648184299468994,5.511804103851318,-2.843439817428589,-2.3773231506347656,1.3502029180526733,-4.887835502624512,-1.1034917831420898,-1.066475749015808,0.8558623194694519,2.1144237518310547,-7.693779468536377,0.3301793336868286,1.5101701021194458,-4.272782325744629,0.3806140124797821,1.2460957765579224,-3.9211835861206055,-4.728703498840332,0.5774694681167603,-3.3645498752593994,4.566980361938477,2.0275888442993164,-3.812795639038086,3.1852262020111084,-0.8980465531349182,3.9617769718170166,0.2053847759962082,-1.2043417692184448,-0.09636915475130081,0.6068747639656067,1.5718257427215576,-3.0590388774871826,0.4021303653717041,0.022554446011781693,1.129838228225708,0.7997093200683594,3.792466640472412,1.3067805767059326,7.329418182373047,-4.570485591888428,1.7474404573440552,-1.8729846477508545,-1.0563175678253174,1.9025778770446777,2.2309000492095947,2.305572271347046,3.26899790763855,-3.9061050415039062,0.3797180950641632,0.500254213809967,-1.708543062210083,-3.5805139541625977,0.1913643479347229,-3.2888686656951904,-0.6240324378013611,7.383651256561279,-2.5373306274414062,-2.7866644859313965,-1.5849955081939697,-4.322591781616211,-2.1641509532928467,0.5602632761001587,-0.9971054792404175,-6.798739910125732,4.262502670288086,-3.040860891342163,3.0159196853637695,4.1446967124938965,1.8122148513793945,1.5660936832427979,-1.1413058042526245,-3.6606905460357666,-1.3848118782043457,5.209547519683838,-0.22980132699012756,4.249293327331543,5.3575639724731445,3.1004302501678467,-1.1397367715835571,-2.1794745922088623,1.0317381620407104,-3.3574609756469727,6.604452610015869,2.78755259513855,1.4925518035888672,4.4491424560546875,4.066848278045654,-2.615297794342041,1.4795503616333008,4.75955867767334,0.3380429148674011,-3.150918960571289,2.3657376766204834,2.0419259071350098,-2.419318675994873,0.3195412755012512,-2.718604803085327,2.5158796310424805,6.063859939575195,4.582080841064453,-1.2228906154632568,3.6248326301574707,-3.354414939880371,-0.41593408584594727,5.218759536743164,-1.7355084419250488,-4.005873680114746,3.600196361541748,0.35633882880210876,2.7092196941375732,-6.171028137207031,0.3205670714378357,-6.4868950843811035,-5.610588073730469,5.227975845336914,1.0304384231567383,1.6430870294570923,-3.736079216003418,-5.541701793670654,3.081500768661499,3.0666592121124268,-2.3354220390319824,-0.6141442060470581,-1.286469578742981,-0.7038062810897827,-4.103397369384766,-8.305710792541504,1.060160517692566,6.324779510498047,-0.05608974024653435,-0.7782810926437378,-2.3635668754577637,1.1939533948898315,-3.5256149768829346,4.2400078773498535,-2.358579635620117,3.220425844192505,2.4534454345703125,-7.607223033905029,0.8070771098136902,-2.127213716506958,0.5177039504051208,-5.774833679199219,4.037341117858887,-5.742551803588867,-1.676737666130066,-1.8541676998138428,-3.2850341796875,-1.0659099817276,-4.494471073150635,0.2289319634437561,-0.2830021381378174,2.813190460205078,2.60337233543396,4.560556411743164,-2.7498767375946045,1.98296058177948,-3.7548820972442627,-1.1794251203536987,1.588366985321045,1.0332945585250854,2.1700618267059326,0.2637580335140228,-3.9292054176330566,-0.4681580662727356,-4.111558437347412,0.28845295310020447,-1.1073930263519287,-6.096084117889404,-1.6932934522628784,3.9145381450653076,0.3347250819206238,-0.19733001291751862,-2.192319393157959,-0.6414779424667358,-3.6426846981048584,0.5532612800598145,1.3058106899261475,0.48992088437080383,6.1778035163879395,0.42307597398757935,1.668566346168518,3.0535645484924316,-6.539242744445801,2.3273322582244873,2.293166399002075,-6.599243640899658,4.448268413543701,-2.932368278503418,4.259696006774902,3.0848238468170166,1.6008641719818115,-1.8649983406066895,2.592864990234375,2.746293544769287,2.0509068965911865,-1.8359968662261963,1.1405785083770752,4.275999069213867,3.019589900970459,-0.9371803402900696,-1.9201295375823975,1.7389087677001953,-1.2734942436218262,-2.6762495040893555,-3.5173518657684326,-0.8315718173980713,6.377330780029297,1.1724803447723389,-0.2809511423110962,1.407952070236206,-3.728163957595825,4.297046184539795,-0.19107984006404877,-2.196312427520752,0.10110683739185333,-1.607317328453064,-7.880646705627441,1.5460397005081177,1.7202210426330566,0.6052436232566833,3.7820587158203125,-0.2622423768043518,-0.023126183077692986,1.9201922416687012,3.770390033721924,0.4522663354873657,5.5053558349609375,-2.137817859649658,-0.9027292728424072,2.0884692668914795,-2.880841016769409,3.57712984085083,-0.3284235894680023,-2.010816812515259,-2.062342405319214,-2.221165418624878,-1.9034380912780762,3.428509473800659,-1.2080150842666626,-1.5860470533370972,5.5803704261779785,-3.932555675506592,2.6322450637817383,2.6828033924102783,2.8318393230438232,-2.582939863204956,1.8397932052612305,2.4966063499450684,1.1025816202163696,1.1628488302230835,6.496138095855713,-0.5418681502342224,-2.041609525680542,4.750999450683594,-1.0689352750778198,3.2290616035461426,0.22185663878917694,3.4202466011047363,-6.919571876525879,1.8067148923873901,2.5907957553863525,-6.350996971130371,2.5148496627807617,-1.967510461807251,-1.1332699060440063,1.7190762758255005,-1.0640000104904175,4.615698337554932,1.7763265371322632,-1.730500340461731,0.17991074919700623,-1.0255651473999023,4.127828598022461,0.7802882194519043,3.1584856510162354,0.058793239295482635,-2.7835371494293213,2.4263179302215576,-2.235538959503174,-2.801578998565674,-0.054672036319971085,4.196684837341309,-5.282522201538086,4.947261810302734,-1.047139048576355,3.9249863624572754,2.6475391387939453,0.16202029585838318,-0.4647943377494812,-1.8167744874954224,-2.4138429164886475,1.5705044269561768,1.873173713684082,-1.722664475440979,-1.9936050176620483,-0.5126317739486694,-1.9908254146575928,-4.248408794403076,5.111672878265381,2.2226243019104004,-5.966105937957764,-4.381179332733154,1.1932358741760254,0.4679044187068939,2.1077070236206055,-0.07969792187213898,-3.4863312244415283,-2.6418843269348145,-1.7224645614624023,7.776127815246582,-4.661799430847168,0.706290066242218]},"inputBias":{"rows":20,"columns":1,"weights":[-7.628322601318359,-1.35736083984375,-3.560607433319092,-1.5537841320037842,-3.5757763385772705,0.5503467321395874,-1.371633768081665,-5.917486667633057,-3.432713508605957,-10.784531593322754,-4.090089797973633,2.7337920665740967,-3.662224531173706,-3.2257373332977295,-2.525702953338623,0.2990964651107788,2.5436720848083496,-0.36608755588531494,-10.112525939941406,4.504876613616943]},"forgetMatrix":{"rows":20,"columns":20,"weights":[-5.26962423324585,-3.9812519550323486,3.2796270847320557,-1.271867275238037,0.440203458070755,-1.1453250646591187,-1.8424720764160156,-1.3939082622528076,-3.578425645828247,-2.987804412841797,-0.30293604731559753,-4.6137261390686035,-0.7871121764183044,2.2716140747070312,2.0037338733673096,-3.2603888511657715,-3.8367905616760254,-0.118962362408638,4.023824691772461,-5.278204917907715,-4.581933975219727,7.469933032989502,-2.7842977046966553,3.1374568939208984,2.50093936920166,2.87442946434021,1.1870408058166504,-2.1231510639190674,6.676924228668213,-2.826082229614258,-0.4503592848777771,5.666574478149414,-4.377900123596191,-0.6929087042808533,0.2969520688056946,4.385023593902588,0.2321561723947525,1.3956748247146606,2.3967275619506836,1.169060230255127,-1.3350555896759033,-1.3771860599517822,0.9509938955307007,1.6642818450927734,-3.9161036014556885,-0.022496886551380157,1.3873919248580933,1.6994167566299438,0.297103613615036,0.6444876790046692,-1.6557435989379883,1.8994529247283936,0.07822149991989136,0.5711500644683838,-1.2120078802108765,4.752522945404053,0.32643425464630127,-0.3532051146030426,-0.26145172119140625,2.0504961013793945,0.9006176590919495,-1.1497807502746582,1.7691144943237305,0.2001701444387436,1.0068222284317017,0.13560396432876587,-0.984307587146759,0.1322515904903412,2.088587999343872,-1.633398413658142,0.0857071653008461,3.245387554168701,5.954104900360107,0.6472786664962769,0.08686522394418716,-0.3690420091152191,-2.6225082874298096,0.5499240756034851,2.5937654972076416,-3.1336848735809326,-3.4817659854888916,0.6224116683006287,-2.2921202182769775,-1.9465562105178833,1.1527793407440186,-3.3668689727783203,2.4238853454589844,0.5449128746986389,2.0208358764648438,-0.8330260515213013,3.240400791168213,4.261211395263672,1.9121081829071045,0.39670443534851074,-0.03636021167039871,-0.8387859463691711,1.89744234085083,4.120071887969971,-3.420243978500366,-0.008092394098639488,1.7189165353775024,0.6959980726242065,-4.346255779266357,-1.6084496974945068,2.194370985031128,3.4453139305114746,-1.080779790878296,-1.534583330154419,0.3003508746623993,-0.6783906817436218,3.218562126159668,-1.7665154933929443,-0.06821276247501373,0.20856626331806183,4.5568108558654785,0.781684160232544,1.817455530166626,-0.583739697933197,0.9697064161300659,-0.3511187434196472,1.272456169128418,-1.8174673318862915,0.8552322387695312,1.154342770576477,-1.875449538230896,2.0371711254119873,-3.3521392345428467,2.2247140407562256,-1.8852216005325317,0.2490493357181549,1.535911202430725,-3.923321485519409,-1.1292814016342163,-2.3510782718658447,-6.557183265686035,-0.9058176875114441,-2.544569492340088,2.496753454208374,1.3197468519210815,1.126830816268921,-3.715451240539551,-0.08113087713718414,-3.3040874004364014,-0.11429550498723984,6.512585163116455,2.8501343727111816,0.0068850587122142315,2.9923765659332275,1.7280431985855103,-1.7852694988250732,2.5210208892822266,4.347780704498291,-2.360898971557617,-1.5206066370010376,1.9817614555358887,0.11666515469551086,3.600487232208252,-3.5282132625579834,0.5027163624763489,-0.8266536593437195,-4.459665298461914,4.04318904876709,-3.3964312076568604,3.431121826171875,1.707339882850647,2.971132516860962,0.4069090485572815,-1.6072415113449097,1.8948487043380737,-0.26921993494033813,1.474381685256958,0.9902162551879883,-0.051027487963438034,4.952517032623291,-1.2557458877563477,-0.4433465600013733,2.09125018119812,1.62674081325531,2.487778425216675,0.03175148740410805,1.133340835571289,-1.3987282514572144,-1.3277605772018433,1.4347171783447266,-5.813871383666992,-0.9410248398780823,-1.4604052305221558,1.1789990663528442,2.449164390563965,-0.6377221345901489,-0.731820285320282,-1.1016701459884644,-0.29061320424079895,4.585748672485352,-3.3460474014282227,-1.335321307182312,2.321190357208252,1.2117798328399658,-0.081327885389328,2.298184394836426,0.7928270697593689,-0.6337227821350098,0.8212980628013611,-2.834290027618408,3.1810293197631836,4.770354270935059,-2.8890016078948975,-4.246265411376953,-2.549647331237793,0.8518874049186707,2.100492000579834,0.7137143015861511,1.1023105382919312,0.5822665691375732,-1.9047603607177734,3.1989009380340576,3.5383589267730713,-2.634563684463501,-1.9291185140609741,0.7720107436180115,4.592437744140625,-0.4660964608192444,0.792168140411377,2.375840187072754,1.8629261255264282,-3.6622302532196045,-2.4046335220336914,-3.059340000152588,-1.6359504461288452,-1.3905880451202393,-5.410955905914307,-3.655717372894287,1.2392585277557373,-1.9424893856048584,0.5420512557029724,-1.422441005706787,-4.065627098083496,7.835509777069092,2.8379557132720947,0.15510612726211548,-1.3375028371810913,-0.4393433630466461,1.1455756425857544,4.438648223876953,1.546217918395996,4.611356735229492,0.7525473833084106,-2.6629505157470703,0.2209220975637436,-0.5866296887397766,4.18182897567749,-0.15813031792640686,-2.10965633392334,0.23126201331615448,-2.2515594959259033,0.8644513487815857,0.027014903724193573,1.6726303100585938,-0.3736189603805542,-1.981250286102295,-0.47545504570007324,-0.5519863963127136,1.5755057334899902,2.569701910018921,0.6811696290969849,-1.3653994798660278,-4.490846633911133,1.6816635131835938,0.4880937337875366,-3.815857172012329,-4.2966132164001465,0.767744779586792,0.5456910729408264,-0.621783435344696,-3.785083532333374,-1.7636685371398926,-2.037635564804077,1.5195776224136353,2.3227999210357666,-1.8288427591323853,-2.29402756690979,1.6074270009994507,-1.9910167455673218,-1.4849236011505127,-2.921342611312866,0.3296380043029785,2.9104363918304443,1.1442707777023315,1.437665343284607,2.8316423892974854,2.708346366882324,0.8031259179115295,1.4641457796096802,-4.463440418243408,0.36977913975715637,-5.674127101898193,-1.7842825651168823,-6.5298237800598145,-0.664222240447998,-4.066806316375732,-1.8461534976959229,2.9685826301574707,-3.0098230838775635,-1.7755857706069946,-0.2233077883720398,0.245941162109375,1.1864145994186401,-0.7349141836166382,2.5227549076080322,0.8260968923568726,-0.004761449992656708,3.4534947872161865,0.9001466631889343,-0.11805443465709686,-2.0101776123046875,-2.2055160999298096,-2.5612120628356934,-1.7744438648223877,0.15177087485790253,-2.2419497966766357,-3.206057548522949,-1.3674240112304688,-0.18452224135398865,-3.466202974319458,1.2462154626846313,0.3245789706707001,-0.2991190552711487,3.7201294898986816,0.5640268921852112,1.1850725412368774,4.075606346130371,-1.1412863731384277,-1.173560619354248,-1.9161871671676636,-5.04205322265625,1.6336678266525269,0.6074884533882141,-2.3887600898742676,-0.7577311396598816,-1.4869563579559326,0.7831515073776245,-3.2899184226989746,-0.6709854602813721,1.9573640823364258,-1.7367079257965088,3.551804304122925,1.3511426448822021,3.0988211631774902,-0.5389643311500549,1.626859426498413,3.908689260482788,0.34564077854156494,-1.5036298036575317,-0.044240329414606094,-6.210668087005615,0.4003649055957794,2.3837924003601074,-5.217592239379883,-1.5327396392822266,8.668537139892578,-3.956974983215332,1.0401160717010498,-1.7059301137924194,0.4379774332046509,-0.04143331199884415,0.973166286945343,-0.5625208020210266,0.29037028551101685,-1.111445665359497,6.632066249847412,5.134943008422852,-0.8471384048461914,1.0596213340759277,4.1985321044921875,1.7862800359725952,0.22769369184970856,-1.751212477684021,3.0612597465515137,-1.8123787641525269,0.13080468773841858,3.6741514205932617,1.6101901531219482,-0.2534492015838623,2.045065402984619,-1.6207339763641357,0.3614642322063446,-5.113357067108154,4.231219291687012,0.10550856590270996,8.50946044921875,-4.5267863273620605,-1.572440505027771,0.7732043862342834,4.209530830383301,1.4504915475845337,1.3469765186309814,0.1587151736021042,2.3291573524475098,-0.05249287188053131,0.9234218597412109]},"forgetHidden":{"rows":20,"columns":20,"weights":[1.9682506322860718,1.8945467472076416,2.8581607341766357,1.6629109382629395,-0.19907718896865845,0.7296780347824097,-1.0227354764938354,-0.4599382281303406,0.5150052905082703,2.631103277206421,-0.3989606499671936,-0.05850110203027725,0.07873660326004028,-1.977128267288208,3.1927337646484375,-0.5560840368270874,-0.48889046907424927,-1.4632058143615723,3.6163361072540283,-2.5787768363952637,-3.865403890609741,0.7830247282981873,-1.7014025449752808,-1.3506932258605957,1.1437503099441528,-6.143237590789795,-3.490921974182129,0.814826488494873,-1.0618312358856201,-2.004154920578003,-3.772867202758789,2.1672732830047607,0.4127344787120819,-0.8246787786483765,-4.707230091094971,1.5293768644332886,-3.5081067085266113,-2.5371222496032715,